{"type":"LSTM","options":{"inputSize":82,"inputRange":82,"hiddenLayers":[20,20],"outputSize":82,"decayRate":0.999,"smoothEps":1e-8,"regc":0.000001,"clipval":5,"maxPredictionLength":100,"dataFormatter":{"values":["#lebron best athlete of our generation, if not all time (basketball related) I don't want to get into inter-sport debates about   __1/2","@Karoli I firmly believe that Obama/Pelosi have ZERO desire to be civil.  It's a charade and a slogan, but they want to destroy conservatism","@Pmillzz lebron IS THE BOSS","@SoChi2 I current use the Nikon D90 and love it, but not as much as the Canon 40D/50D. I chose the D90 for the  video feature. My mistake.","@kenburbary You'll love your Kindle2. I've had mine for a few months and never looked back. The new big one is huge! No need for remorse! :)","@ludajuice Lebron is a Beast, but I'm still cheering 4 the A..til the end.","@mikefish  Fair enough. But i have the Kindle2 and I think it's perfect  :)","@phyreman9 Google is always a good place to look. Should've mentioned I worked on the Mustang w/ my Dad, @KimbleT.","@richardebaker no. it is too big. I'm quite happy with the Kindle2.","@sketchbug Lebron is a hometown hero to me, lol I love the Lakers but let's go Cavs, lol","@stellargirl I loooooooovvvvvveee my Kindle2. Not that the DX is cool, but the 2 is fantastic in its own right.","@surfit: I just checked my google for my business- blip shows up as the second entry! Huh. Is that a good or ba... ? http://blip.fm/~6emhv","@wordwhizkid Lebron is a beast... nobody in the NBA comes even close.","A","Booz Allen Hamilton has a bad ass homegrown social collaboration platform. Way cool!  #ttiv","Check this video out -- President Obama at the White House Correspondents' Dinner http://bit.ly/IMXUM","Fuck this economy. I hate aig and their non loan given asses.","House Correspondents dinner was last night whoopi, barbara &amp; sherri went, Obama got a standing ovation","I was talking to this guy last night and he was telling me that he is a die hard Spurs fan.  He also told me that he hates LeBron James.","In montreal for a long weekend of R&amp;R. Much needed.","Jquery is my new best friend.","Loves twitter","N","Ok, first assesment of the #kindle2 ...it fucking rocks!!!","P","Played with an android google phone. The slide out screen scares me I would break that fucker so fast. Still prefer my iPhone.","Reading my kindle2...  Love it... Lee childs is good read.","US planning to resume the military tribunals at Guantanamo Bay... only this time those on trial will be AIG execs and Chrysler debt holders","Watchin Espn..Jus seen this new Nike Commerical with a Puppet Lebron..sh*t was hilarious...LMAO!!!","[#MLUC09] Customer Innovation Award Winner: Booz Allen Hamilton -- http://ping.fm/c2hPP","dear nike, stop with the flywire. that shit is a waste of science. and ugly. love, @vincentx24x","downloading apps for my iphone! So much fun :-) There literally is an app for just about anything.","good news, just had a call from the Visa office, saying everything is fine.....what a relief! I am sick of scams out there! Stealing!","how can you not love Obama? he makes jokes about himself.","http://twurl.nl/epkr4b - awesome come back from @biz (via @fredwilson)","i love lebron. http://bit.ly/PdHur","lebron and zydrunas are such an awesome duo","need suggestions for a good IR filter for my canon 40D ... got some? pls DM","omg so bored &amp; my tattoooos are so itchy!!  help! aha =)"],"indexTable":{"0":51,"1":28,"2":30,"4":52,"5":53,"6":67,"9":50,"#":0,"l":1,"e":2,"b":3,"r":4,"o":5,"n":6," ":7,"s":8,"t":9,"a":10,"h":11,"f":12,"u":13,"g":14,"i":15,",":16,"m":17,"(":18,"k":19,"d":20,")":21,"I":22,"'":23,"w":24,"-":25,"p":26,"_":27,"/":29,"@":31,"K":32,"y":33,"v":34,"O":35,"P":36,"Z":37,"E":38,"R":39,"c":40,".":41,"z":42,"S":43,"T":44,"H":45,"B":46,"C":47,"N":48,"D":49,"M":54,"Y":55,"!":56,":":57,"j":58,"L":59,"A":60,"F":61,"G":62,"q":63,"X":64,"?":65,"~":66,"W":68,"U":69,"&":70,";":71,"J":72,"x":73,"*":74,"[":75,"]":76,"V":77,"=":78,"stop-input":79,"start-output":80,"unrecognized":81},"characterTable":{"0":"#","1":"l","2":"e","3":"b","4":"r","5":"o","6":"n","7":" ","8":"s","9":"t","10":"a","11":"h","12":"f","13":"u","14":"g","15":"i","16":",","17":"m","18":"(","19":"k","20":"d","21":")","22":"I","23":"'","24":"w","25":"-","26":"p","27":"_","28":"1","29":"/","30":"2","31":"@","32":"K","33":"y","34":"v","35":"O","36":"P","37":"Z","38":"E","39":"R","40":"c","41":".","42":"z","43":"S","44":"T","45":"H","46":"B","47":"C","48":"N","49":"D","50":"9","51":"0","52":"4","53":"5","54":"M","55":"Y","56":"!","57":":","58":"j","59":"L","60":"A","61":"F","62":"G","63":"q","64":"X","65":"?","66":"~","67":"6","68":"W","69":"U","70":"&","71":";","72":"J","73":"x","74":"*","75":"[","76":"]","77":"V","78":"=","79":null,"80":null,"81":null},"characters":["#","l","e","b","r","o","n"," ","s","t","a","h","f","u","g","i",",","m","(","k","d",")","I","'","w","-","p","_","1","/","2","@","K","y","v","O","P","Z","E","R","c",".","z","S","T","H","B","C","N","D","9","0","4","5","M","Y","!",":","j","L","A","F","G","q","X","?","~","6","W","U","&",";","J","x","*","[","]","V","=","stop-input","start-output","unrecognized"],"specialIndexes":[79,80,81]}},"input":{"rows":83,"columns":82,"weights":{"0":0.41742807626724243,"1":0.17766150832176208,"2":-0.3842526376247406,"3":2.0052008628845215,"4":0.003320180345326662,"5":-0.3871539533138275,"6":-0.6876312494277954,"7":-0.8472869992256165,"8":1.3073209524154663,"9":1.4753265380859375,"10":-2.305053234100342,"11":0.27754896879196167,"12":1.2878129482269287,"13":-1.5802756547927856,"14":0.47115740180015564,"15":-0.46637821197509766,"16":0.5285663604736328,"17":0.37350770831108093,"18":-2.406270742416382,"19":0.298642635345459,"20":0.9294782280921936,"21":0.26576998829841614,"22":-0.9227119088172913,"23":1.1807515621185303,"24":0.16055834293365479,"25":0.09825654327869415,"26":0.780185878276825,"27":-0.0081178592517972,"28":-2.0612642765045166,"29":0.9637953639030457,"30":-0.7104737162590027,"31":1.8088257312774658,"32":0.9810062050819397,"33":0.8860182762145996,"34":-1.5676116943359375,"35":-1.0112460851669312,"36":-2.2740352153778076,"37":-0.20187005400657654,"38":-1.8939695358276367,"39":0.5242379307746887,"40":-0.40728598833084106,"41":-0.5745550394058228,"42":-0.5744710564613342,"43":1.8985497951507568,"44":2.2074339389801025,"45":-0.09235304594039917,"46":-0.2555933892726898,"47":1.2900919914245605,"48":1.724891185760498,"49":1.0249680280685425,"50":-1.22175931930542,"51":-1.0701792240142822,"52":0.24070358276367188,"53":2.9628467559814453,"54":-0.3470902144908905,"55":-0.2506238520145416,"56":-0.09420057386159897,"57":0.7122020721435547,"58":-0.45671844482421875,"59":-0.7564552426338196,"60":1.6976038217544556,"61":-1.4930968284606934,"62":1.0707886219024658,"63":-1.8523343801498413,"64":-0.5712935328483582,"65":1.9727277755737305,"66":1.8484009504318237,"67":-1.4068328142166138,"68":1.515350341796875,"69":-0.7340831756591797,"70":0.3281286656856537,"71":1.2807704210281372,"72":-0.07094592601060867,"73":-0.8118417263031006,"74":1.3876760005950928,"75":-0.9692032337188721,"76":1.2205743789672852,"77":0.32551342248916626,"78":-0.5647384524345398,"79":1.884985327720642,"80":-0.15489697456359863,"81":1.512711524963379,"82":-5.919867038726807,"83":1.2043166160583496,"84":3.5883350372314453,"85":2.504643201828003,"86":-0.18549825251102448,"87":0.8163238167762756,"88":-2.4789907932281494,"89":3.818243980407715,"90":-2.1204001903533936,"91":0.002780383685603738,"92":0.17861704528331757,"93":-0.31052321195602417,"94":1.703153371810913,"95":-1.6441805362701416,"96":0.37299656867980957,"97":7.8275146484375,"98":2.794616937637329,"99":2.363614559173584,"100":-3.8247082233428955,"101":-0.09151337295770645,"102":2.9443254470825195,"103":2.874570846557617,"104":-0.7789649367332458,"105":2.1744062900543213,"106":-0.20674815773963928,"107":-5.57903528213501,"108":1.3612562417984009,"109":3.2004005908966064,"110":-1.4170571565628052,"111":-5.458751201629639,"112":-0.2591434121131897,"113":-0.8224101662635803,"114":3.96838116645813,"115":0.764997124671936,"116":-5.7153120040893555,"117":-4.246582984924316,"118":-2.0275588035583496,"119":5.088460445404053,"120":3.953115940093994,"121":4.270002365112305,"122":-5.163339138031006,"123":3.515913248062134,"124":1.9215229749679565,"125":-1.6026742458343506,"126":5.036275386810303,"127":8.012885093688965,"128":-5.030667781829834,"129":-5.149166107177734,"130":3.4740025997161865,"131":1.0352593660354614,"132":5.0712103843688965,"133":7.771358489990234,"134":5.154652118682861,"135":8.114378929138184,"136":-1.8469659090042114,"137":-0.007366012316197157,"138":9.587748527526855,"139":1.7550925016403198,"140":4.502956390380859,"141":-6.940447807312012,"142":1.3800770044326782,"143":3.3095755577087402,"144":0.1466519981622696,"145":-9.088032722473145,"146":1.9572455883026123,"147":3.7932703495025635,"148":2.0484116077423096,"149":-3.416344404220581,"150":-2.897172451019287,"151":2.240696907043457,"152":4.032671928405762,"153":4.267650604248047,"154":2.3144049644470215,"155":-0.9494466781616211,"156":4.600876331329346,"157":-2.933239459991455,"158":5.631992816925049,"159":-1.4775995016098022,"160":4.520940780639648,"161":5.5509934425354,"162":1.9572265148162842,"163":3.086092710494995,"164":-2.261439323425293,"165":0.60188889503479,"166":-0.20371146500110626,"167":1.7797660827636719,"168":1.3914821147918701,"169":-1.8962148427963257,"170":0.9125871658325195,"171":0.23141929507255554,"172":-1.9187051057815552,"173":-1.5073678493499756,"174":1.380346417427063,"175":0.8883280158042908,"176":-1.2246615886688232,"177":0.762753963470459,"178":-1.5706672668457031,"179":0.8264865279197693,"180":-2.4002597332000732,"181":-0.5638396739959717,"182":-0.23042650520801544,"183":-5.970907688140869,"184":1.5709257125854492,"185":1.0516413450241089,"186":0.7228246927261353,"187":-0.9141789078712463,"188":2.179328203201294,"189":0.15714915096759796,"190":-0.5334343314170837,"191":-0.5820340514183044,"192":-0.34305301308631897,"193":-5.174978256225586,"194":-1.370821237564087,"195":-1.8240993022918701,"196":-2.938427686691284,"197":1.6488840579986572,"198":0.48128992319107056,"199":-1.493939995765686,"200":0.2776675522327423,"201":3.0310964584350586,"202":0.10050248354673386,"203":-0.11392897367477417,"204":0.9764493703842163,"205":1.438094139099121,"206":0.5249944925308228,"207":-0.5422388315200806,"208":2.438051700592041,"209":3.1544530391693115,"210":1.6610746383666992,"211":-1.8390026092529297,"212":0.424406498670578,"213":-0.07735482603311539,"214":-1.8329094648361206,"215":2.2384421825408936,"216":-1.0137845277786255,"217":2.779900312423706,"218":-1.9086037874221802,"219":-3.4177205562591553,"220":0.8952818512916565,"221":1.512431263923645,"222":-1.3572015762329102,"223":0.3677101135253906,"224":-2.3217501640319824,"225":-0.6444984674453735,"226":1.3414827585220337,"227":-0.23533840477466583,"228":-0.23692214488983154,"229":2.908961534500122,"230":-1.6659257411956787,"231":-0.5439392328262329,"232":0.4513475000858307,"233":-0.979254961013794,"234":0.9699426293373108,"235":-1.7540225982666016,"236":0.9971387982368469,"237":-1.650272011756897,"238":0.05390406399965286,"239":-1.0953289270401,"240":2.8742597103118896,"241":-1.0886132717132568,"242":0.11511608213186264,"243":1.176774263381958,"244":0.09095706045627594,"245":1.26156485080719,"246":0.6050029397010803,"247":0.49377676844596863,"248":-3.023498773574829,"249":-0.08632905036211014,"250":-1.1170120239257812,"251":0.22753286361694336,"252":-1.9731247425079346,"253":-0.03643237426877022,"254":2.3146719932556152,"255":0.8510690331459045,"256":-0.6650323271751404,"257":-1.2518104314804077,"258":0.25873610377311707,"259":-1.7970300912857056,"260":0.8762588500976562,"261":-1.0706785917282104,"262":-0.9494757056236267,"263":-3.989269733428955,"264":0.5483657717704773,"265":1.7438887357711792,"266":-0.24035409092903137,"267":0.5954475998878479,"268":0.1693371683359146,"269":0.947551965713501,"270":0.2650738060474396,"271":1.8949902057647705,"272":2.2929348945617676,"273":-0.6148873567581177,"274":-0.03366653248667717,"275":3.65063738822937,"276":-1.6159623861312866,"277":-0.5040716528892517,"278":0.23018020391464233,"279":-0.1862259954214096,"280":0.11652456223964691,"281":1.998803973197937,"282":-1.3712708950042725,"283":-0.06401383876800537,"284":-4.941915512084961,"285":-1.2519779205322266,"286":0.03197581321001053,"287":-1.2525311708450317,"288":-0.5430054664611816,"289":2.138869524002075,"290":-0.4396224915981293,"291":-2.3393735885620117,"292":-1.7679356336593628,"293":2.9206840991973877,"294":-1.1126937866210938,"295":0.8302536606788635,"296":-4.789337635040283,"297":0.15625208616256714,"298":0.6543158292770386,"299":-1.8468681573867798,"300":1.2773669958114624,"301":-0.848430335521698,"302":-0.983690083026886,"303":0.22799021005630493,"304":0.1041317731142044,"305":0.32768338918685913,"306":1.735819697380066,"307":0.302225798368454,"308":-0.4357961416244507,"309":1.8615564107894897,"310":-0.8176975846290588,"311":-1.318117618560791,"312":-1.0414537191390991,"313":0.34517136216163635,"314":2.8033580780029297,"315":2.0662589073181152,"316":-0.24965642392635345,"317":0.42124783992767334,"318":-0.8673058748245239,"319":1.6902915239334106,"320":0.1014801487326622,"321":-3.758040189743042,"322":-2.577681064605713,"323":1.780727505683899,"324":-3.2136290073394775,"325":0.22617165744304657,"326":1.1914050579071045,"327":-0.20994538068771362,"328":0.5940084457397461,"329":0.4471296966075897,"330":-0.1110617145895958,"331":2.1278300285339355,"332":0.834250271320343,"333":-0.619224488735199,"334":1.3522281646728516,"335":-1.1095051765441895,"336":-1.2103817462921143,"337":1.2631454467773438,"338":2.387934923171997,"339":6.205014228820801,"340":-1.7893004417419434,"341":-2.2246291637420654,"342":-0.8683353066444397,"343":-1.0173972845077515,"344":-2.4644806385040283,"345":0.17783123254776,"346":1.6267417669296265,"347":3.040062427520752,"348":1.1114649772644043,"349":0.8559650778770447,"350":1.887926697731018,"351":-0.39291420578956604,"352":-1.8729844093322754,"353":0.6819233298301697,"354":-0.4179455041885376,"355":0.3333459794521332,"356":2.1096365451812744,"357":0.7533345818519592,"358":-0.8445059657096863,"359":3.7883036136627197,"360":-0.2235683798789978,"361":-1.4292641878128052,"362":-1.121134877204895,"363":2.8761651515960693,"364":-0.7535639405250549,"365":-1.8674647808074951,"366":-0.6218985319137573,"367":-0.09527888149023056,"368":0.8001031875610352,"369":0.37759101390838623,"370":1.0268449783325195,"371":2.389557123184204,"372":1.808377981185913,"373":-1.5884922742843628,"374":4.033717632293701,"375":-0.4392422139644623,"376":-0.6222964525222778,"377":0.5661079287528992,"378":5.462941646575928,"379":1.6174310445785522,"380":-0.4330262541770935,"381":-5.225809574127197,"382":-2.7287120819091797,"383":2.791848659515381,"384":0.2664434313774109,"385":-0.3788791298866272,"386":-0.811393678188324,"387":1.559877634048462,"388":0.5582701563835144,"389":1.3454837799072266,"390":-0.3837794363498688,"391":-0.0047225747257471085,"392":0.9496304392814636,"393":-0.8780251145362854,"394":-3.3219244480133057,"395":-0.895102858543396,"396":-1.6673115491867065,"397":-1.242551565170288,"398":0.09571690857410431,"399":1.5020818710327148,"400":0.1442367136478424,"401":3.2723991870880127,"402":-2.747037887573242,"403":2.419306516647339,"404":-2.6378891468048096,"405":-0.9915314316749573,"406":-0.15898266434669495,"407":-0.9968557953834534,"408":-0.42627111077308655,"409":-3.230196475982666,"410":-0.28479433059692383,"411":-1.8383312225341797,"412":1.486197829246521,"413":1.265036940574646,"414":-2.596696376800537,"415":0.01254197582602501,"416":-1.829270362854004,"417":-0.6960166096687317,"418":0.27598705887794495,"419":-0.5672171711921692,"420":2.1634647846221924,"421":1.3211332559585571,"422":-0.33825334906578064,"423":-0.9787329435348511,"424":-4.049031734466553,"425":-1.3929263353347778,"426":1.2622344493865967,"427":1.005919337272644,"428":-2.010648727416992,"429":1.1104896068572998,"430":-0.8658039569854736,"431":-1.8020427227020264,"432":1.1919032335281372,"433":0.14898434281349182,"434":-3.6192541122436523,"435":-1.3620448112487793,"436":2.7912027835845947,"437":-0.5960878133773804,"438":-0.8239388465881348,"439":-0.2792489528656006,"440":1.5255084037780762,"441":0.46547093987464905,"442":-1.2621947526931763,"443":2.6123452186584473,"444":2.248368978500366,"445":0.34337538480758667,"446":-2.117361068725586,"447":0.6644538044929504,"448":-0.07071352750062943,"449":3.1655068397521973,"450":-1.6967488527297974,"451":-1.654123067855835,"452":-0.07190662622451782,"453":-1.0527918338775635,"454":1.4155715703964233,"455":1.9114118814468384,"456":-0.07324585318565369,"457":-1.3165119886398315,"458":2.8608574867248535,"459":0.14041581749916077,"460":0.12633471190929413,"461":1.8781250715255737,"462":-2.6996524333953857,"463":1.4419299364089966,"464":-0.4933445155620575,"465":-0.8419232368469238,"466":1.0749238729476929,"467":1.1776847839355469,"468":-1.1997069120407104,"469":-1.6934351921081543,"470":-1.3564841747283936,"471":-2.441789150238037,"472":1.7087634801864624,"473":-1.3285421133041382,"474":-2.791494846343994,"475":-0.20635342597961426,"476":0.8199138641357422,"477":-0.7282992601394653,"478":-1.746410608291626,"479":-0.6242810487747192,"480":1.2746260166168213,"481":-0.32747402787208557,"482":-0.7386060953140259,"483":1.013933539390564,"484":3.7769696712493896,"485":0.5851422548294067,"486":1.3235505819320679,"487":1.0930622816085815,"488":-0.5726925134658813,"489":1.8094533681869507,"490":-3.590831995010376,"491":-0.40504658222198486,"492":-1.2589257955551147,"493":0.8107759356498718,"494":1.4623233079910278,"495":-1.1462242603302002,"496":1.2135707139968872,"497":0.6109544038772583,"498":-0.3374495208263397,"499":0.5735945701599121,"500":0.3459661304950714,"501":0.40039336681365967,"502":-1.4415035247802734,"503":-0.4018487334251404,"504":-0.43012815713882446,"505":-0.6862070560455322,"506":0.47949331998825073,"507":0.15228183567523956,"508":0.7376617789268494,"509":-0.40549471974372864,"510":1.5039596557617188,"511":-0.1908462941646576,"512":0.6686229705810547,"513":1.4151602983474731,"514":-0.36938488483428955,"515":-0.11464139819145203,"516":-1.3025563955307007,"517":0.4279567003250122,"518":-0.05104606971144676,"519":0.36873534321784973,"520":-0.9700534343719482,"521":-2.2958984375,"522":-0.29158973693847656,"523":0.5981966257095337,"524":-0.5818615555763245,"525":-0.7914324402809143,"526":-0.30164992809295654,"527":-0.44304201006889343,"528":-0.3441445231437683,"529":0.289089173078537,"530":0.10952946543693542,"531":-0.2823534905910492,"532":-0.723225474357605,"533":2.796722650527954,"534":1.4371354579925537,"535":1.1201682090759277,"536":1.171625018119812,"537":0.7780840992927551,"538":-1.7519216537475586,"539":-0.44407984614372253,"540":0.8534470796585083,"541":1.4756712913513184,"542":-1.2635611295700073,"543":2.6516594886779785,"544":0.1728813350200653,"545":1.4597702026367188,"546":-0.5047755241394043,"547":1.2219157218933105,"548":1.021816372871399,"549":-0.7377200126647949,"550":0.5799583196640015,"551":-0.9616420865058899,"552":-0.7598310708999634,"553":0.9098485112190247,"554":0.6788976788520813,"555":1.4133257865905762,"556":-0.5964505672454834,"557":-0.2268948256969452,"558":-1.0820579528808594,"559":0.32016241550445557,"560":-1.5174098014831543,"561":3.110427141189575,"562":0.1781139075756073,"563":1.085626244544983,"564":0.18066751956939697,"565":2.0331783294677734,"566":0.11300146579742432,"567":3.049804925918579,"568":-0.4711324870586395,"569":-1.9711239337921143,"570":0.4551713764667511,"571":1.3603862524032593,"572":-0.008436119183897972,"573":0.20143064856529236,"574":0.13239459693431854,"575":1.0784333944320679,"576":1.1366411447525024,"577":-1.459193468093872,"578":-0.9545599222183228,"579":0.446519672870636,"580":-0.5646915435791016,"581":-0.023057587444782257,"582":-2.2057108879089355,"583":1.1710612773895264,"584":0.5509385466575623,"585":0.8679656982421875,"586":-1.8259503841400146,"587":-0.7997089624404907,"588":-1.499060869216919,"589":0.8713353872299194,"590":0.4350232183933258,"591":-0.11925267428159714,"592":-1.4231175184249878,"593":2.1892142295837402,"594":2.109154224395752,"595":0.19391539692878723,"596":0.7611806988716125,"597":-0.3005181550979614,"598":-2.2118468284606934,"599":0.7711930274963379,"600":2.6745193004608154,"601":-0.831790030002594,"602":-0.7781674265861511,"603":-2.9618449211120605,"604":1.071390151977539,"605":1.0778356790542603,"606":1.298323392868042,"607":1.361106276512146,"608":1.8376017808914185,"609":-0.0767071545124054,"610":-2.130647659301758,"611":1.4658677577972412,"612":0.7504356503486633,"613":-0.21409492194652557,"614":0.8619723320007324,"615":-1.447646975517273,"616":1.9125699996948242,"617":0.46569201350212097,"618":1.4901413917541504,"619":1.295122742652893,"620":-1.5982427597045898,"621":-4.5132222175598145,"622":3.5596985816955566,"623":0.7476966381072998,"624":1.2728509902954102,"625":0.46299436688423157,"626":-1.0091981887817383,"627":2.2464230060577393,"628":-0.4101231098175049,"629":1.4378474950790405,"630":0.5183730125427246,"631":0.15891338884830475,"632":0.07160332798957825,"633":-0.6193794012069702,"634":0.45810022950172424,"635":0.3454078733921051,"636":1.4157347679138184,"637":-0.49042612314224243,"638":1.1211555004119873,"639":1.3711017370224,"640":-0.6733157634735107,"641":0.3063023090362549,"642":-1.3495525121688843,"643":0.12793199717998505,"644":0.9062605500221252,"645":-1.5049370527267456,"646":0.9442024230957031,"647":1.9713011980056763,"648":1.2722620964050293,"649":2.088221549987793,"650":1.6049367189407349,"651":-1.6207340955734253,"652":1.69656503200531,"653":1.5580053329467773,"654":-1.8925447463989258,"655":-1.026350975036621,"656":0.07885948568582535,"657":1.3861318826675415,"658":-0.7089546322822571,"659":0.3356185853481293,"660":1.9787462949752808,"661":-1.4062541723251343,"662":1.5939990282058716,"663":-2.0690019130706787,"664":1.0886815786361694,"665":-1.6380010843276978,"666":2.5090293884277344,"667":-0.3878166079521179,"668":2.541381359100342,"669":1.0512950420379639,"670":0.12617440521717072,"671":0.39329585433006287,"672":-1.8506792783737183,"673":-1.715821623802185,"674":-0.39659518003463745,"675":-0.7532317638397217,"676":-0.6590703129768372,"677":-0.4123872220516205,"678":-2.3198888301849365,"679":0.11165469139814377,"680":1.9007697105407715,"681":2.042750835418701,"682":0.21752983331680298,"683":2.531987190246582,"684":-2.0599639415740967,"685":-0.1296463906764984,"686":0.547342836856842,"687":-0.20618288218975067,"688":-1.637373924255371,"689":1.3815760612487793,"690":0.36840152740478516,"691":-0.21961192786693573,"692":-0.8800818920135498,"693":-1.0084072351455688,"694":-0.7651666402816772,"695":-0.2829030454158783,"696":1.406358242034912,"697":-0.07867410778999329,"698":-2.1557798385620117,"699":-2.1402835845947266,"700":0.5219654440879822,"701":-1.315600872039795,"702":-0.20706744492053986,"703":-0.484833300113678,"704":0.09433964639902115,"705":0.8598451018333435,"706":-0.8954004645347595,"707":1.8068180084228516,"708":-1.4129832983016968,"709":-0.6568974852561951,"710":-0.30830711126327515,"711":-0.6121789813041687,"712":-1.1499114036560059,"713":-0.3398081064224243,"714":0.5674365758895874,"715":2.026154041290283,"716":-0.9410049319267273,"717":1.5032092332839966,"718":0.5380761027336121,"719":-0.34463587403297424,"720":1.5343395471572876,"721":0.5175500512123108,"722":-1.0148966312408447,"723":-1.9397351741790771,"724":1.9266811609268188,"725":-1.2281557321548462,"726":0.7725294232368469,"727":-0.12200910598039627,"728":0.316500186920166,"729":0.9096521735191345,"730":-0.17569857835769653,"731":-1.1156067848205566,"732":0.9115447998046875,"733":-0.3760331869125366,"734":-1.9326460361480713,"735":-0.45216405391693115,"736":1.037261962890625,"737":1.8025308847427368,"738":0.4077444076538086,"739":-1.2891048192977905,"740":-1.1715092658996582,"741":1.951311469078064,"742":0.859340488910675,"743":0.7869049310684204,"744":-0.886192798614502,"745":0.8495035767555237,"746":1.4604825973510742,"747":2.3905303478240967,"748":1.5696685314178467,"749":2.806729316711426,"750":-0.06894446164369583,"751":0.9193214178085327,"752":-0.052733164280653,"753":0.41074344515800476,"754":0.33271053433418274,"755":1.4127838611602783,"756":-2.6031992435455322,"757":1.269966721534729,"758":2.0376884937286377,"759":0.6436580419540405,"760":1.132225751876831,"761":-1.3867911100387573,"762":0.4688260555267334,"763":-3.5227794647216797,"764":-1.151997685432434,"765":-0.8214617371559143,"766":-0.4257444441318512,"767":-1.612082839012146,"768":1.6888008117675781,"769":1.0000905990600586,"770":1.473639965057373,"771":1.3302818536758423,"772":-1.605533242225647,"773":0.4610959589481354,"774":1.5691546201705933,"775":2.685363531112671,"776":-1.9645415544509888,"777":0.8944266438484192,"778":-1.5634791851043701,"779":0.87186598777771,"780":1.3252761363983154,"781":1.4420071840286255,"782":3.4150655269622803,"783":2.5509934425354004,"784":0.9375550150871277,"785":-2.7855935096740723,"786":1.8778424263000488,"787":0.9594866633415222,"788":-0.5477883815765381,"789":0.301425963640213,"790":-1.4619604349136353,"791":1.8148409128189087,"792":-6.24025821685791,"793":-1.0320101976394653,"794":1.2978787422180176,"795":-0.8877968788146973,"796":-1.613205075263977,"797":-2.116943359375,"798":-0.2985418140888214,"799":-1.964505910873413,"800":1.0486366748809814,"801":-0.18189522624015808,"802":1.6610469818115234,"803":2.4695656299591064,"804":0.44493043422698975,"805":-1.4827165603637695,"806":-1.6711958646774292,"807":-0.23631517589092255,"808":-0.17133767902851105,"809":0.7896913290023804,"810":2.0222575664520264,"811":0.05570469796657562,"812":2.2379865646362305,"813":0.7315521240234375,"814":2.0680127143859863,"815":0.7943490147590637,"816":0.6647329330444336,"817":0.811367392539978,"818":2.0896151065826416,"819":1.920170783996582,"820":-0.16466104984283447,"821":0.46259018778800964,"822":-0.35817018151283264,"823":-0.34602051973342896,"824":-0.29246047139167786,"825":2.1262497901916504,"826":-1.5472426414489746,"827":-0.41372671723365784,"828":-0.48010286688804626,"829":0.5045304298400879,"830":1.36228346824646,"831":0.16202379763126373,"832":-1.2250993251800537,"833":0.09063757210969925,"834":-1.6955960988998413,"835":0.6210947632789612,"836":0.46960684657096863,"837":-0.46157002449035645,"838":-3.1208701133728027,"839":-0.16749493777751923,"840":1.2121998071670532,"841":-0.9896998405456543,"842":0.6847488284111023,"843":-0.6753872632980347,"844":-0.4512835741043091,"845":-1.2653253078460693,"846":0.9291924834251404,"847":-0.7580155730247498,"848":-2.1952762603759766,"849":-0.03719382360577583,"850":1.0823149681091309,"851":1.40070378780365,"852":0.42358821630477905,"853":0.4429222643375397,"854":1.2485969066619873,"855":-1.137432336807251,"856":0.26181188225746155,"857":1.2606490850448608,"858":1.4205759763717651,"859":0.05099282041192055,"860":0.2618241310119629,"861":-1.509542465209961,"862":0.31160208582878113,"863":-0.36704254150390625,"864":0.4854605495929718,"865":2.173107385635376,"866":-0.0009310338064096868,"867":-2.072420597076416,"868":3.3470184803009033,"869":-0.2938481569290161,"870":-0.03462972119450569,"871":-0.5942506790161133,"872":-0.8328422904014587,"873":1.2311204671859741,"874":0.19366706907749176,"875":-1.0345702171325684,"876":0.2710019648075104,"877":0.6374723315238953,"878":0.03731429576873779,"879":-1.1919153928756714,"880":-1.07102632522583,"881":0.3681195378303528,"882":3.4122166633605957,"883":-1.9841384887695312,"884":-0.5278118252754211,"885":1.4818050861358643,"886":1.1780855655670166,"887":-1.0096373558044434,"888":-1.3254034519195557,"889":-0.897958517074585,"890":-0.06562349945306778,"891":-0.7944936156272888,"892":-0.34086519479751587,"893":-0.4125886559486389,"894":1.588005542755127,"895":1.0744898319244385,"896":1.2763662338256836,"897":-0.32896357774734497,"898":-0.027481531724333763,"899":1.737404704093933,"900":0.03764504939317703,"901":0.4089120626449585,"902":-0.8713176846504211,"903":0.5879367589950562,"904":0.005148300435394049,"905":-0.28669941425323486,"906":0.460032194852829,"907":-0.015580596402287483,"908":-0.30969443917274475,"909":-0.6741552948951721,"910":2.894083261489868,"911":1.0739253759384155,"912":0.7087063193321228,"913":-0.5863890647888184,"914":-0.8430710434913635,"915":0.19722475111484528,"916":2.1228749752044678,"917":1.532121181488037,"918":-0.20157849788665771,"919":-2.3037493228912354,"920":-2.5406317710876465,"921":-2.2529985904693604,"922":1.6620874404907227,"923":0.720646858215332,"924":0.7335042953491211,"925":1.4868062734603882,"926":0.4463624060153961,"927":-1.0769987106323242,"928":0.7265480160713196,"929":0.1466897428035736,"930":-0.5210849642753601,"931":5.764952182769775,"932":-1.3693201541900635,"933":0.39512914419174194,"934":-0.1015540063381195,"935":0.5840853452682495,"936":2.3648853302001953,"937":0.40415677428245544,"938":1.1871812343597412,"939":-1.8642808198928833,"940":-0.7260172963142395,"941":-1.6470038890838623,"942":0.9476349949836731,"943":0.0425255112349987,"944":-0.6220363974571228,"945":-0.39705294370651245,"946":-0.5201854705810547,"947":-1.268396019935608,"948":0.024763837456703186,"949":1.7210603952407837,"950":-1.834281086921692,"951":0.10248341411352158,"952":-7.330095291137695,"953":-1.2265435457229614,"954":-1.8512322902679443,"955":-1.2592880725860596,"956":1.7031551599502563,"957":-0.5682021975517273,"958":1.0998786687850952,"959":-0.4931703805923462,"960":-0.371610164642334,"961":-1.0095787048339844,"962":-0.2161141037940979,"963":-3.184119462966919,"964":-1.1768290996551514,"965":-0.07449796050786972,"966":0.23412029445171356,"967":-1.536070466041565,"968":0.6617400050163269,"969":-4.111569404602051,"970":0.9966405630111694,"971":1.8069677352905273,"972":-2.363527536392212,"973":0.15260298550128937,"974":0.5861530900001526,"975":-0.6640042662620544,"976":0.5580407381057739,"977":-2.4998152256011963,"978":-0.8648179173469543,"979":2.2901227474212646,"980":-2.7496800422668457,"981":-1.8214151859283447,"982":1.6462948322296143,"983":0.5805949568748474,"984":-0.33758553862571716,"985":-1.6411402225494385,"986":1.549802303314209,"987":-1.9277740716934204,"988":0.08650630712509155,"989":0.8812617659568787,"990":-0.4514344036579132,"991":0.6981496810913086,"992":-0.5697535872459412,"993":-1.7569055557250977,"994":-0.026484321802854538,"995":-1.4559690952301025,"996":0.6338968276977539,"997":1.9840588569641113,"998":1.3616950511932373,"999":-1.318273663520813,"1000":1.8126975297927856,"1001":2.101137638092041,"1002":0.5350726246833801,"1003":-1.0655874013900757,"1004":-2.444124221801758,"1005":-0.42462652921676636,"1006":-0.5092926621437073,"1007":0.36091378331184387,"1008":-2.2336344718933105,"1009":0.3714345395565033,"1010":0.23544223606586456,"1011":0.28604528307914734,"1012":1.8191896677017212,"1013":1.0498065948486328,"1014":0.3409646451473236,"1015":-1.596962571144104,"1016":0.6984826922416687,"1017":-2.9137234687805176,"1018":0.7109667062759399,"1019":1.3131765127182007,"1020":0.7168097496032715,"1021":-0.9690221548080444,"1022":-0.026372501626610756,"1023":-0.07833022624254227,"1024":-0.4909200370311737,"1025":-0.39266884326934814,"1026":0.7892656922340393,"1027":-4.024021625518799,"1028":-3.322591543197632,"1029":-0.2523825466632843,"1030":0.9160499572753906,"1031":1.4152756929397583,"1032":1.2201787233352661,"1033":0.8120132088661194,"1034":0.21478131413459778,"1035":2.3618364334106445,"1036":-1.5828430652618408,"1037":-2.2362475395202637,"1038":3.3293769359588623,"1039":-1.0255980491638184,"1040":0.7318350672721863,"1041":1.6171822547912598,"1042":-1.6623849868774414,"1043":0.9524908065795898,"1044":-1.6225206851959229,"1045":-0.33861789107322693,"1046":0.2547573745250702,"1047":1.5184898376464844,"1048":-0.6656818389892578,"1049":-0.5546243786811829,"1050":-3.0249903202056885,"1051":3.2339718341827393,"1052":-0.6073688864707947,"1053":0.35327306389808655,"1054":0.8439990878105164,"1055":-1.0780153274536133,"1056":-1.8316776752471924,"1057":-2.4127137660980225,"1058":-0.3397567570209503,"1059":2.11293363571167,"1060":-1.6459497213363647,"1061":0.7450112104415894,"1062":0.5000423789024353,"1063":-1.1457027196884155,"1064":-0.3090287446975708,"1065":-0.7500284910202026,"1066":-0.855695903301239,"1067":-1.0197396278381348,"1068":0.3009019196033478,"1069":0.5725012421607971,"1070":-1.9277797937393188,"1071":4.1392717361450195,"1072":-3.0067741870880127,"1073":-1.2573915719985962,"1074":-2.363243341445923,"1075":2.8460774421691895,"1076":0.03143664076924324,"1077":1.5671991109848022,"1078":-2.9549367427825928,"1079":-2.233344316482544,"1080":-2.515674114227295,"1081":-0.3048069477081299,"1082":1.459221601486206,"1083":0.7931170463562012,"1084":-2.315577745437622,"1085":2.1206042766571045,"1086":3.4339795112609863,"1087":1.3289240598678589,"1088":1.7810918092727661,"1089":2.5203804969787598,"1090":-1.2507402896881104,"1091":1.056320309638977,"1092":2.5647010803222656,"1093":-3.603106737136841,"1094":-1.2605267763137817,"1095":-1.0228217840194702,"1096":0.04588707536458969,"1097":0.4751649796962738,"1098":-0.45083531737327576,"1099":2.300342559814453,"1100":-2.949056625366211,"1101":-2.0739500522613525,"1102":0.658894956111908,"1103":2.56856107711792,"1104":2.1381592750549316,"1105":0.9594932198524475,"1106":1.0554651021957397,"1107":-0.13752570748329163,"1108":2.2308638095855713,"1109":1.7068603038787842,"1110":1.6248857975006104,"1111":2.3789868354797363,"1112":-2.2714967727661133,"1113":-4.028109550476074,"1114":4.609801769256592,"1115":-0.27496251463890076,"1116":-1.421826958656311,"1117":-3.7747650146484375,"1118":-0.01699434220790863,"1119":3.940535545349121,"1120":-0.45456525683403015,"1121":1.1048470735549927,"1122":2.80472469329834,"1123":1.586602807044983,"1124":-0.3977140784263611,"1125":-1.752083659172058,"1126":1.0432970523834229,"1127":2.916882038116455,"1128":2.6150639057159424,"1129":-2.4083852767944336,"1130":1.0476202964782715,"1131":2.3589253425598145,"1132":1.505693793296814,"1133":0.4092719256877899,"1134":-2.558306932449341,"1135":-1.3031153678894043,"1136":-1.321852684020996,"1137":-0.5144416093826294,"1138":0.9226360321044922,"1139":-0.7677284479141235,"1140":0.9358006715774536,"1141":-0.33091577887535095,"1142":0.847542405128479,"1143":-0.9109422564506531,"1144":2.397566795349121,"1145":0.06654846668243408,"1146":-0.4960009753704071,"1147":-0.3546316921710968,"1148":0.8875686526298523,"1149":3.9428577423095703,"1150":-4.070232391357422,"1151":-0.36112749576568604,"1152":-0.24130265414714813,"1153":0.39643239974975586,"1154":2.8349087238311768,"1155":-3.5637598037719727,"1156":-1.501213550567627,"1157":2.100660562515259,"1158":0.9081238508224487,"1159":-0.8906562924385071,"1160":-1.9808026552200317,"1161":1.525411605834961,"1162":-0.6781098246574402,"1163":0.2926217019557953,"1164":0.44227734208106995,"1165":-3.2846758365631104,"1166":-0.21817483007907867,"1167":0.49247732758522034,"1168":0.5406527519226074,"1169":1.650813341140747,"1170":0.9984397292137146,"1171":0.33901703357696533,"1172":0.2720756530761719,"1173":2.217038869857788,"1174":1.406477928161621,"1175":1.5850132703781128,"1176":-0.5764187574386597,"1177":-0.41186508536338806,"1178":-0.5776629447937012,"1179":-0.4517916142940521,"1180":-0.3193228840827942,"1181":2.601362705230713,"1182":-2.835665225982666,"1183":0.3843480050563812,"1184":1.0323694944381714,"1185":1.5560405254364014,"1186":-2.1945486068725586,"1187":-2.138908624649048,"1188":0.33308926224708557,"1189":0.14717012643814087,"1190":2.026843547821045,"1191":1.9783375263214111,"1192":0.09218316525220871,"1193":0.6729646921157837,"1194":1.063141942024231,"1195":-2.308955430984497,"1196":1.0045350790023804,"1197":2.117172956466675,"1198":-2.441648244857788,"1199":1.3091604709625244,"1200":2.138230085372925,"1201":2.382179021835327,"1202":-1.564555287361145,"1203":-0.8761032223701477,"1204":1.3911819458007812,"1205":-0.2589578628540039,"1206":-0.13027584552764893,"1207":2.0753982067108154,"1208":-0.33109551668167114,"1209":-3.3728978633880615,"1210":-0.972199559211731,"1211":-1.612829327583313,"1212":-2.8974921703338623,"1213":-0.12010122090578079,"1214":0.2361464500427246,"1215":-0.5559830665588379,"1216":-0.9663133025169373,"1217":2.737636089324951,"1218":-0.9775565266609192,"1219":2.064998149871826,"1220":0.1771385222673416,"1221":0.21625742316246033,"1222":-1.6382662057876587,"1223":0.072084441781044,"1224":2.875157594680786,"1225":-0.01910552941262722,"1226":0.41156840324401855,"1227":0.08105939626693726,"1228":2.216603994369507,"1229":-0.6378558874130249,"1230":-1.0242878198623657,"1231":-2.2932612895965576,"1232":0.46699950098991394,"1233":-0.024064743891358376,"1234":-1.8296688795089722,"1235":2.861675977706909,"1236":-0.1569937914609909,"1237":-0.016430167481303215,"1238":-0.18564528226852417,"1239":-1.1644359827041626,"1240":-0.841628909111023,"1241":-0.15434443950653076,"1242":-3.694458484649658,"1243":-1.2972617149353027,"1244":0.6448379158973694,"1245":-2.8418092727661133,"1246":1.5131410360336304,"1247":-0.888988733291626,"1248":1.004339575767517,"1249":1.9860858917236328,"1250":-2.790018081665039,"1251":-0.5712446570396423,"1252":1.76840341091156,"1253":0.03939712047576904,"1254":-2.416466474533081,"1255":1.4389976263046265,"1256":-1.2759336233139038,"1257":-1.0170353651046753,"1258":4.92362117767334,"1259":1.7815355062484741,"1260":-0.5421063899993896,"1261":0.2889299690723419,"1262":-0.45374664664268494,"1263":-0.8281338214874268,"1264":1.6311359405517578,"1265":1.7430332899093628,"1266":3.6156022548675537,"1267":0.5961083769798279,"1268":1.1819871664047241,"1269":-0.1325325071811676,"1270":0.01659107767045498,"1271":-1.384063959121704,"1272":-0.20850883424282074,"1273":-0.1384585201740265,"1274":-0.22359712421894073,"1275":-2.4301986694335938,"1276":0.3157205581665039,"1277":-0.927593469619751,"1278":-0.8427479267120361,"1279":-2.0438168048858643,"1280":3.264004707336426,"1281":-1.9828636646270752,"1282":-0.28446975350379944,"1283":-1.3610831499099731,"1284":1.2238662242889404,"1285":0.7568603754043579,"1286":-0.4647597372531891,"1287":1.2003202438354492,"1288":-2.3002493381500244,"1289":1.664413571357727,"1290":-2.0100319385528564,"1291":4.361100196838379,"1292":-4.520745754241943,"1293":1.9307230710983276,"1294":-0.1270231008529663,"1295":-3.5531506538391113,"1296":2.6568069458007812,"1297":-0.15416480600833893,"1298":0.3192601203918457,"1299":0.6596332788467407,"1300":-2.2479372024536133,"1301":-1.9784237146377563,"1302":0.14064384996891022,"1303":0.5055766105651855,"1304":-0.5822096467018127,"1305":0.2996443212032318,"1306":-1.326626181602478,"1307":1.806749939918518,"1308":0.09087258577346802,"1309":-2.042449474334717,"1310":-2.2656736373901367,"1311":0.24725542962551117,"1312":0.31362414360046387,"1313":0.6064363121986389,"1314":0.24341250956058502,"1315":0.3269660174846649,"1316":2.3744280338287354,"1317":-0.16341683268547058,"1318":0.9166670441627502,"1319":-0.2867138385772705,"1320":1.1568207740783691,"1321":1.4033890962600708,"1322":2.9045259952545166,"1323":0.5696186423301697,"1324":-0.7071714997291565,"1325":0.21291087567806244,"1326":-2.4609456062316895,"1327":1.823765516281128,"1328":-1.8810027837753296,"1329":-0.7973859906196594,"1330":0.022288667038083076,"1331":-0.8552215099334717,"1332":0.7495598793029785,"1333":-1.4276750087738037,"1334":0.38064974546432495,"1335":0.13193421065807343,"1336":1.3230584859848022,"1337":-1.2993583679199219,"1338":1.4748657941818237,"1339":-0.21311171352863312,"1340":-0.4390017092227936,"1341":-0.7681053876876831,"1342":-0.8876403570175171,"1343":0.4271472990512848,"1344":0.4503580629825592,"1345":2.770350933074951,"1346":1.5746372938156128,"1347":1.0604475736618042,"1348":-0.3911484479904175,"1349":-1.5941694974899292,"1350":-0.5693875551223755,"1351":-0.37513044476509094,"1352":1.4072849750518799,"1353":-1.647153377532959,"1354":-0.12725327908992767,"1355":-0.23412463068962097,"1356":1.6818217039108276,"1357":-0.7448018193244934,"1358":1.5270098447799683,"1359":0.907413125038147,"1360":-0.48024722933769226,"1361":-0.10557128489017487,"1362":-0.7368907332420349,"1363":0.20991802215576172,"1364":-2.307145118713379,"1365":-0.3335524797439575,"1366":-0.22762006521224976,"1367":-1.1029375791549683,"1368":-0.06795667856931686,"1369":0.010244610719382763,"1370":-0.3025614023208618,"1371":0.41792744398117065,"1372":1.2232812643051147,"1373":-2.7395920753479004,"1374":1.2413493394851685,"1375":0.0591571182012558,"1376":0.428377628326416,"1377":1.760472059249878,"1378":0.18431541323661804,"1379":-1.5501788854599,"1380":1.0844693183898926,"1381":-0.8005244731903076,"1382":-0.999485194683075,"1383":-1.7474994659423828,"1384":0.1959085315465927,"1385":0.08362141251564026,"1386":0.5770373940467834,"1387":-1.0249855518341064,"1388":-0.827372133731842,"1389":-0.19863782823085785,"1390":-1.3079200983047485,"1391":-0.7226096987724304,"1392":0.18374301493167877,"1393":-0.8192331194877625,"1394":-3.581444501876831,"1395":0.24663189053535461,"1396":1.3589262962341309,"1397":-0.29918399453163147,"1398":-3.329502820968628,"1399":2.8549656867980957,"1400":-0.7063478827476501,"1401":0.16537709534168243,"1402":-3.2597808837890625,"1403":2.0534420013427734,"1404":0.3291507065296173,"1405":2.940311908721924,"1406":-1.9445480108261108,"1407":-2.13966965675354,"1408":0.6090174317359924,"1409":3.3205509185791016,"1410":-2.915541648864746,"1411":-4.075011253356934,"1412":3.2605109214782715,"1413":5.597359657287598,"1414":-1.566872000694275,"1415":6.0533671379089355,"1416":5.994796276092529,"1417":-5.976096153259277,"1418":-0.8807594180107117,"1419":3.8886423110961914,"1420":-2.3752031326293945,"1421":-3.3048126697540283,"1422":6.006526947021484,"1423":-0.7717155814170837,"1424":-0.028278198093175888,"1425":5.619282245635986,"1426":-0.3028755486011505,"1427":-5.602170467376709,"1428":-5.090127944946289,"1429":4.029642581939697,"1430":3.375081777572632,"1431":0.5949130654335022,"1432":-0.4706575274467468,"1433":-3.417145252227783,"1434":1.2653892040252686,"1435":-0.15598943829536438,"1436":4.887031078338623,"1437":6.683037281036377,"1438":0.20431877672672272,"1439":-3.458069086074829,"1440":2.8619778156280518,"1441":-0.4401552677154541,"1442":-4.831066131591797,"1443":4.120288848876953,"1444":3.361300468444824,"1445":-0.05150836333632469,"1446":1.4530054330825806,"1447":-5.7598981857299805,"1448":-5.061896324157715,"1449":2.300211191177368,"1450":4.070856094360352,"1451":-0.8637945055961609,"1452":-2.191030740737915,"1453":3.357694149017334,"1454":-4.622179985046387,"1455":3.6138298511505127,"1456":-0.028892487287521362,"1457":3.643862724304199,"1458":2.102630615234375,"1459":-0.22884999215602875,"1460":-3.226977825164795,"1461":1.8966090679168701,"1462":-1.1628894805908203,"1463":1.6878130435943604,"1464":-4.270448207855225,"1465":1.3055905103683472,"1466":2.271395444869995,"1467":1.3372670412063599,"1468":-5.186481952667236,"1469":3.8049166202545166,"1470":-2.0173680782318115,"1471":1.7443608045578003,"1472":-1.337939739227295,"1473":-4.098546504974365,"1474":2.5719146728515625,"1475":-1.4738596677780151,"1476":0.7040586471557617,"1477":-2.8630659580230713,"1478":-0.40345290303230286,"1479":0.919944703578949,"1480":1.5688234567642212,"1481":4.101048469543457,"1482":-3.124295949935913,"1483":2.784911632537842,"1484":-0.9860766530036926,"1485":-0.8592612743377686,"1486":-1.8492108583450317,"1487":2.4335501194000244,"1488":-2.5404961109161377,"1489":-0.15196022391319275,"1490":-0.37670251727104187,"1491":-1.7763633728027344,"1492":-0.8977551460266113,"1493":1.518438696861267,"1494":-0.05525627359747887,"1495":1.3013079166412354,"1496":-0.26639652252197266,"1497":-0.865672767162323,"1498":1.5053608417510986,"1499":-1.9651750326156616,"1500":0.6195360422134399,"1501":-1.5877325534820557,"1502":-2.6005914211273193,"1503":-1.4398528337478638,"1504":-0.22859854996204376,"1505":-1.1400597095489502,"1506":0.7159777879714966,"1507":0.4285643994808197,"1508":1.0599523782730103,"1509":-0.8740078806877136,"1510":2.790595293045044,"1511":-0.25474631786346436,"1512":0.3634137511253357,"1513":0.8051475286483765,"1514":3.0222620964050293,"1515":0.5791727304458618,"1516":-3.6564507484436035,"1517":1.6783533096313477,"1518":3.979430675506592,"1519":0.174148827791214,"1520":2.748063087463379,"1521":4.028715133666992,"1522":-1.7690623998641968,"1523":-0.5640134215354919,"1524":-0.5248076915740967,"1525":0.6638154983520508,"1526":1.6188908815383911,"1527":0.49448731541633606,"1528":1.8387787342071533,"1529":2.271984815597534,"1530":-1.5884757041931152,"1531":-0.11207616329193115,"1532":2.06289005279541,"1533":-0.8132089376449585,"1534":0.436977744102478,"1535":-1.0451332330703735,"1536":-0.5513572692871094,"1537":0.07091024518013,"1538":0.368993878364563,"1539":-2.970271587371826,"1540":-0.7162466049194336,"1541":2.2651777267456055,"1542":0.24426528811454773,"1543":-2.7056119441986084,"1544":-3.204608201980591,"1545":0.042291320860385895,"1546":1.875488042831421,"1547":-1.2326949834823608,"1548":-1.328325867652893,"1549":1.5848933458328247,"1550":3.982353925704956,"1551":1.044360637664795,"1552":2.8271987438201904,"1553":-2.628544807434082,"1554":0.6293169260025024,"1555":0.28005966544151306,"1556":1.2365679740905762,"1557":-0.5820651650428772,"1558":-9.389819145202637,"1559":-0.6099854111671448,"1560":10.470966339111328,"1561":2.054446220397949,"1562":2.922306537628174,"1563":4.77020263671875,"1564":-1.2318482398986816,"1565":-3.6432344913482666,"1566":-10.570900917053223,"1567":-8.23850154876709,"1568":2.3573668003082275,"1569":-4.723354816436768,"1570":10.625317573547363,"1571":-10.239375114440918,"1572":0.3405882716178894,"1573":3.334069013595581,"1574":9.915592193603516,"1575":8.048827171325684,"1576":-5.85001802444458,"1577":2.392991065979004,"1578":-5.418010711669922,"1579":-5.3438639640808105,"1580":-11.447011947631836,"1581":9.54333782196045,"1582":7.96835470199585,"1583":-4.680563449859619,"1584":-7.212529182434082,"1585":-0.907585859298706,"1586":-8.221464157104492,"1587":6.074872970581055,"1588":4.615682125091553,"1589":4.291769981384277,"1590":2.529264450073242,"1591":-1.054682970046997,"1592":2.0204122066497803,"1593":-2.9126060009002686,"1594":11.381962776184082,"1595":-0.3736552298069,"1596":3.926769733428955,"1597":4.510797023773193,"1598":0.7447683811187744,"1599":0.6393845677375793,"1600":-8.20818042755127,"1601":-1.3913660049438477,"1602":-2.3102869987487793,"1603":12.278368949890137,"1604":-10.414907455444336,"1605":-5.290383815765381,"1606":3.3734827041625977,"1607":-3.9464874267578125,"1608":2.8023083209991455,"1609":1.1236751079559326,"1610":-0.9564658999443054,"1611":-1.471035361289978,"1612":14.24544906616211,"1613":-4.549983978271484,"1614":11.332539558410645,"1615":8.316861152648926,"1616":5.017519950866699,"1617":-7.070769786834717,"1618":-6.189439296722412,"1619":3.7210593223571777,"1620":8.933746337890625,"1621":-8.23252010345459,"1622":-1.3150674104690552,"1623":3.105221748352051,"1624":-8.040349006652832,"1625":2.1198232173919678,"1626":-3.6085941791534424,"1627":-3.9680140018463135,"1628":8.473893165588379,"1629":-4.723241329193115,"1630":-7.74033260345459,"1631":-0.21501624584197998,"1632":-10.128927230834961,"1633":-6.698781967163086,"1634":1.7576589584350586,"1635":7.434013843536377,"1636":4.677977085113525,"1637":-4.053469181060791,"1638":1.329298734664917,"1639":-7.136145114898682,"1640":-2.034001111984253,"1641":0.3062988519668579,"1642":-1.3457506895065308,"1643":0.48353081941604614,"1644":0.7971282005310059,"1645":4.173396110534668,"1646":-0.9971764087677002,"1647":2.944814682006836,"1648":1.3624742031097412,"1649":0.9394062757492065,"1650":-3.482801914215088,"1651":5.367640018463135,"1652":-3.6688930988311768,"1653":-1.649462103843689,"1654":1.5484462976455688,"1655":-0.7624173760414124,"1656":1.5663352012634277,"1657":-1.5895791053771973,"1658":-0.12188591063022614,"1659":3.807999610900879,"1660":-2.34348726272583,"1661":3.353518486022949,"1662":0.6721000671386719,"1663":-2.476750135421753,"1664":-5.1237993240356445,"1665":2.1441073417663574,"1666":-1.5336718559265137,"1667":0.27863234281539917,"1668":3.4289209842681885,"1669":-0.5151292085647583,"1670":-0.455508828163147,"1671":4.902540683746338,"1672":1.176535725593567,"1673":-2.6172971725463867,"1674":-2.489722967147827,"1675":1.582642912864685,"1676":0.132550910115242,"1677":-1.6592589616775513,"1678":-0.8247957825660706,"1679":1.6172597408294678,"1680":-1.0341320037841797,"1681":5.988166809082031,"1682":1.5142799615859985,"1683":4.873952865600586,"1684":4.622963905334473,"1685":-0.4451241195201874,"1686":-0.4093407392501831,"1687":1.1506164073944092,"1688":1.7540663480758667,"1689":0.12785105407238007,"1690":3.286341667175293,"1691":-0.940762460231781,"1692":2.9700207710266113,"1693":1.975414514541626,"1694":-3.2941701412200928,"1695":2.5176331996917725,"1696":2.8441803455352783,"1697":-1.7509808540344238,"1698":-1.1556962728500366,"1699":1.1445772647857666,"1700":0.3255862891674042,"1701":-0.6646762490272522,"1702":-2.4389808177948,"1703":-1.8897656202316284,"1704":2.0670688152313232,"1705":0.7607048153877258,"1706":2.4330973625183105,"1707":-4.0459089279174805,"1708":1.750788927078247,"1709":1.451296329498291,"1710":0.7836248278617859,"1711":2.7809526920318604,"1712":1.5880687236785889,"1713":-0.7123908400535583,"1714":0.24867431819438934,"1715":1.1678905487060547,"1716":-0.32260456681251526,"1717":-2.636324882507324,"1718":-1.434000849723816,"1719":1.0768250226974487,"1720":0.16902177035808563,"1721":-1.0530905723571777,"1722":-2.6761813163757324,"1723":0.5685784816741943,"1724":0.6314572095870972,"1725":0.03654853627085686,"1726":0.7312425971031189,"1727":-0.01767076551914215,"1728":-0.6682355999946594,"1729":0.517185389995575,"1730":0.17255891859531403,"1731":1.0875732898712158,"1732":0.05046207457780838,"1733":0.6246516704559326,"1734":-0.7460702061653137,"1735":-0.9925925731658936,"1736":-1.1084282398223877,"1737":0.19076523184776306,"1738":-1.1471061706542969,"1739":0.16854991018772125,"1740":0.0380132719874382,"1741":3.5760843753814697,"1742":0.6326968669891357,"1743":1.4022263288497925,"1744":-0.07538087666034698,"1745":-1.0352985858917236,"1746":-2.0235087871551514,"1747":1.3602452278137207,"1748":-0.511605441570282,"1749":-2.1245617866516113,"1750":-1.0944867134094238,"1751":-0.7873427867889404,"1752":0.24140289425849915,"1753":0.1399221420288086,"1754":1.3744436502456665,"1755":-1.2574107646942139,"1756":-1.038500428199768,"1757":-1.108485460281372,"1758":0.23217977583408356,"1759":1.5083223581314087,"1760":1.012662410736084,"1761":1.0888290405273438,"1762":-0.35218289494514465,"1763":0.6041935682296753,"1764":1.5752662420272827,"1765":2.0706825256347656,"1766":1.7874020338058472,"1767":0.15861722826957703,"1768":0.21868012845516205,"1769":0.028251441195607185,"1770":0.834976851940155,"1771":0.14131465554237366,"1772":0.34147635102272034,"1773":-1.3153434991836548,"1774":-0.22227086126804352,"1775":1.0576903820037842,"1776":-2.3655881881713867,"1777":1.120246171951294,"1778":3.0641815662384033,"1779":-0.6471633315086365,"1780":0.5122243762016296,"1781":-0.35775235295295715,"1782":0.0009245044202543795,"1783":0.16673022508621216,"1784":2.1199004650115967,"1785":-0.13972647488117218,"1786":0.9615458846092224,"1787":1.7303097248077393,"1788":1.0181702375411987,"1789":2.3680615425109863,"1790":-0.5285020470619202,"1791":-0.6024659872055054,"1792":-0.7163087129592896,"1793":1.034425139427185,"1794":1.8934463262557983,"1795":1.2711480855941772,"1796":0.959233820438385,"1797":3.665083646774292,"1798":0.2647421956062317,"1799":0.14781971275806427,"1800":0.7964659333229065,"1801":0.32789602875709534,"1802":-1.6080505847930908,"1803":0.061625026166439056,"1804":-5.202659606933594,"1805":0.4721487760543823,"1806":-0.35509008169174194,"1807":-3.1174535751342773,"1808":4.278867244720459,"1809":0.7898682951927185,"1810":-1.4483954906463623,"1811":1.4863768815994263,"1812":0.15541641414165497,"1813":3.8593530654907227,"1814":-3.72029185295105,"1815":4.055240631103516,"1816":-4.68012809753418,"1817":0.9885903596878052,"1818":-1.682826042175293,"1819":2.473583221435547,"1820":-2.030848264694214,"1821":1.02975332736969,"1822":-1.605774164199829,"1823":7.0073065757751465,"1824":0.9953438639640808,"1825":6.9271368980407715,"1826":6.190060138702393,"1827":-3.8637590408325195,"1828":-3.9407687187194824,"1829":-1.3075945377349854,"1830":-2.189689874649048,"1831":-5.025066375732422,"1832":-1.849959373474121,"1833":-0.1772013008594513,"1834":2.983853816986084,"1835":-0.01060971338301897,"1836":5.673006534576416,"1837":2.5403075218200684,"1838":-0.5724781155586243,"1839":1.587012767791748,"1840":3.5857748985290527,"1841":1.9492360353469849,"1842":0.6481482982635498,"1843":5.614207744598389,"1844":-4.231110572814941,"1845":-0.7799102663993835,"1846":7.850629806518555,"1847":2.793098211288452,"1848":6.0028276443481445,"1849":2.994529962539673,"1850":1.6189335584640503,"1851":-0.7842543125152588,"1852":1.7600619792938232,"1853":6.80747127532959,"1854":0.20974363386631012,"1855":-3.4768924713134766,"1856":0.9063950181007385,"1857":1.400438904762268,"1858":-6.841929912567139,"1859":1.8137551546096802,"1860":5.366240501403809,"1861":-1.0038424730300903,"1862":-1.504577875137329,"1863":-3.5169906616210938,"1864":4.763480186462402,"1865":-1.0433869361877441,"1866":2.2258191108703613,"1867":1.418442726135254,"1868":2.1069600582122803,"1869":2.8035969734191895,"1870":4.772993087768555,"1871":0.6223689913749695,"1872":-4.6069183349609375,"1873":1.8826816082000732,"1874":-1.9593737125396729,"1875":1.7388043403625488,"1876":-0.06983213126659393,"1877":0.590305507183075,"1878":4.94242000579834,"1879":5.218593597412109,"1880":2.105339288711548,"1881":-2.042539596557617,"1882":1.1431207656860352,"1883":2.1252880096435547,"1884":3.1266534328460693,"1885":-0.9633954763412476,"1886":3.3456881046295166,"1887":3.719487190246582,"1888":0.9121338725090027,"1889":-5.525297164916992,"1890":-3.034964084625244,"1891":-0.47887611389160156,"1892":1.266233205795288,"1893":-1.1822208166122437,"1894":1.6199407577514648,"1895":1.3727397918701172,"1896":-0.4374989867210388,"1897":1.0617176294326782,"1898":-1.5108377933502197,"1899":2.117579698562622,"1900":0.5493611097335815,"1901":1.1258916854858398,"1902":-0.16327297687530518,"1903":-0.12865447998046875,"1904":-2.409196376800537,"1905":-0.5364898443222046,"1906":1.5128663778305054,"1907":-1.3057595491409302,"1908":0.1958201676607132,"1909":1.5215628147125244,"1910":-1.8575952053070068,"1911":0.23304159939289093,"1912":0.6310380697250366,"1913":1.3056093454360962,"1914":-4.607550144195557,"1915":1.3408759832382202,"1916":1.6396740674972534,"1917":1.6128809452056885,"1918":1.3413351774215698,"1919":-0.2556389272212982,"1920":1.5593043565750122,"1921":-0.31204310059547424,"1922":-4.820805072784424,"1923":-2.0966553688049316,"1924":-2.0001516342163086,"1925":-1.9359498023986816,"1926":0.8273122310638428,"1927":0.19615741074085236,"1928":2.1360151767730713,"1929":2.6376044750213623,"1930":-2.2382569313049316,"1931":-0.41153568029403687,"1932":-1.2505823373794556,"1933":0.8816366195678711,"1934":2.8840138912200928,"1935":4.2049946784973145,"1936":-0.39433425664901733,"1937":1.6953035593032837,"1938":-0.40777382254600525,"1939":-0.37729135155677795,"1940":4.72812032699585,"1941":3.387598752975464,"1942":0.9108026027679443,"1943":-4.355655193328857,"1944":-0.022521760314702988,"1945":-1.107309341430664,"1946":3.4931774139404297,"1947":-0.22517384588718414,"1948":1.2356866598129272,"1949":1.5535310506820679,"1950":0.19834120571613312,"1951":-1.3376615047454834,"1952":1.0885707139968872,"1953":-2.161585569381714,"1954":-2.2621803283691406,"1955":2.258439540863037,"1956":-0.6859139800071716,"1957":1.1037745475769043,"1958":-0.6579321622848511,"1959":2.687570810317993,"1960":0.8707676529884338,"1961":3.12424373626709,"1962":-1.041579008102417,"1963":-2.9726545810699463,"1964":-3.0119681358337402,"1965":4.286689281463623,"1966":3.6512370109558105,"1967":-1.0487186908721924,"1968":-0.9068536162376404,"1969":-1.8815802335739136,"1970":-3.3094353675842285,"1971":-0.8375957608222961,"1972":-4.67067289352417,"1973":6.70159912109375,"1974":0.5596155524253845,"1975":1.9269663095474243,"1976":1.4598482847213745,"1977":0.5705934762954712,"1978":-3.503175735473633,"1979":3.7136800289154053,"1980":-4.166905879974365,"1981":-3.1007049083709717,"1982":10.559283256530762,"1983":-4.905358791351318,"1984":3.3890256881713867,"1985":-3.3556125164031982,"1986":-3.8928167819976807,"1987":2.345609664916992,"1988":1.7031179666519165,"1989":4.6112518310546875,"1990":3.4235761165618896,"1991":-1.8705850839614868,"1992":-1.9814733266830444,"1993":1.0029760599136353,"1994":-0.28367912769317627,"1995":0.19056253135204315,"1996":3.0610191822052,"1997":8.90672779083252,"1998":0.43644464015960693,"1999":3.8755667209625244,"2000":-4.830089569091797,"2001":-6.687956809997559,"2002":-0.6938618421554565,"2003":-1.9411652088165283,"2004":6.282799243927002,"2005":1.3870584964752197,"2006":0.055638428777456284,"2007":-0.8048801422119141,"2008":0.6331530213356018,"2009":4.303680419921875,"2010":5.718882083892822,"2011":1.5478127002716064,"2012":3.0278782844543457,"2013":3.5067849159240723,"2014":-5.153550624847412,"2015":-0.09083602577447891,"2016":-1.611853003501892,"2017":-2.0187995433807373,"2018":-1.3297361135482788,"2019":-4.3111772537231445,"2020":7.7480692863464355,"2021":-1.791146159172058,"2022":6.358232021331787,"2023":8.195828437805176,"2024":1.188917875289917,"2025":-2.384214401245117,"2026":3.1469666957855225,"2027":-0.7187597751617432,"2028":1.420757532119751,"2029":-5.580080986022949,"2030":-5.751126289367676,"2031":-2.3461060523986816,"2032":2.4080333709716797,"2033":-5.608150482177734,"2034":1.7561209201812744,"2035":-6.183183193206787,"2036":-0.5368846654891968,"2037":0.6306245923042297,"2038":-9.717582702636719,"2039":0.19942915439605713,"2040":1.7832343578338623,"2041":3.827653408050537,"2042":-3.1516237258911133,"2043":0.13939708471298218,"2044":2.3269882202148438,"2045":-3.111457347869873,"2046":1.0829315185546875,"2047":-0.8401800990104675,"2048":-0.37171000242233276,"2049":1.7705811262130737,"2050":-1.209316372871399,"2051":1.2431577444076538,"2052":-1.3169301748275757,"2053":0.4281889796257019,"2054":1.653698205947876,"2055":0.7330052256584167,"2056":-1.7335294485092163,"2057":-0.06589127331972122,"2058":-0.6047533750534058,"2059":-1.712707281112671,"2060":2.1698055267333984,"2061":-0.7307254076004028,"2062":-1.5410513877868652,"2063":0.9761760234832764,"2064":-0.33677974343299866,"2065":-1.4006882905960083,"2066":2.65217924118042,"2067":-0.9783940315246582,"2068":-2.2543585300445557,"2069":-2.2942793369293213,"2070":0.5167492032051086,"2071":0.2577866315841675,"2072":0.6128411293029785,"2073":0.7140071392059326,"2074":-1.4887806177139282,"2075":-1.364759087562561,"2076":1.5195664167404175,"2077":-2.212137222290039,"2078":-3.681582450866699,"2079":-2.9127230644226074,"2080":0.9780198335647583,"2081":-0.4596705734729767,"2082":0.14781910181045532,"2083":0.014747590757906437,"2084":-1.8454009294509888,"2085":0.13935664296150208,"2086":-1.734346866607666,"2087":2.04375958442688,"2088":-1.6058200597763062,"2089":0.9587502479553223,"2090":0.05568426102399826,"2091":-0.14512284100055695,"2092":0.08600255846977234,"2093":-0.6920909285545349,"2094":1.2549666166305542,"2095":2.857560873031616,"2096":-2.040731191635132,"2097":-3.1856515407562256,"2098":2.481431245803833,"2099":3.310197591781616,"2100":-1.1758874654769897,"2101":-0.16249306499958038,"2102":2.339808225631714,"2103":0.055783696472644806,"2104":0.8197219371795654,"2105":-0.48550620675086975,"2106":-0.13311399519443512,"2107":-1.3103362321853638,"2108":-0.17075350880622864,"2109":-0.9382422566413879,"2110":0.30739545822143555,"2111":-2.3177075386047363,"2112":0.6382381319999695,"2113":-0.9868033528327942,"2114":0.7752561569213867,"2115":0.21200065314769745,"2116":-0.2648105323314667,"2117":-2.084257125854492,"2118":-2.497823715209961,"2119":0.2204219549894333,"2120":0.04943027347326279,"2121":1.4103411436080933,"2122":-1.1373032331466675,"2123":-0.5111618638038635,"2124":1.8794728517532349,"2125":-1.6794099807739258,"2126":3.536214590072632,"2127":-0.9862658381462097,"2128":-0.3581511974334717,"2129":2.8197877407073975,"2130":1.673437237739563,"2131":0.371860533952713,"2132":-8.879161834716797,"2133":-4.570755958557129,"2134":4.790764331817627,"2135":-5.885548114776611,"2136":-3.3853538036346436,"2137":3.2000365257263184,"2138":-9.612848281860352,"2139":7.595561504364014,"2140":-0.9929913878440857,"2141":-8.213486671447754,"2142":-2.29799747467041,"2143":-7.086310863494873,"2144":2.4924542903900146,"2145":-3.0450525283813477,"2146":-1.9967362880706787,"2147":-2.632194995880127,"2148":4.2393479347229,"2149":10.150178909301758,"2150":-0.5217865109443665,"2151":-6.246947765350342,"2152":2.562103509902954,"2153":-0.4057071805000305,"2154":0.9394994378089905,"2155":0.8421562314033508,"2156":-9.491310119628906,"2157":-0.25610628724098206,"2158":3.356531858444214,"2159":-4.169384956359863,"2160":-0.5996917486190796,"2161":-1.5126897096633911,"2162":1.8671448230743408,"2163":-4.587070941925049,"2164":1.8800055980682373,"2165":0.6551052331924438,"2166":7.855196475982666,"2167":-4.775486469268799,"2168":2.2961976528167725,"2169":15.665543556213379,"2170":10.308085441589355,"2171":6.43580961227417,"2172":-4.697754383087158,"2173":0.8021959662437439,"2174":-0.9330433011054993,"2175":-0.272055447101593,"2176":1.3759734630584717,"2177":2.78621244430542,"2178":-4.552935600280762,"2179":-3.0487964153289795,"2180":4.76821231842041,"2181":-4.442173480987549,"2182":5.47549295425415,"2183":-11.48023509979248,"2184":5.606273174285889,"2185":-3.318603992462158,"2186":3.6132137775421143,"2187":-0.9890589714050293,"2188":1.137011170387268,"2189":3.4637956619262695,"2190":-3.820375919342041,"2191":-2.917879581451416,"2192":0.678214967250824,"2193":-0.7614668607711792,"2194":1.0266542434692383,"2195":-5.799060344696045,"2196":-0.07539084553718567,"2197":-0.6086134314537048,"2198":5.09022855758667,"2199":5.408607482910156,"2200":-1.6551083326339722,"2201":0.6798351407051086,"2202":6.0653076171875,"2203":-2.7602217197418213,"2204":-4.166332721710205,"2205":-10.673823356628418,"2206":10.470282554626465,"2207":4.9493632316589355,"2208":2.3492612838745117,"2209":0.16725251078605652,"2210":9.809036254882812,"2211":6.412337779998779,"2212":-3.3350682258605957,"2213":4.744898796081543,"2214":-0.6697374582290649,"2215":0.6694939732551575,"2216":2.428264856338501,"2217":-2.593531370162964,"2218":-2.181090831756592,"2219":1.0154476165771484,"2220":-1.1264946460723877,"2221":1.37790846824646,"2222":4.33952522277832,"2223":0.5806066393852234,"2224":-0.7801783680915833,"2225":0.6365804672241211,"2226":-1.1956331729888916,"2227":0.16826651990413666,"2228":3.106133222579956,"2229":-6.052829742431641,"2230":2.456050395965576,"2231":3.0305867195129395,"2232":0.8311538696289062,"2233":0.3448588252067566,"2234":-0.14521224796772003,"2235":1.8401973247528076,"2236":1.2036305665969849,"2237":1.8727014064788818,"2238":-2.3586461544036865,"2239":-2.682922840118408,"2240":-1.654991865158081,"2241":1.0023390054702759,"2242":2.8132212162017822,"2243":2.3363053798675537,"2244":4.187325477600098,"2245":0.3591079115867615,"2246":0.8848523497581482,"2247":-2.436267137527466,"2248":-2.2492520809173584,"2249":3.3701016902923584,"2250":3.482487916946411,"2251":0.060176048427820206,"2252":-2.262202024459839,"2253":-0.2453342080116272,"2254":-0.45970746874809265,"2255":0.16703201830387115,"2256":-1.8597980737686157,"2257":-1.1133100986480713,"2258":0.3254507780075073,"2259":-0.23688405752182007,"2260":3.073786973953247,"2261":2.36181902885437,"2262":-3.7915163040161133,"2263":0.2245614379644394,"2264":1.808676838874817,"2265":-1.043589472770691,"2266":0.1516151875257492,"2267":-4.41682243347168,"2268":0.14951933920383453,"2269":-0.035586610436439514,"2270":-0.3172071576118469,"2271":-0.27706125378608704,"2272":-1.3440196514129639,"2273":-2.0702264308929443,"2274":-0.3799895644187927,"2275":0.574444591999054,"2276":-6.314789772033691,"2277":3.851837635040283,"2278":2.2163503170013428,"2279":-3.462531089782715,"2280":1.7715460062026978,"2281":0.753350019454956,"2282":-0.0038303842302411795,"2283":3.9116108417510986,"2284":-2.471313714981079,"2285":3.3747708797454834,"2286":1.875401496887207,"2287":-0.14642468094825745,"2288":0.1786581128835678,"2289":1.1294606924057007,"2290":-1.1094582080841064,"2291":0.7793733477592468,"2292":-3.0764546394348145,"2293":-0.7256874442100525,"2294":-0.2585464119911194,"2295":2.298189640045166,"2296":-5.728950023651123,"2297":-0.054355688393116,"2298":-0.0074092368595302105,"2299":-6.5672712326049805,"2300":-6.558055877685547,"2301":-5.756091117858887,"2302":4.290134906768799,"2303":-8.320137023925781,"2304":-8.155627250671387,"2305":-7.6544084548950195,"2306":9.991734504699707,"2307":-12.093490600585938,"2308":2.2646851539611816,"2309":7.955813884735107,"2310":-0.4946962893009186,"2311":1.194044828414917,"2312":2.6950700283050537,"2313":7.691832065582275,"2314":5.881734848022461,"2315":-14.658676147460938,"2316":4.0486602783203125,"2317":-5.486845970153809,"2318":-0.09766596555709839,"2319":7.952521324157715,"2320":7.983940124511719,"2321":-5.534147262573242,"2322":-13.412737846374512,"2323":-7.234569072723389,"2324":-0.7450424432754517,"2325":-9.364840507507324,"2326":9.446735382080078,"2327":-16.03568458557129,"2328":-4.496026039123535,"2329":-2.0121800899505615,"2330":3.283266305923462,"2331":1.5556923151016235,"2332":3.9512765407562256,"2333":6.736466407775879,"2334":10.854642868041992,"2335":3.612290143966675,"2336":0.21097885072231293,"2337":-0.5335572361946106,"2338":-3.2908833026885986,"2339":-15.338807106018066,"2340":-7.047399997711182,"2341":12.041206359863281,"2342":-1.367958426475525,"2343":-12.340470314025879,"2344":-2.806833505630493,"2345":-0.4267357885837555,"2346":-3.871852397918701,"2347":6.2171831130981445,"2348":1.4761189222335815,"2349":-3.8095428943634033,"2350":6.802893161773682,"2351":-12.868513107299805,"2352":4.363166809082031,"2353":4.631507396697998,"2354":-1.8159351348876953,"2355":-1.8229670524597168,"2356":-3.6949987411499023,"2357":11.440975189208984,"2358":-5.097067832946777,"2359":0.30642229318618774,"2360":-1.2353168725967407,"2361":-5.0764007568359375,"2362":-9.729305267333984,"2363":11.967764854431152,"2364":-5.298870086669922,"2365":5.7894062995910645,"2366":6.823915958404541,"2367":-4.970435619354248,"2368":1.078504204750061,"2369":-11.234184265136719,"2370":-0.613079309463501,"2371":3.319227933883667,"2372":8.849944114685059,"2373":2.3051788806915283,"2374":7.792626857757568,"2375":-8.599040031433105,"2376":4.923270225524902,"2377":4.109636306762695,"2378":-6.20872688293457,"2379":9.084161758422852,"2380":6.68167781829834,"2381":-22.41417694091797,"2382":-9.364566802978516,"2383":-10.65100383758545,"2384":10.381900787353516,"2385":-8.559192657470703,"2386":-9.75222396850586,"2387":-14.320772171020508,"2388":-2.249129295349121,"2389":-18.872703552246094,"2390":4.905984878540039,"2391":-0.16139933466911316,"2392":2.0897891521453857,"2393":5.2326979637146,"2394":1.0260509252548218,"2395":-1.8715981245040894,"2396":8.728331565856934,"2397":-1.1550098657608032,"2398":-14.703335762023926,"2399":1.218653917312622,"2400":-10.699894905090332,"2401":-3.7676937580108643,"2402":-4.708752632141113,"2403":-3.1668648719787598,"2404":-11.4364652633667,"2405":-0.9410538673400879,"2406":10.101550102233887,"2407":0.4170219600200653,"2408":-5.867526531219482,"2409":-20.802452087402344,"2410":-2.399751663208008,"2411":-7.641374588012695,"2412":1.3203566074371338,"2413":8.55074691772461,"2414":-8.762594223022461,"2415":1.6492118835449219,"2416":5.373944282531738,"2417":-5.245908260345459,"2418":5.822520732879639,"2419":1.4965803623199463,"2420":-3.828505277633667,"2421":-6.957147121429443,"2422":-13.596816062927246,"2423":1.7775921821594238,"2424":0.989666759967804,"2425":-5.981418609619141,"2426":-11.40225601196289,"2427":-13.76803970336914,"2428":-0.9037654399871826,"2429":6.1331915855407715,"2430":1.4695860147476196,"2431":-11.02479076385498,"2432":5.742088317871094,"2433":2.148967742919922,"2434":6.280386447906494,"2435":10.346506118774414,"2436":-11.782844543457031,"2437":2.2274954319000244,"2438":-17.03887367248535,"2439":21.178497314453125,"2440":-27.085357666015625,"2441":19.523725509643555,"2442":-5.227606296539307,"2443":-20.8775577545166,"2444":-4.23821496963501,"2445":24.462947845458984,"2446":4.226617813110352,"2447":5.14461612701416,"2448":-1.4127998352050781,"2449":1.2585628032684326,"2450":-7.89924430847168,"2451":-5.769927024841309,"2452":-5.210481643676758,"2453":0.6204524636268616,"2454":1.7222479581832886,"2455":0.9445453882217407,"2456":8.490371704101562,"2457":2.895983934402466,"2458":-7.942178726196289,"2459":2.8305022716522217,"2460":6.8040361404418945,"2461":-0.6071518659591675,"2462":-2.4839091300964355,"2463":-4.578397274017334,"2464":-1.4520164728164673,"2465":1.811964511871338,"2466":1.0239102840423584,"2467":-0.34890422224998474,"2468":-2.083946466445923,"2469":1.4163753986358643,"2470":-1.246163249015808,"2471":-0.13345672190189362,"2472":3.7776412963867188,"2473":-1.464413046836853,"2474":4.2402849197387695,"2475":-1.895712971687317,"2476":-1.5758191347122192,"2477":1.4299910068511963,"2478":4.339461326599121,"2479":-2.3616397380828857,"2480":-3.196092128753662,"2481":1.32555091381073,"2482":0.18782876431941986,"2483":1.8933838605880737,"2484":-0.15018446743488312,"2485":1.5066782236099243,"2486":-2.813899278640747,"2487":0.6163658499717712,"2488":3.7487714290618896,"2489":-0.982306718826294,"2490":3.7042644023895264,"2491":-2.7560625076293945,"2492":0.23419679701328278,"2493":-2.564965009689331,"2494":-0.23915117979049683,"2495":4.920055866241455,"2496":-3.8617849349975586,"2497":-3.812851905822754,"2498":0.7834935784339905,"2499":-7.447465419769287,"2500":1.5512189865112305,"2501":-2.705819845199585,"2502":-4.813576698303223,"2503":0.3973432779312134,"2504":-4.6104278564453125,"2505":-4.994779586791992,"2506":1.1628565788269043,"2507":3.3840861320495605,"2508":-4.021979808807373,"2509":2.3306050300598145,"2510":4.5902252197265625,"2511":-3.235046148300171,"2512":-3.641788959503174,"2513":-6.019420146942139,"2514":0.9709387421607971,"2515":-2.378375768661499,"2516":-5.2762131690979,"2517":2.1957318782806396,"2518":-0.8771414160728455,"2519":0.5245270133018494,"2520":1.992141842842102,"2521":0.9629855751991272,"2522":-0.5601949095726013,"2523":7.400644779205322,"2524":-3.770812511444092,"2525":-4.892220973968506,"2526":1.5338630676269531,"2527":3.549290895462036,"2528":-2.166184902191162,"2529":8.289538383483887,"2530":-1.9920177459716797,"2531":-1.438981533050537,"2532":-5.1505889892578125,"2533":0.30304285883903503,"2534":-2.3651909828186035,"2535":-1.5258028507232666,"2536":-6.192265033721924,"2537":3.639137029647827,"2538":-2.5319197177886963,"2539":0.8901963829994202,"2540":2.9224023818969727,"2541":-2.432182788848877,"2542":0.7728224992752075,"2543":0.9460980892181396,"2544":1.53835129737854,"2545":2.5432538986206055,"2546":1.0833134651184082,"2547":5.9402899742126465,"2548":-4.071130752563477,"2549":2.476526975631714,"2550":4.600042343139648,"2551":0.7265526056289673,"2552":-4.885289669036865,"2553":0.5646892189979553,"2554":-2.089547872543335,"2555":-6.089710712432861,"2556":5.991379261016846,"2557":2.5600805282592773,"2558":3.0085575580596924,"2559":-1.0478944778442383,"2560":-3.344057321548462,"2561":1.442766785621643,"2562":2.931802988052368,"2563":8.911060333251953,"2564":5.498832702636719,"2565":-6.234951019287109,"2566":-0.6645820736885071,"2567":-1.457495093345642,"2568":-2.416180372238159,"2569":0.4428589642047882,"2570":5.014511585235596,"2571":1.1155191659927368,"2572":-0.798653781414032,"2573":0.8984448909759521,"2574":1.2446796894073486,"2575":-7.192098617553711,"2576":1.7962725162506104,"2577":2.1523051261901855,"2578":8.50817584991455,"2579":-1.9882898330688477,"2580":0.27966028451919556,"2581":1.351333737373352,"2582":0.7670042514801025,"2583":6.511075973510742,"2584":7.207762718200684,"2585":3.2284128665924072,"2586":2.556630849838257,"2587":-1.545977234840393,"2588":-5.806194305419922,"2589":0.543389618396759,"2590":-4.5322041511535645,"2591":-1.1171818971633911,"2592":-2.3508474826812744,"2593":-2.196768283843994,"2594":0.640208899974823,"2595":-0.46377789974212646,"2596":-1.175187110900879,"2597":3.7802069187164307,"2598":2.8634657859802246,"2599":-6.186368465423584,"2600":1.8422482013702393,"2601":-3.9511325359344482,"2602":0.2798190414905548,"2603":2.181839942932129,"2604":-0.5235162973403931,"2605":-0.5601086020469666,"2606":4.59619665145874,"2607":-4.524232864379883,"2608":-0.19680266082286835,"2609":-6.082178115844727,"2610":-1.9437259435653687,"2611":0.4101994037628174,"2612":-1.8550907373428345,"2613":7.688785552978516,"2614":2.858464479446411,"2615":0.9879682660102844,"2616":0.7477792501449585,"2617":2.6274445056915283,"2618":-1.1983178853988647,"2619":-2.055325746536255,"2620":1.4667729139328003,"2621":-0.0788286104798317,"2622":0.12491626292467117,"2623":1.8264477252960205,"2624":-2.1598055362701416,"2625":4.346184730529785,"2626":-0.07975693047046661,"2627":-3.099503993988037,"2628":-1.4679124355316162,"2629":4.996035575866699,"2630":0.40969109535217285,"2631":2.918534755706787,"2632":0.12878963351249695,"2633":-0.12155119329690933,"2634":-3.330984592437744,"2635":3.004154920578003,"2636":-2.610912322998047,"2637":-0.4154845178127289,"2638":4.414928436279297,"2639":0.40226951241493225,"2640":0.4562841057777405,"2641":-3.712702989578247,"2642":-1.5717675685882568,"2643":5.573263168334961,"2644":-1.775782823562622,"2645":1.6001774072647095,"2646":0.37781140208244324,"2647":-0.26482638716697693,"2648":-3.053382635116577,"2649":1.4322839975357056,"2650":-2.7140326499938965,"2651":-1.4675171375274658,"2652":3.0256245136260986,"2653":1.1594796180725098,"2654":-1.1416704654693604,"2655":4.265087127685547,"2656":0.4203703999519348,"2657":-4.724428176879883,"2658":-2.356285572052002,"2659":0.14635691046714783,"2660":1.815169095993042,"2661":-1.608094573020935,"2662":-4.216588020324707,"2663":-2.0357987880706787,"2664":1.177017092704773,"2665":4.794652938842773,"2666":4.992316246032715,"2667":3.4778616428375244,"2668":0.7820543050765991,"2669":-5.2659454345703125,"2670":1.439397931098938,"2671":1.2394815683364868,"2672":-0.19347040355205536,"2673":3.060945987701416,"2674":1.4375241994857788,"2675":-0.04549545794725418,"2676":1.3089189529418945,"2677":-1.5427976846694946,"2678":2.3099071979522705,"2679":6.974582672119141,"2680":4.64503288269043,"2681":-0.8309711813926697,"2682":-1.322110652923584,"2683":-1.1946426630020142,"2684":-3.928879737854004,"2685":0.38560813665390015,"2686":-2.3439035415649414,"2687":0.8018425703048706,"2688":1.7936866283416748,"2689":-2.5716655254364014,"2690":0.39443740248680115,"2691":-1.2055715322494507,"2692":-2.6858160495758057,"2693":2.397490978240967,"2694":2.9879209995269775,"2695":5.732344627380371,"2696":1.9634593725204468,"2697":4.605298042297363,"2698":-2.7216289043426514,"2699":4.899902820587158,"2700":-3.0554358959198,"2701":-3.8048300743103027,"2702":-6.604507923126221,"2703":0.31365343928337097,"2704":1.745519757270813,"2705":-3.6516525745391846,"2706":6.2029032707214355,"2707":-7.7631683349609375,"2708":1.008673071861267,"2709":7.451357364654541,"2710":-4.237948417663574,"2711":0.4581930339336395,"2712":-2.890995979309082,"2713":10.18226146697998,"2714":-1.5882015228271484,"2715":3.634965181350708,"2716":-9.117753982543945,"2717":2.1801187992095947,"2718":0.9443951845169067,"2719":-5.017293453216553,"2720":4.122981548309326,"2721":1.2469632625579834,"2722":6.015435695648193,"2723":0.6725360751152039,"2724":-2.5571844577789307,"2725":6.24691104888916,"2726":1.9534257650375366,"2727":1.1050094366073608,"2728":1.934321641921997,"2729":0.10466840118169785,"2730":-5.001133918762207,"2731":-0.38451889157295227,"2732":0.17399954795837402,"2733":-3.0398130416870117,"2734":6.8024773597717285,"2735":-3.8311800956726074,"2736":1.4527028799057007,"2737":5.498146057128906,"2738":8.25817584991455,"2739":-4.256499290466309,"2740":-4.749206066131592,"2741":1.217181921005249,"2742":1.4088070392608643,"2743":-2.007260322570801,"2744":2.931443452835083,"2745":-0.04690326750278473,"2746":-4.137260913848877,"2747":0.42076799273490906,"2748":4.975921630859375,"2749":5.5130228996276855,"2750":7.1562957763671875,"2751":3.3754477500915527,"2752":-3.562293529510498,"2753":3.210371255874634,"2754":4.7713236808776855,"2755":1.7306333780288696,"2756":12.199065208435059,"2757":-8.068581581115723,"2758":4.072485446929932,"2759":0.39240920543670654,"2760":-7.091775417327881,"2761":-2.6376991271972656,"2762":5.756333351135254,"2763":-0.9093332886695862,"2764":-0.53507000207901,"2765":-2.6204092502593994,"2766":2.3179311752319336,"2767":0.43180951476097107,"2768":7.526387691497803,"2769":-9.804059028625488,"2770":-2.586580753326416,"2771":7.484561443328857,"2772":2.542893648147583,"2773":-6.405923843383789,"2774":0.09860675781965256,"2775":-2.816154956817627,"2776":6.173924446105957,"2777":-4.0380940437316895,"2778":-1.7721784114837646,"2779":-1.9933973550796509,"2780":2.028796434402466,"2781":-0.18172577023506165,"2782":3.7819859981536865,"2783":-2.9984548091888428,"2784":5.162569046020508,"2785":3.88015079498291,"2786":5.453357219696045,"2787":3.4592347145080566,"2788":-1.6776556968688965,"2789":-2.100883960723877,"2790":1.1606976985931396,"2791":-2.2671492099761963,"2792":-3.9423210620880127,"2793":0.3966188132762909,"2794":-1.3585795164108276,"2795":0.6906380653381348,"2796":-1.367331862449646,"2797":1.325558066368103,"2798":-0.15868213772773743,"2799":1.5594385862350464,"2800":0.6639400720596313,"2801":0.31772580742836,"2802":-0.6504182815551758,"2803":-4.140701770782471,"2804":2.0600104331970215,"2805":2.11256742477417,"2806":-0.0038228307384997606,"2807":1.7897441387176514,"2808":-0.5253618359565735,"2809":-0.052339788526296616,"2810":-0.6770464777946472,"2811":1.0136107206344604,"2812":-1.7890592813491821,"2813":-3.438227415084839,"2814":-1.5067808628082275,"2815":-3.1134696006774902,"2816":1.8732497692108154,"2817":-1.7122411727905273,"2818":0.01441112533211708,"2819":0.6502082943916321,"2820":0.6578406095504761,"2821":0.8232311010360718,"2822":0.2682633399963379,"2823":-2.258293390274048,"2824":0.05478522554039955,"2825":3.7057900428771973,"2826":2.5394585132598877,"2827":-0.395754337310791,"2828":-4.0395355224609375,"2829":0.750662624835968,"2830":0.2751220762729645,"2831":2.0244457721710205,"2832":-1.9913194179534912,"2833":2.7746477127075195,"2834":-2.6843719482421875,"2835":-1.2899166345596313,"2836":0.7166071534156799,"2837":-0.14818303287029266,"2838":1.1851634979248047,"2839":-3.576153516769409,"2840":1.7417783737182617,"2841":2.6257119178771973,"2842":1.6772695779800415,"2843":1.4626318216323853,"2844":-0.06514611095190048,"2845":2.6303510665893555,"2846":-1.9983210563659668,"2847":-0.5564638376235962,"2848":1.4628709554672241,"2849":5.172935962677002,"2850":0.5137326121330261,"2851":0.9093526005744934,"2852":-1.0182431936264038,"2853":-2.110011339187622,"2854":1.8943637609481812,"2855":3.1248555183410645,"2856":-3.6744260787963867,"2857":1.1618870496749878,"2858":-0.8561318516731262,"2859":-0.9434294104576111,"2860":-2.111945152282715,"2861":-0.38295626640319824,"2862":2.2597508430480957,"2863":2.710641384124756,"2864":1.1228903532028198,"2865":-1.0426236391067505,"2866":1.0193690061569214,"2867":2.540003538131714,"2868":-2.464028835296631,"2869":0.525829553604126,"2870":2.2455532550811768,"2871":-2.874711751937866,"2872":-1.0917744636535645,"2873":1.8855026960372925,"2874":-1.7050385475158691,"2875":1.7541067600250244,"2876":-2.2993619441986084,"2877":1.1231046915054321,"2878":-0.7485170960426331,"2879":1.294880986213684,"2880":0.658962607383728,"2881":1.2597050666809082,"2882":-1.608487606048584,"2883":-2.0543506145477295,"2884":-1.5074158906936646,"2885":0.15714801847934723,"2886":-0.906517744064331,"2887":-0.18798601627349854,"2888":2.6826367378234863,"2889":1.481398105621338,"2890":-1.6579972505569458,"2891":-1.519670844078064,"2892":1.6017076969146729,"2893":-2.817312717437744,"2894":-2.7620108127593994,"2895":0.08946149051189423,"2896":-0.3449149429798126,"2897":-1.0439420938491821,"2898":3.4946131706237793,"2899":-1.324770450592041,"2900":2.1444506645202637,"2901":1.6752817630767822,"2902":1.278417944908142,"2903":-1.1138286590576172,"2904":-0.3887810707092285,"2905":2.4616692066192627,"2906":4.731091022491455,"2907":-1.8771114349365234,"2908":-1.4152722358703613,"2909":2.8722829818725586,"2910":-0.7271481156349182,"2911":-3.48884654045105,"2912":2.8889074325561523,"2913":-1.7101067304611206,"2914":1.4779605865478516,"2915":0.573100745677948,"2916":1.6675857305526733,"2917":0.2551231384277344,"2918":2.095529794692993,"2919":0.3802189826965332,"2920":8.369874954223633,"2921":2.781555652618408,"2922":0.3515266180038452,"2923":-0.7414540648460388,"2924":-4.2477707862854,"2925":1.403298020362854,"2926":-1.2236545085906982,"2927":-1.3273868560791016,"2928":1.3167753219604492,"2929":-0.979183554649353,"2930":1.725699782371521,"2931":2.5868687629699707,"2932":-1.7977977991104126,"2933":-2.3528919219970703,"2934":2.7145936489105225,"2935":0.48702582716941833,"2936":0.6364145874977112,"2937":-0.24374240636825562,"2938":-1.0396977663040161,"2939":-4.483192443847656,"2940":0.6557612419128418,"2941":-1.906223177909851,"2942":1.1222761869430542,"2943":0.4720521569252014,"2944":0.8605379462242126,"2945":0.35506927967071533,"2946":-0.6464934945106506,"2947":-0.22810311615467072,"2948":1.9599273204803467,"2949":-3.099027633666992,"2950":-0.9854482412338257,"2951":-1.8870097398757935,"2952":-4.042644023895264,"2953":-4.6892218589782715,"2954":4.650720596313477,"2955":-6.492875576019287,"2956":-2.6550543308258057,"2957":2.988259792327881,"2958":-2.431215524673462,"2959":4.16886568069458,"2960":-9.928016662597656,"2961":0.10045560449361801,"2962":0.08119616657495499,"2963":0.18272212147712708,"2964":3.4973957538604736,"2965":-2.3730616569519043,"2966":-7.624439239501953,"2967":0.45304128527641296,"2968":-0.6534695029258728,"2969":4.366770267486572,"2970":-0.754721462726593,"2971":-4.790981292724609,"2972":-0.044156353920698166,"2973":-0.02184063196182251,"2974":-3.7837588787078857,"2975":0.4439408779144287,"2976":-1.0089881420135498,"2977":-8.603126525878906,"2978":-5.5083818435668945,"2979":-1.8843241930007935,"2980":-0.12564732134342194,"2981":-4.18356990814209,"2982":5.435302257537842,"2983":0.4652862846851349,"2984":-1.4100368022918701,"2985":-2.875358819961548,"2986":8.684615135192871,"2987":0.13560262322425842,"2988":-0.01466783694922924,"2989":0.36158353090286255,"2990":7.418872833251953,"2991":3.241248607635498,"2992":-5.814929008483887,"2993":3.54610276222229,"2994":1.5996469259262085,"2995":-0.7187149524688721,"2996":-9.596229553222656,"2997":-1.8244520425796509,"2998":-1.538141131401062,"2999":1.158436894416809,"3000":2.5344719886779785,"3001":-10.098576545715332,"3002":1.4240189790725708,"3003":2.58809232711792,"3004":-1.492513656616211,"3005":0.055263176560401917,"3006":2.936472177505493,"3007":0.08447421342134476,"3008":5.638078689575195,"3009":-0.7735277414321899,"3010":-8.346704483032227,"3011":-6.110477924346924,"3012":-9.427858352661133,"3013":11.60322093963623,"3014":-2.653111457824707,"3015":4.544846057891846,"3016":-1.6526302099227905,"3017":-7.443645000457764,"3018":-3.8586955070495605,"3019":5.997385025024414,"3020":-0.9067941308021545,"3021":-3.4199888706207275,"3022":6.72735071182251,"3023":-6.4153642654418945,"3024":-2.10318922996521,"3025":1.5293573141098022,"3026":1.6168776750564575,"3027":2.423624038696289,"3028":-2.9697844982147217,"3029":4.731901168823242,"3030":9.752458572387695,"3031":-1.9327635765075684,"3032":-5.421629428863525,"3033":-1.365098237991333,"3034":0.2924080491065979,"3035":-0.5995116233825684,"3036":3.8124589920043945,"3037":1.2677515745162964,"3038":-0.818325400352478,"3039":-3.2460057735443115,"3040":-1.3163374662399292,"3041":-0.23584145307540894,"3042":0.45068907737731934,"3043":2.4364426136016846,"3044":-1.564748764038086,"3045":0.23319470882415771,"3046":-1.6205755472183228,"3047":-2.2679314613342285,"3048":1.3240966796875,"3049":0.9865158796310425,"3050":-0.7559366226196289,"3051":-3.501490592956543,"3052":0.896682620048523,"3053":1.1945574283599854,"3054":3.6828489303588867,"3055":0.426878422498703,"3056":1.487030029296875,"3057":0.787916362285614,"3058":1.378456711769104,"3059":0.6811352372169495,"3060":2.2229745388031006,"3061":2.860154628753662,"3062":-0.23139648139476776,"3063":6.132205963134766,"3064":-1.9534289836883545,"3065":0.08653414249420166,"3066":-1.383389949798584,"3067":0.9261676669120789,"3068":-1.5841397047042847,"3069":2.226937770843506,"3070":-2.0599780082702637,"3071":-1.017460823059082,"3072":-0.20674435794353485,"3073":-1.16008722782135,"3074":1.11732816696167,"3075":-0.06513906270265579,"3076":0.2315955013036728,"3077":2.4741430282592773,"3078":-2.1171412467956543,"3079":-3.2242653369903564,"3080":0.2429596334695816,"3081":2.2982888221740723,"3082":-0.9430091977119446,"3083":-0.9613529443740845,"3084":-3.564378499984741,"3085":-0.17796681821346283,"3086":-1.2099604606628418,"3087":1.0708696842193604,"3088":2.0505127906799316,"3089":2.6822357177734375,"3090":-1.6957422494888306,"3091":2.1350951194763184,"3092":1.0702859163284302,"3093":-0.7603207230567932,"3094":0.6266924142837524,"3095":-2.012967824935913,"3096":-2.0039849281311035,"3097":0.07759523391723633,"3098":-0.9561388492584229,"3099":-1.6709051132202148,"3100":-3.136136531829834,"3101":-0.08370450884103775,"3102":2.732321262359619,"3103":-1.5329080820083618,"3104":-1.4598861932754517,"3105":-1.0523581504821777,"3106":-0.31686097383499146,"3107":1.3725279569625854,"3108":-0.5135429501533508,"3109":0.25074195861816406,"3110":-3.7161948680877686,"3111":-0.7398092746734619,"3112":-1.0181915760040283,"3113":-1.896525263786316,"3114":-1.515688180923462,"3115":-3.1709823608398438,"3116":0.8951171636581421,"3117":0.5303409695625305,"3118":2.134554624557495,"3119":15.84553337097168,"3120":1.1591482162475586,"3121":12.980069160461426,"3122":-3.9669761657714844,"3123":4.5257978439331055,"3124":6.846252918243408,"3125":3.3952677249908447,"3126":-2.011904001235962,"3127":-4.740740776062012,"3128":-5.851438522338867,"3129":7.848049163818359,"3130":-14.574450492858887,"3131":-1.4894112348556519,"3132":-1.8338627815246582,"3133":-0.13765078783035278,"3134":-20.30253028869629,"3135":-0.3989409804344177,"3136":10.268197059631348,"3137":-8.29525375366211,"3138":5.178707122802734,"3139":6.277383804321289,"3140":0.02767546847462654,"3141":0.8315731287002563,"3142":4.456161022186279,"3143":-13.246870994567871,"3144":-11.84947681427002,"3145":-9.468232154846191,"3146":-3.061692476272583,"3147":-1.4794999361038208,"3148":-4.6030988693237305,"3149":12.535280227661133,"3150":-5.961380481719971,"3151":-10.971314430236816,"3152":0.6043393015861511,"3153":23.922813415527344,"3154":6.700006008148193,"3155":8.509920120239258,"3156":5.316029071807861,"3157":-8.815747261047363,"3158":-0.271228551864624,"3159":5.249340057373047,"3160":6.410775184631348,"3161":14.81994915008545,"3162":-3.361041784286499,"3163":-10.604055404663086,"3164":17.258346557617188,"3165":1.9228605031967163,"3166":4.116179466247559,"3167":2.634068727493286,"3168":8.970178604125977,"3169":9.214239120483398,"3170":-19.393186569213867,"3171":-6.506278991699219,"3172":13.334511756896973,"3173":3.925931453704834,"3174":3.6518561840057373,"3175":-6.9712395668029785,"3176":1.8610037565231323,"3177":-3.636401414871216,"3178":20.51478385925293,"3179":-20.851289749145508,"3180":-2.1020779609680176,"3181":15.91845989227295,"3182":13.431528091430664,"3183":-0.9952424764633179,"3184":-0.6475436091423035,"3185":-10.454184532165527,"3186":-0.3286939859390259,"3187":-13.686240196228027,"3188":5.932269096374512,"3189":6.024481296539307,"3190":9.781346321105957,"3191":-9.905649185180664,"3192":19.845134735107422,"3193":2.9105265140533447,"3194":0.24241980910301208,"3195":26.08754539489746,"3196":0.3567929267883301,"3197":11.140807151794434,"3198":0.8388086557388306,"3199":0.08317454159259796,"3200":-2.426300048828125,"3201":0.7033970952033997,"3202":-4.024778366088867,"3203":2.300781488418579,"3204":-4.606168746948242,"3205":1.6552085876464844,"3206":-0.8004986047744751,"3207":2.4608733654022217,"3208":-0.8933970928192139,"3209":5.473250389099121,"3210":3.2253007888793945,"3211":2.5171053409576416,"3212":4.8772406578063965,"3213":0.9310028553009033,"3214":-2.73187518119812,"3215":2.7046756744384766,"3216":-12.2955961227417,"3217":-0.5530192852020264,"3218":-0.510789692401886,"3219":-0.055477313697338104,"3220":-6.274056434631348,"3221":10.654966354370117,"3222":-3.0259897708892822,"3223":1.0844533443450928,"3224":1.5151091814041138,"3225":4.5764007568359375,"3226":-10.502854347229004,"3227":-3.7102749347686768,"3228":-2.3497352600097656,"3229":3.5019161701202393,"3230":-0.538364052772522,"3231":4.7225518226623535,"3232":-4.402369499206543,"3233":-7.571030616760254,"3234":-3.645362138748169,"3235":6.4864115715026855,"3236":-3.4997804164886475,"3237":2.71693754196167,"3238":-1.0526235103607178,"3239":-0.11625296622514725,"3240":-2.062875986099243,"3241":5.353178977966309,"3242":5.340043067932129,"3243":4.798294544219971,"3244":-5.492185592651367,"3245":-0.028962668031454086,"3246":8.124261856079102,"3247":3.553846836090088,"3248":2.659078359603882,"3249":3.8376805782318115,"3250":2.443087100982666,"3251":5.368203639984131,"3252":-5.848062992095947,"3253":1.710644245147705,"3254":4.746934413909912,"3255":-1.5835634469985962,"3256":0.0885256752371788,"3257":2.075129985809326,"3258":5.322698593139648,"3259":0.03600645065307617,"3260":2.558422565460205,"3261":-5.1700615882873535,"3262":0.22229687869548798,"3263":9.241394996643066,"3264":5.592876434326172,"3265":-6.578207015991211,"3266":-8.83717155456543,"3267":-7.97605562210083,"3268":8.741263389587402,"3269":0.5851699709892273,"3270":3.140291452407837,"3271":1.799628496170044,"3272":5.308161735534668,"3273":-5.869037628173828,"3274":9.694921493530273,"3275":1.8640393018722534,"3276":0.8182910084724426,"3277":9.550915718078613,"3278":3.051898241043091,"3279":10.595503807067871,"3280":2.2922556400299072,"3281":3.0582189559936523,"3282":8.555768013000488,"3283":-5.098993301391602,"3284":-4.251892566680908,"3285":5.372735977172852,"3286":-5.393686294555664,"3287":-1.0395556688308716,"3288":-4.053744792938232,"3289":5.865795135498047,"3290":-3.0682413578033447,"3291":2.930466651916504,"3292":-3.3319802284240723,"3293":1.241167426109314,"3294":0.8540446758270264,"3295":-1.280556321144104,"3296":6.899005889892578,"3297":6.29995584487915,"3298":-3.449652671813965,"3299":-0.11091741174459457,"3300":3.009535551071167,"3301":2.2673232555389404,"3302":7.3914690017700195,"3303":-6.769814968109131,"3304":-2.65899920463562,"3305":-3.3406357765197754,"3306":0.3262512981891632,"3307":-2.30373477935791,"3308":7.713160991668701,"3309":3.6702144145965576,"3310":4.155306339263916,"3311":5.460837364196777,"3312":-2.1101438999176025,"3313":-1.1279311180114746,"3314":8.568507194519043,"3315":1.927036166191101,"3316":1.2800602912902832,"3317":0.06703541427850723,"3318":2.257517099380493,"3319":3.2543275356292725,"3320":-7.452710151672363,"3321":2.075559377670288,"3322":6.70301628112793,"3323":-0.38448449969291687,"3324":-4.12542724609375,"3325":4.026940822601318,"3326":-3.461766004562378,"3327":1.1641952991485596,"3328":-6.303408145904541,"3329":-0.7674441933631897,"3330":13.475607872009277,"3331":-0.33518826961517334,"3332":-0.5799127221107483,"3333":2.366278648376465,"3334":-0.920234739780426,"3335":5.10739278793335,"3336":3.6453421115875244,"3337":0.03992827236652374,"3338":1.635563611984253,"3339":-8.446949005126953,"3340":3.6292724609375,"3341":4.204857349395752,"3342":-10.146157264709473,"3343":4.778294563293457,"3344":-1.9163029193878174,"3345":-9.725764274597168,"3346":-0.6962053179740906,"3347":4.606112957000732,"3348":0.5012456178665161,"3349":2.1732237339019775,"3350":-0.47203847765922546,"3351":0.033599186688661575,"3352":-1.0647660493850708,"3353":3.807450294494629,"3354":6.11139440536499,"3355":5.651975154876709,"3356":-4.109779357910156,"3357":-2.7188808917999268,"3358":2.9478821754455566,"3359":0.04691305384039879,"3360":-2.7676689624786377,"3361":-0.642083466053009,"3362":-2.6071150302886963,"3363":-2.481935739517212,"3364":1.9636801481246948,"3365":0.9107666611671448,"3366":-1.3928955793380737,"3367":4.141542434692383,"3368":-3.076582193374634,"3369":0.07367198169231415,"3370":-3.6269073486328125,"3371":-0.14182892441749573,"3372":-0.24513722956180573,"3373":0.16374075412750244,"3374":0.9865464568138123,"3375":-1.2821801900863647,"3376":-2.5113141536712646,"3377":-0.594179093837738,"3378":3.464834690093994,"3379":0.5153429508209229,"3380":-1.6871118545532227,"3381":-0.8874110579490662,"3382":-1.7994098663330078,"3383":-0.4852396845817566,"3384":-0.6995048522949219,"3385":0.866260826587677,"3386":-0.9533629417419434,"3387":-1.5695208311080933,"3388":1.5628470182418823,"3389":-2.9225268363952637,"3390":2.0131795406341553,"3391":-0.27712011337280273,"3392":0.713103175163269,"3393":1.3010499477386475,"3394":-1.0456554889678955,"3395":-1.3714479207992554,"3396":1.469476342201233,"3397":-2.0716934204101562,"3398":2.8310751914978027,"3399":2.8884544372558594,"3400":1.9326974153518677,"3401":2.9610888957977295,"3402":-0.10686353594064713,"3403":-0.9788806438446045,"3404":-0.06816527992486954,"3405":-2.254204750061035,"3406":1.503100872039795,"3407":1.6608318090438843,"3408":-3.560189723968506,"3409":-0.9395769238471985,"3410":0.33601394295692444,"3411":0.6462544202804565,"3412":2.2951436042785645,"3413":-1.5122148990631104,"3414":2.844813585281372,"3415":0.3097888231277466,"3416":1.32118558883667,"3417":-2.4464478492736816,"3418":4.868603229522705,"3419":2.33652925491333,"3420":0.1902688890695572,"3421":-1.9803388118743896,"3422":-3.7698261737823486,"3423":0.2116551548242569,"3424":0.38262373208999634,"3425":-1.7918392419815063,"3426":-0.3724920153617859,"3427":-1.5380152463912964,"3428":-0.9240456223487854,"3429":0.7622565627098083,"3430":-1.3017209768295288,"3431":2.217999219894409,"3432":1.2813010215759277,"3433":0.4963335394859314,"3434":0.8072413802146912,"3435":-1.8430341482162476,"3436":-0.1988271325826645,"3437":-0.4804784655570984,"3438":1.3135520219802856,"3439":1.5440062284469604,"3440":2.8564436435699463,"3441":-2.2696242332458496,"3442":-0.4244402050971985,"3443":0.2842039465904236,"3444":-1.2644504308700562,"3445":-2.247891902923584,"3446":1.9267916679382324,"3447":0.3336281478404999,"3448":1.6992619037628174,"3449":0.5259173512458801,"3450":-1.9986991882324219,"3451":2.236415386199951,"3452":0.9879514575004578,"3453":-0.7935401201248169,"3454":-3.1424152851104736,"3455":-0.5953248739242554,"3456":-2.78165864944458,"3457":-2.0297634601593018,"3458":5.06056547164917,"3459":0.2777705490589142,"3460":0.8826208710670471,"3461":-0.32801222801208496,"3462":-0.6300010085105896,"3463":0.4446658492088318,"3464":0.45800381898880005,"3465":4.172375202178955,"3466":4.9176459312438965,"3467":-6.632592678070068,"3468":0.27606046199798584,"3469":-1.4634850025177002,"3470":-1.5168904066085815,"3471":-0.4793410301208496,"3472":2.536532402038574,"3473":2.5774855613708496,"3474":-0.9787896275520325,"3475":-1.282875657081604,"3476":1.3717193603515625,"3477":-3.8311517238616943,"3478":1.403008222579956,"3479":1.8037792444229126,"3480":5.216214656829834,"3481":1.376011610031128,"3482":0.1670181006193161,"3483":2.163154363632202,"3484":-2.3738536834716797,"3485":4.789862632751465,"3486":5.189031600952148,"3487":-1.221561074256897,"3488":1.4641371965408325,"3489":-1.0776453018188477,"3490":-1.5279046297073364,"3491":2.6304216384887695,"3492":-3.2808005809783936,"3493":0.676559567451477,"3494":-5.018439292907715,"3495":-0.9134180545806885,"3496":0.16698229312896729,"3497":-0.8912915587425232,"3498":-0.27165311574935913,"3499":2.5751216411590576,"3500":3.548438310623169,"3501":-2.4175446033477783,"3502":2.3599894046783447,"3503":-2.1966750621795654,"3504":-3.666219711303711,"3505":-3.3311662673950195,"3506":-1.689910650253296,"3507":2.640066146850586,"3508":4.029662132263184,"3509":-3.381927251815796,"3510":2.5444092750549316,"3511":-0.7016089558601379,"3512":0.5621930360794067,"3513":2.9601807594299316,"3514":-3.354943037033081,"3515":6.039705753326416,"3516":0.02980181574821472,"3517":0.7997390031814575,"3518":0.6115440726280212,"3519":0.6304864287376404,"3520":-1.570424199104309,"3521":-1.9751659631729126,"3522":0.056391384452581406,"3523":-1.1024552583694458,"3524":1.5030055046081543,"3525":1.563603162765503,"3526":-0.8615138530731201,"3527":4.166146278381348,"3528":0.8981640338897705,"3529":-0.20907889306545258,"3530":0.5520512461662292,"3531":-5.17766809463501,"3532":2.097001791000366,"3533":-5.242116451263428,"3534":2.25032639503479,"3535":-0.5648245811462402,"3536":6.190139293670654,"3537":-1.3293272256851196,"3538":0.14671950042247772,"3539":3.5584850311279297,"3540":-0.06220897659659386,"3541":1.2250771522521973,"3542":-1.8497601747512817,"3543":-1.0051310062408447,"3544":6.624179840087891,"3545":-5.268685340881348,"3546":-4.0255255699157715,"3547":1.3227466344833374,"3548":-1.5672527551651,"3549":-2.5382864475250244,"3550":2.2017390727996826,"3551":-3.748042583465576,"3552":1.5233720541000366,"3553":5.7574663162231445,"3554":2.541893720626831,"3555":0.2197527289390564,"3556":-0.005196676589548588,"3557":-1.0223414897918701,"3558":-5.766908645629883,"3559":6.6298298835754395,"3560":4.172290802001953,"3561":3.619439125061035,"3562":-4.020181179046631,"3563":-2.568324327468872,"3564":-2.36502742767334,"3565":0.029486579820513725,"3566":1.3091734647750854,"3567":1.185256004333496,"3568":-5.8826904296875,"3569":0.16159534454345703,"3570":-0.7995041012763977,"3571":-3.028590440750122,"3572":4.71203088760376,"3573":3.574401617050171,"3574":-6.528794288635254,"3575":-4.785562992095947,"3576":-2.4041054248809814,"3577":2.7295961380004883,"3578":-7.1242780685424805,"3579":-4.042870044708252,"3580":-3.233877658843994,"3581":-0.7119233012199402,"3582":-4.887288570404053,"3583":-4.383835792541504,"3584":2.2482011318206787,"3585":1.8998334407806396,"3586":-4.730204105377197,"3587":0.0744297131896019,"3588":-6.520554542541504,"3589":5.523557186126709,"3590":2.0981314182281494,"3591":-3.73250675201416,"3592":-6.300763130187988,"3593":-0.4488784670829773,"3594":4.187209129333496,"3595":1.7858039140701294,"3596":2.551987409591675,"3597":4.895386695861816,"3598":2.268197774887085,"3599":1.8973395824432373,"3600":-2.511869192123413,"3601":-6.4743475914001465,"3602":-2.9903714656829834,"3603":4.008533000946045,"3604":-3.3969576358795166,"3605":-4.952828407287598,"3606":-0.44640374183654785,"3607":-0.33138972520828247,"3608":-1.9025827646255493,"3609":-1.6992237567901611,"3610":1.3705952167510986,"3611":0.7002924680709839,"3612":3.235380172729492,"3613":-1.290474772453308,"3614":1.6878620386123657,"3615":3.013185501098633,"3616":-2.8551859855651855,"3617":-3.765146017074585,"3618":-2.246908187866211,"3619":-5.454349994659424,"3620":3.6228291988372803,"3621":-1.8292690515518188,"3622":0.8351266384124756,"3623":7.162276744842529,"3624":-5.888322830200195,"3625":-3.844682216644287,"3626":0.6129117608070374,"3627":-2.191833972930908,"3628":-1.6489439010620117,"3629":-1.62489914894104,"3630":-2.837339401245117,"3631":0.41619494557380676,"3632":7.770485877990723,"3633":0.40295007824897766,"3634":-1.513734221458435,"3635":1.4128516912460327,"3636":0.9221516251564026,"3637":-4.39260196685791,"3638":-3.966794729232788,"3639":-5.032167434692383,"3640":1.1666799783706665,"3641":2.2813639640808105,"3642":0.3068843483924866,"3643":0.25359582901000977,"3644":2.1202754974365234,"3645":0.6915690898895264,"3646":4.341816425323486,"3647":0.16840659081935883,"3648":2.1182641983032227,