{"sizes":[144,72,3],"layers":[{"0":{},"1":{},"2":{},"3":{},"4":{},"5":{},"6":{},"7":{},"8":{},"9":{},"10":{},"11":{},"12":{},"13":{},"14":{},"15":{},"16":{},"17":{},"18":{},"19":{},"20":{},"21":{},"22":{},"23":{},"24":{},"25":{},"26":{},"27":{},"28":{},"29":{},"30":{},"31":{},"32":{},"33":{},"34":{},"35":{},"36":{},"37":{},"38":{},"39":{},"40":{},"41":{},"42":{},"43":{},"44":{},"45":{},"46":{},"47":{},"48":{},"49":{},"50":{},"51":{},"52":{},"53":{},"54":{},"55":{},"56":{},"57":{},"58":{},"59":{},"60":{},"61":{},"62":{},"63":{},"64":{},"65":{},"66":{},"67":{},"68":{},"69":{},"70":{},"71":{},"72":{},"73":{},"74":{},"75":{},"76":{},"77":{},"78":{},"79":{},"80":{},"81":{},"82":{},"83":{},"84":{},"85":{},"86":{},"87":{},"88":{},"89":{},"90":{},"91":{},"92":{},"93":{},"94":{},"95":{},"96":{},"97":{},"98":{},"99":{},"100":{},"101":{},"102":{},"103":{},"104":{},"105":{},"106":{},"107":{},"108":{},"109":{},"110":{},"111":{},"112":{},"113":{},"114":{},"115":{},"116":{},"117":{},"118":{},"119":{},"120":{},"121":{},"122":{},"123":{},"124":{},"125":{},"126":{},"127":{},"128":{},"129":{},"130":{},"131":{},"132":{},"133":{},"134":{},"135":{},"136":{},"137":{},"138":{},"139":{},"140":{},"141":{},"142":{},"143":{}},{"0":{"bias":-0.5361893177032471,"weights":{"0":-0.13980209827423096,"1":-0.20140941441059113,"2":-0.3059549927711487,"3":-0.024960804730653763,"4":0.1514856368303299,"5":-0.2940429449081421,"6":-0.28656262159347534,"7":-0.5476638078689575,"8":0.015691464766860008,"9":-0.1464879810810089,"10":-0.1652906984090805,"11":-0.29415738582611084,"12":-0.10468755662441254,"13":-0.13245432078838348,"14":-0.20472779870033264,"15":-0.12765997648239136,"16":-0.24373827874660492,"17":0.2638571262359619,"18":-0.29030436277389526,"19":-0.39048635959625244,"20":-0.2858608663082123,"21":0.05558335408568382,"22":-0.0923069640994072,"23":-0.3270435631275177,"24":-0.07337675988674164,"25":-0.22169621288776398,"26":0.1413915902376175,"27":-0.08047156780958176,"28":-0.060226283967494965,"29":-0.14946356415748596,"30":-0.08193893730640411,"31":-0.28020164370536804,"32":0.00597077701240778,"33":-0.0521426685154438,"34":-0.31803733110427856,"35":-0.13929875195026398,"36":0.29067328572273254,"37":0.2502630352973938,"38":0.1564488410949707,"39":-0.4498438537120819,"40":-0.1217714324593544,"41":-0.29872846603393555,"42":0.07498820126056671,"43":-0.3486637473106384,"44":-0.03151324391365051,"45":0.030603205785155296,"46":0.15870411694049835,"47":-0.03742431476712227,"48":-0.1681007295846939,"49":-0.29606541991233826,"50":-0.1919519454240799,"51":-0.06755762547254562,"52":-0.09367983788251877,"53":-0.08303399384021759,"54":0.03498360142111778,"55":-0.02946694940328598,"56":-0.2525102198123932,"57":-0.10419272631406784,"58":-0.2688238024711609,"59":-0.29543256759643555,"60":0.047332800924777985,"61":0.18288812041282654,"62":-0.1815900057554245,"63":-0.24202385544776917,"64":-0.13703089952468872,"65":-0.03190440684556961,"66":0.09124995023012161,"67":0.11003056168556213,"68":0.1410554051399231,"69":-0.174883633852005,"70":-0.25190651416778564,"71":-0.3890979588031769,"72":-0.24101458489894867,"73":-0.13910043239593506,"74":0.08060358464717865,"75":-0.16037757694721222,"76":0.13441666960716248,"77":-0.05609804764389992,"78":-0.2838056981563568,"79":-0.09807281196117401,"80":0.14966729283332825,"81":-0.27777135372161865,"82":0.013499194756150246,"83":0.15828025341033936,"84":-0.0014185159234330058,"85":-0.18541531264781952,"86":-0.18582388758659363,"87":-0.07662682980298996,"88":0.02305532991886139,"89":-0.10748637467622757,"90":0.010912173427641392,"91":0.05169273912906647,"92":-0.006577058229595423,"93":0.09038610011339188,"94":0.15127412974834442,"95":0.11280881613492966,"96":-0.18757504224777222,"97":-0.03466416895389557,"98":-0.21408648788928986,"99":0.25408437848091125,"100":-0.015954412519931793,"101":-0.3044985830783844,"102":-0.11423861980438232,"103":0.22658424079418182,"104":-0.05143679305911064,"105":-0.20625029504299164,"106":0.13988126814365387,"107":-0.1634981632232666,"108":-0.0992066040635109,"109":-0.14199599623680115,"110":-0.003926163073629141,"111":-0.06243415176868439,"112":-0.18005049228668213,"113":0.13288256525993347,"114":0.12854968011379242,"115":0.06679133325815201,"116":0.0561954565346241,"117":-0.04071921482682228,"118":0.0475323311984539,"119":-0.21255521476268768,"120":0.04635279253125191,"121":-0.14684464037418365,"122":-0.011212811805307865,"123":-0.14180782437324524,"124":-0.06232938915491104,"125":-0.09589403122663498,"126":0.22715933620929718,"127":0.20842455327510834,"128":0.19749487936496735,"129":-0.1707722395658493,"130":0.004366882611066103,"131":-0.09281571209430695,"132":-0.20903927087783813,"133":-0.17140962183475494,"134":0.08494994044303894,"135":-0.22623996436595917,"136":-0.1656358242034912,"137":-0.08576779812574387,"138":-0.171237513422966,"139":0.08822295814752579,"140":0.12355507910251617,"141":0.08874084055423737,"142":0.15833158791065216,"143":0.205520361661911}},"1":{"bias":0.09195898473262787,"weights":{"0":-2.9966156482696533,"1":1.9458566904067993,"2":-0.09782588481903076,"3":-1.830223560333252,"4":0.4444132447242737,"5":-0.9950969219207764,"6":0.2638039290904999,"7":2.4446029663085938,"8":1.4482241868972778,"9":0.3002481162548065,"10":-2.2808492183685303,"11":0.834918737411499,"12":-4.447509765625,"13":0.5818536877632141,"14":1.1904802322387695,"15":-3.0503745079040527,"16":0.15375393629074097,"17":-3.228787899017334,"18":-1.5441032648086548,"19":0.2570943534374237,"20":2.8132355213165283,"21":-0.8923729658126831,"22":0.8185577392578125,"23":-2.136631965637207,"24":-2.815377712249756,"25":1.182722806930542,"26":-0.5566065311431885,"27":1.51920747756958,"28":1.2415480613708496,"29":-1.8216525316238403,"30":-0.3481081426143646,"31":1.5249041318893433,"32":0.5056859850883484,"33":0.4504574239253998,"34":-2.559251308441162,"35":-0.45896512269973755,"36":-1.2333587408065796,"37":0.8954391479492188,"38":-1.9728742837905884,"39":0.6942254900932312,"40":-0.2697972059249878,"41":0.7763723134994507,"42":-0.27623552083969116,"43":-2.068199396133423,"44":3.839876413345337,"45":1.1997593641281128,"46":0.27200067043304443,"47":-2.5701167583465576,"48":0.15784849226474762,"49":-0.9401504993438721,"50":-0.7905372381210327,"51":0.341947466135025,"52":0.8834258913993835,"53":-0.0686740055680275,"54":-1.7203729152679443,"55":-1.5541130304336548,"56":2.079355239868164,"57":1.312482237815857,"58":-0.0469389446079731,"59":2.218926429748535,"60":-0.477053165435791,"61":0.06416037678718567,"62":-0.3341637849807739,"63":0.5416328310966492,"64":0.8097710013389587,"65":2.0202293395996094,"66":3.1534290313720703,"67":0.8111361265182495,"68":-1.1350822448730469,"69":0.2289130687713623,"70":-0.20527644455432892,"71":-2.210214614868164,"72":1.3139708042144775,"73":0.2974495589733124,"74":-1.7116514444351196,"75":-1.8434489965438843,"76":-1.0476603507995605,"77":-0.8950982093811035,"78":-0.5493285059928894,"79":-1.4056944847106934,"80":3.23865008354187,"81":2.1260664463043213,"82":0.8284927606582642,"83":-0.7727957963943481,"84":1.2498654127120972,"85":0.05638713762164116,"86":1.575419545173645,"87":2.0897819995880127,"88":-0.5450949668884277,"89":-0.15809617936611176,"90":0.3508744537830353,"91":-0.45103976130485535,"92":-1.513418436050415,"93":-1.6630637645721436,"94":-0.770983099937439,"95":-0.7174245119094849,"96":1.0803109407424927,"97":-0.3891884982585907,"98":-0.367789089679718,"99":-0.8880818486213684,"100":1.0341111421585083,"101":0.7321356534957886,"102":1.227040410041809,"103":0.40475669503211975,"104":-0.03442959487438202,"105":0.5967856645584106,"106":0.04784692823886871,"107":0.3778427541255951,"108":0.43895238637924194,"109":-0.6540490388870239,"110":-0.5889877080917358,"111":0.24664758145809174,"112":0.2735920250415802,"113":0.06793002784252167,"114":0.030726419761776924,"115":0.07334534078836441,"116":-0.5629060864448547,"117":-0.02223530039191246,"118":0.3198992609977722,"119":0.011971860192716122,"120":0.11414899677038193,"121":-0.08664751797914505,"122":-0.10279237478971481,"123":-0.1664852797985077,"124":0.12478051334619522,"125":0.19893138110637665,"126":0.07269985228776932,"127":-0.6464813351631165,"128":-0.024518920108675957,"129":-0.17764286696910858,"130":-0.27072858810424805,"131":0.15011048316955566,"132":-0.44763562083244324,"133":-0.48907262086868286,"134":-0.23079095780849457,"135":-0.4811535179615021,"136":-0.37597328424453735,"137":-0.6192187070846558,"138":-0.5227372050285339,"139":0.11057134717702866,"140":0.18705923855304718,"141":0.0024092686362564564,"142":-0.025370623916387558,"143":0.16984497010707855}},"2":{"bias":0.3150952160358429,"weights":{"0":0.24491634964942932,"1":0.02489422634243965,"2":-0.07731768488883972,"3":-0.6955007910728455,"4":-0.10817157477140427,"5":0.26716482639312744,"6":-0.15843534469604492,"7":0.8995347619056702,"8":-1.2216060161590576,"9":-0.22157587110996246,"10":-0.024572258815169334,"11":0.06804753094911575,"12":0.6603901386260986,"13":-0.5968244075775146,"14":0.571459174156189,"15":0.7012179493904114,"16":0.5494735836982727,"17":-0.29505443572998047,"18":-0.14912058413028717,"19":0.8416542410850525,"20":-0.20443980395793915,"21":-0.3507523238658905,"22":-0.32891687750816345,"23":-0.7256166338920593,"24":-0.2799490690231323,"25":0.28624066710472107,"26":-0.7316483855247498,"27":-0.5679883360862732,"28":-0.11197759211063385,"29":-0.6719902157783508,"30":0.13277728855609894,"31":0.332597017288208,"32":-0.9390408992767334,"33":-0.46723881363868713,"34":-0.36850684881210327,"35":-0.2555273771286011,"36":-0.25400257110595703,"37":-0.5194764137268066,"38":-0.4829968810081482,"39":-0.48332974314689636,"40":0.10421474277973175,"41":-0.12597566843032837,"42":-0.8075661659240723,"43":-0.06719035655260086,"44":-0.6145167350769043,"45":-0.011973540298640728,"46":-0.3038543462753296,"47":-0.3079027235507965,"48":-0.3652028739452362,"49":-0.41909876465797424,"50":-0.5501376986503601,"51":-0.3876988887786865,"52":-0.47911331057548523,"53":-0.3374650776386261,"54":-0.25265175104141235,"55":-0.3987330496311188,"56":-0.5085376501083374,"57":-0.1972641795873642,"58":-0.41659781336784363,"59":-0.22162795066833496,"60":-0.1523701548576355,"61":-0.46854153275489807,"62":-0.32559534907341003,"63":-0.393599271774292,"64":-0.18421927094459534,"65":-0.07455823570489883,"66":-0.12337327748537064,"67":-0.321176141500473,"68":-0.2448595017194748,"69":-0.36234191060066223,"70":-0.05354588106274605,"71":-0.2970186769962311,"72":0.011705714277923107,"73":0.10952442139387131,"74":0.04939047247171402,"75":0.007576887030154467,"76":-0.10553109645843506,"77":0.00730377621948719,"78":0.1321532428264618,"79":-0.10919467359781265,"80":-0.20392626523971558,"81":0.161909818649292,"82":-0.25226813554763794,"83":-0.3343479335308075,"84":-0.11073549836874008,"85":-0.21998950839042664,"86":-0.19788847863674164,"87":-0.31865590810775757,"88":-0.04847152158617973,"89":0.049436382949352264,"90":0.12333861738443375,"91":-0.19690632820129395,"92":0.04239232465624809,"93":-0.09240537881851196,"94":-0.05928890034556389,"95":-0.0363495871424675,"96":-0.08386317640542984,"97":-0.09557878971099854,"98":-0.14866353571414948,"99":-0.16271014511585236,"100":0.05774937570095062,"101":-0.17423740029335022,"102":0.0333312563598156,"103":-0.2021656185388565,"104":-0.05004936456680298,"105":-0.0639260858297348,"106":0.15305645763874054,"107":-0.16835051774978638,"108":-0.06516949087381363,"109":-0.059691037982702255,"110":0.12600530683994293,"111":0.005786690395325422,"112":0.18864230811595917,"113":0.1178688257932663,"114":-0.030348841100931168,"115":-0.14252382516860962,"116":-0.09019785374403,"117":-0.20411166548728943,"118":-0.040906988084316254,"119":-0.029202314093708992,"120":-0.23578321933746338,"121":0.03896493464708328,"122":-0.06369702517986298,"123":0.09149471670389175,"124":-0.2506987452507019,"125":-0.1919061243534088,"126":-0.019497975707054138,"127":-0.14007773995399475,"128":-0.11970445513725281,"129":-0.0644303411245346,"130":-0.02696424350142479,"131":-0.19837486743927002,"132":-0.20778143405914307,"133":-0.054917193949222565,"134":0.03159702569246292,"135":0.0826522558927536,"136":0.13001976907253265,"137":-0.1588965803384781,"138":0.09467770904302597,"139":0.047343652695417404,"140":0.11966662108898163,"141":0.062362320721149445,"142":-0.0401175394654274,"143":-0.02983708120882511}},"3":{"bias":0.2723703980445862,"weights":{"0":-0.393738716840744,"1":-0.4686011075973511,"2":-0.8029037117958069,"3":0.179249569773674,"4":0.25384658575057983,"5":0.014586475677788258,"6":0.008619881235063076,"7":0.5194750428199768,"8":-1.2111657857894897,"9":-0.5690340399742126,"10":-0.8994606137275696,"11":-0.5790127515792847,"12":-0.07609210163354874,"13":0.800469696521759,"14":-0.476604163646698,"15":-1.4549057483673096,"16":0.5035984516143799,"17":-0.3786671757698059,"18":0.496057391166687,"19":-0.2135312706232071,"20":-0.20559312403202057,"21":-0.3033832609653473,"22":-0.8443512916564941,"23":0.19394157826900482,"24":-0.05484385043382645,"25":-0.29311493039131165,"26":-0.59328693151474,"27":0.13273091614246368,"28":0.7131053805351257,"29":0.2846335172653198,"30":0.46434590220451355,"31":0.8516010046005249,"32":0.30004003643989563,"33":0.6474528312683105,"34":0.8214159607887268,"35":-0.8389355540275574,"36":-0.7118175029754639,"37":-0.9660555720329285,"38":-0.27228808403015137,"39":0.24500209093093872,"40":-0.14423353970050812,"41":-0.34418636560440063,"42":-0.059986017644405365,"43":0.7514945268630981,"44":0.7471857070922852,"45":0.5817519426345825,"46":-0.5089624524116516,"47":-0.40080592036247253,"48":-0.011820675805211067,"49":-0.1767146736383438,"50":-0.7602264285087585,"51":-0.1361168473958969,"52":-0.5243908762931824,"53":-0.31625911593437195,"54":-0.4535525143146515,"55":-0.1597631573677063,"56":0.03329218178987503,"57":-0.2746342122554779,"58":-0.09470708668231964,"59":0.048100393265485764,"60":-0.018237439915537834,"61":-0.3429116904735565,"62":-0.3069092035293579,"63":-0.17749802768230438,"64":-0.38785141706466675,"65":0.07594110816717148,"66":-0.3646135926246643,"67":-0.13264723122119904,"68":0.1481487900018692,"69":0.41646915674209595,"70":0.21472804248332977,"71":0.30236026644706726,"72":0.867637038230896,"73":-0.18110984563827515,"74":-0.2687057554721832,"75":0.33962005376815796,"76":0.2129029780626297,"77":0.12604115903377533,"78":0.06279542297124863,"79":-0.12578058242797852,"80":0.17309273779392242,"81":0.4752199649810791,"82":0.011631835252046585,"83":-0.09276095777750015,"84":0.5324826240539551,"85":0.1572229564189911,"86":0.3452565371990204,"87":0.42571330070495605,"88":-0.1759612113237381,"89":-0.024225935339927673,"90":0.024276787415146828,"91":0.35114070773124695,"92":0.5030468106269836,"93":-0.24862273037433624,"94":-0.21578414738178253,"95":0.22522950172424316,"96":0.8767625093460083,"97":0.20516566932201385,"98":-0.11219999939203262,"99":-0.41695111989974976,"100":-0.10078984498977661,"101":0.3623664677143097,"102":-0.008429025299847126,"103":-0.272676557302475,"104":-0.19157740473747253,"105":-0.0941125899553299,"106":-0.04456744343042374,"107":-0.17854011058807373,"108":0.1465040147304535,"109":-0.13808318972587585,"110":-0.4534459412097931,"111":0.23145362734794617,"112":-0.1802295297384262,"113":-0.1729862540960312,"114":-0.15309831500053406,"115":-0.1470707356929779,"116":-0.020745111629366875,"117":-0.05152810364961624,"118":0.07209141552448273,"119":-0.1430320143699646,"120":-0.330261766910553,"121":-0.1520232856273651,"122":-0.40993282198905945,"123":-0.2665812373161316,"124":-0.13597239553928375,"125":-0.2637466788291931,"126":-0.3303045332431793,"127":-0.35181060433387756,"128":-0.1338118612766266,"129":-0.05807889625430107,"130":0.1038060188293457,"131":-0.022157011553645134,"132":-0.10167776793241501,"133":-0.009882744401693344,"134":0.07138443738222122,"135":-0.18409641087055206,"136":-0.13153113424777985,"137":0.07069383561611176,"138":-0.11445748060941696,"139":0.1357116848230362,"140":-0.151546448469162,"141":-0.034979671239852905,"142":-0.00262611941434443,"143":0.021462293341755867}},"4":{"bias":-0.39588555693626404,"weights":{"0":-0.1564207375049591,"1":0.0490950345993042,"2":-0.06444297730922699,"3":-0.11615440249443054,"4":-0.4128205478191376,"5":0.051617249846458435,"6":0.11342740058898926,"7":-0.4062681198120117,"8":-0.0466868132352829,"9":-0.12507867813110352,"10":-0.15269066393375397,"11":-0.03326605632901192,"12":-0.1315963715314865,"13":-0.31620821356773376,"14":-0.1299973726272583,"15":-0.016857922077178955,"16":-0.32901668548583984,"17":-0.5006847977638245,"18":-0.31339821219444275,"19":-0.36843249201774597,"20":-0.24974286556243896,"21":-0.2848584055900574,"22":-0.24341177940368652,"23":-0.22406934201717377,"24":-0.11567308753728867,"25":-0.3711143434047699,"26":-0.35109636187553406,"27":-0.16187311708927155,"28":-0.13917532563209534,"29":-0.2833128571510315,"30":-0.1321580559015274,"31":-0.29562878608703613,"32":-0.20320217311382294,"33":-0.4077305793762207,"34":-0.1937563717365265,"35":0.016190169379115105,"36":-0.14708518981933594,"37":-0.1042170524597168,"38":-0.2601260244846344,"39":-0.23016025125980377,"40":0.024926364421844482,"41":-0.08723665028810501,"42":-0.4203222692012787,"43":-0.2322734147310257,"44":-0.18235482275485992,"45":-0.09064163267612457,"46":-0.2970679700374603,"47":-0.048167694360017776,"48":-0.15653854608535767,"49":-0.3025345206260681,"50":-0.036878783255815506,"51":-0.031962573528289795,"52":-0.10058184713125229,"53":-0.27313724160194397,"54":0.06256991624832153,"55":-0.09539662301540375,"56":-0.29633858799934387,"57":0.005850384943187237,"58":-0.23831340670585632,"59":-0.0658668577671051,"60":0.08421464264392853,"61":-0.11573244631290436,"62":-0.0725802406668663,"63":-0.15463078022003174,"64":-0.026953531429171562,"65":0.05104539170861244,"66":0.0973752811551094,"67":-0.18337491154670715,"68":-0.21833911538124084,"69":-0.07724164426326752,"70":-0.21730178594589233,"71":-0.08286057412624359,"72":-0.03794828802347183,"73":-0.04897499084472656,"74":-0.03130234777927399,"75":-0.07547289878129959,"76":-0.18331843614578247,"77":-0.013644990511238575,"78":0.10189662128686905,"79":-0.1270916759967804,"80":-0.1280519813299179,"81":-0.1258867233991623,"82":0.008320114575326443,"83":0.0238085575401783,"84":-0.1970040500164032,"85":-0.08450482785701752,"86":0.00645738048478961,"87":0.10174336284399033,"88":0.12053262442350388,"89":0.027181942015886307,"90":-0.1456899344921112,"91":-0.044313203543424606,"92":-0.1108526960015297,"93":0.04538100212812424,"94":0.05841260403394699,"95":0.03194570168852806,"96":-0.03355799615383148,"97":0.033197324723005295,"98":0.04407617077231407,"99":0.07356051355600357,"100":-0.13277287781238556,"101":-0.07939134538173676,"102":0.06885586678981781,"103":-0.20469379425048828,"104":0.05989302694797516,"105":0.06861941516399384,"106":-0.06539617478847504,"107":-0.06263785064220428,"108":-0.20652277767658234,"109":-0.16605235636234283,"110":-0.10239173471927643,"111":-0.028362039476633072,"112":-0.05149943009018898,"113":0.16720052063465118,"114":0.031829584389925,"115":-0.014770141802728176,"116":0.06112270802259445,"117":-0.10705374926328659,"118":-0.19718345999717712,"119":-0.1841912716627121,"120":0.07927682250738144,"121":-0.17005415260791779,"122":-0.1949499100446701,"123":-0.1019127368927002,"124":-0.2045903354883194,"125":0.1596260666847229,"126":-0.09485609084367752,"127":-0.16534140706062317,"128":-0.07562790811061859,"129":-0.18532249331474304,"130":-0.12931212782859802,"131":0.1546773612499237,"132":-0.11572236567735672,"133":-0.1040479987859726,"134":-0.12057222425937653,"135":-0.047277819365262985,"136":-0.14286549389362335,"137":0.1687275767326355,"138":-0.15967293083667755,"139":0.11850608885288239,"140":-0.16791948676109314,"141":0.06922727078199387,"142":-0.003974454943090677,"143":-0.17862443625926971}},"5":{"bias":-0.19274112582206726,"weights":{"0":0.14893744885921478,"1":0.2165410965681076,"2":-0.1438872069120407,"3":0.2604852020740509,"4":0.12448497116565704,"5":-0.17185086011886597,"6":-0.5399216413497925,"7":-1.2476582527160645,"8":0.6853214502334595,"9":0.34467875957489014,"10":-0.03833558410406113,"11":-0.38836565613746643,"12":-0.5524235367774963,"13":0.47208574414253235,"14":-0.37877923250198364,"15":-0.8532969951629639,"16":-0.1189817488193512,"17":0.06640966236591339,"18":-0.37967807054519653,"19":-0.3193034827709198,"20":0.3261570930480957,"21":-0.2729716897010803,"22":0.6597238183021545,"23":0.681008517742157,"24":0.32213127613067627,"25":-0.1597677618265152,"26":0.472638338804245,"27":-0.2738494873046875,"28":-0.42892318964004517,"29":0.4955008625984192,"30":-0.5707942843437195,"31":-1.0332216024398804,"32":-0.5586525201797485,"33":0.08972389996051788,"34":-0.8078229427337646,"35":0.036102499812841415,"36":-0.08272179216146469,"37":0.11224836111068726,"38":-0.06863855570554733,"39":-0.5884307026863098,"40":-0.48757922649383545,"41":-0.20680952072143555,"42":0.42043188214302063,"43":0.04105709493160248,"44":-0.09303445369005203,"45":-0.17835740745067596,"46":-0.30538713932037354,"47":0.06302378326654434,"48":-0.18500293791294098,"49":-0.5169926881790161,"50":0.06095249205827713,"51":-0.3507864475250244,"52":0.2652967870235443,"53":0.24989469349384308,"54":-0.16296489536762238,"55":-0.31002914905548096,"56":-0.2395779937505722,"57":-0.316789448261261,"58":-0.23965145647525787,"59":-0.22392627596855164,"60":-0.46540117263793945,"61":-0.35714319348335266,"62":-0.25143516063690186,"63":-0.15118330717086792,"64":-0.26429277658462524,"65":-0.04473612457513809,"66":-0.14805515110492706,"67":-0.23911038041114807,"68":0.03728410601615906,"69":-0.08873526751995087,"70":-0.1577615886926651,"71":-0.12560710310935974,"72":0.03897542506456375,"73":-0.24169516563415527,"74":-0.4144940972328186,"75":-0.2540290355682373,"76":0.08122777938842773,"77":-0.3020862638950348,"78":-0.5314433574676514,"79":-0.0980810895562172,"80":-0.04876508563756943,"81":-0.25479939579963684,"82":-0.20800505578517914,"83":-0.09361114352941513,"84":-0.060685452073812485,"85":-0.1946355104446411,"86":-0.29008638858795166,"87":0.27265214920043945,"88":0.027801835909485817,"89":-0.06796594709157944,"90":-0.3086276948451996,"91":-0.2035835236310959,"92":-0.40598034858703613,"93":-0.05518399924039841,"94":-0.10046987235546112,"95":-0.2021179050207138,"96":-0.1695326566696167,"97":-0.37313079833984375,"98":-0.15024526417255402,"99":0.02358333393931389,"100":0.0006329878233373165,"101":-0.12802740931510925,"102":0.10826268047094345,"103":-0.00007137971260817721,"104":-0.24999116361141205,"105":-0.24456501007080078,"106":-0.09044934064149857,"107":0.11096259206533432,"108":-0.1310090720653534,"109":0.06483453512191772,"110":-0.28282010555267334,"111":-0.08839277923107147,"112":-0.1752888411283493,"113":0.045898258686065674,"114":0.017685160040855408,"115":-0.023721283301711082,"116":0.08934185653924942,"117":-0.2346339374780655,"118":0.12590086460113525,"119":0.03973228484392166,"120":-0.015717322006821632,"121":-0.12139734625816345,"122":0.02439139224588871,"123":-0.06698006391525269,"124":-0.1261313557624817,"125":0.08481337875127792,"126":0.19509762525558472,"127":0.06543660163879395,"128":0.03977753221988678,"129":-0.200080007314682,"130":-0.20203742384910583,"131":0.05686797574162483,"132":0.014026370830833912,"133":0.0354623943567276,"134":-0.10329446196556091,"135":-0.013597354292869568,"136":-0.22489047050476074,"137":0.145262211561203,"138":0.09811817854642868,"139":-0.13553865253925323,"140":0.033889591693878174,"141":0.05189229175448418,"142":-0.08401038497686386,"143":-0.15800417959690094}},"6":{"bias":0.13794894516468048,"weights":{"0":1.827815055847168,"1":2.0571200847625732,"2":-3.6561505794525146,"3":-3.893601894378662,"4":-0.6561050415039062,"5":-0.9720306992530823,"6":0.05371836572885513,"7":-0.2520279586315155,"8":1.920958399772644,"9":1.5537437200546265,"10":2.1023356914520264,"11":-2.8806843757629395,"12":2.5821661949157715,"13":-1.0382145643234253,"14":1.064144253730774,"15":0.6311100125312805,"16":2.532435178756714,"17":-3.5723812580108643,"18":-0.5131683945655823,"19":-0.568436861038208,"20":-1.27887761592865,"21":-0.42061084508895874,"22":2.1800429821014404,"23":-0.5396126508712769,"24":-0.4302268624305725,"25":0.8838573098182678,"26":-1.5778547525405884,"27":-4.0341291427612305,"28":-2.163086414337158,"29":-0.21226336061954498,"30":-1.5366724729537964,"31":-1.6781448125839233,"32":-2.7300617694854736,"33":1.1919188499450684,"34":-2.736334800720215,"35":-1.9476772546768188,"36":2.9059898853302,"37":-1.6770985126495361,"38":-1.4962104558944702,"39":1.364924430847168,"40":4.409073352813721,"41":1.0431338548660278,"42":0.22857040166854858,"43":1.366951823234558,"44":1.7367737293243408,"45":2.2748286724090576,"46":0.6567552089691162,"47":-2.0221924781799316,"48":-0.27925628423690796,"49":0.7948117256164551,"50":2.329586982727051,"51":1.4130116701126099,"52":-1.2748308181762695,"53":0.3968655467033386,"54":1.4949322938919067,"55":-0.8694044351577759,"56":0.474599152803421,"57":-4.109489917755127,"58":-0.5942692160606384,"59":-2.6192009449005127,"60":-2.089949607849121,"61":-0.13956494629383087,"62":1.095682144165039,"63":-1.6486583948135376,"64":1.5759282112121582,"65":0.1033208817243576,"66":0.5743787288665771,"67":0.04966283217072487,"68":3.5203845500946045,"69":2.215237855911255,"70":-0.05978303402662277,"71":-0.046621035784482956,"72":-0.28057458996772766,"73":-1.6835548877716064,"74":-2.091736316680908,"75":-1.2256296873092651,"76":-1.258622646331787,"77":-2.4048383235931396,"78":-0.32546597719192505,"79":-0.73390793800354,"80":1.8605302572250366,"81":3.301906108856201,"82":-0.5859034061431885,"83":-0.781295657157898,"84":0.3664416968822479,"85":-0.9090178608894348,"86":0.10643336921930313,"87":-0.7257767915725708,"88":-1.009366750717163,"89":-0.6992882490158081,"90":-0.4383150041103363,"91":0.7843362092971802,"92":-0.17703324556350708,"93":1.5644171237945557,"94":1.3785966634750366,"95":-0.1470668464899063,"96":1.9361408948898315,"97":-0.23976460099220276,"98":0.44847506284713745,"99":-1.6026251316070557,"100":0.8165688514709473,"101":1.3679258823394775,"102":2.0709996223449707,"103":-0.19511550664901733,"104":1.4067381620407104,"105":0.9377511143684387,"106":0.4673226773738861,"107":-0.29339370131492615,"108":1.3767679929733276,"109":-1.3286219835281372,"110":-1.4606152772903442,"111":1.1063249111175537,"112":0.2786730229854584,"113":-0.0565345324575901,"114":1.256111741065979,"115":1.2744743824005127,"116":-1.164488434791565,"117":-0.0495462641119957,"118":0.219058558344841,"119":-0.009968318976461887,"120":-0.3652096092700958,"121":0.3244451582431793,"122":-0.961622953414917,"123":-0.31886523962020874,"124":-0.5795308351516724,"125":0.15056568384170532,"126":0.29077351093292236,"127":-1.2812174558639526,"128":-0.23235489428043365,"129":1.7033814191818237,"130":0.9553753733634949,"131":1.9299472570419312,"132":-0.42020681500434875,"133":0.5048236846923828,"134":0.24161271750926971,"135":0.40866410732269287,"136":-0.20491552352905273,"137":-0.37784305214881897,"138":-0.6046227812767029,"139":0.058624718338251114,"140":0.6164183616638184,"141":0.6355813145637512,"142":0.6043862104415894,"143":0.2722304165363312}},"7":{"bias":-0.36417704820632935,"weights":{"0":0.1365857720375061,"1":-0.4542667269706726,"2":-0.19487307965755463,"3":-0.05291566252708435,"4":-0.03025890700519085,"5":-0.05539805069565773,"6":0.09504637867212296,"7":-0.022734124213457108,"8":0.1334221363067627,"9":0.13811622560024261,"10":-0.5829101800918579,"11":-0.43728530406951904,"12":-0.5185180306434631,"13":0.16688136756420135,"14":-0.022059762850403786,"15":0.010306247510015965,"16":0.4995943009853363,"17":0.11739154160022736,"18":-0.39613011479377747,"19":-0.13720807433128357,"20":0.13544434309005737,"21":0.3611967861652374,"22":-0.5416107773780823,"23":-0.5996713638305664,"24":-0.2170613408088684,"25":-0.49991753697395325,"26":-0.1156436949968338,"27":-0.25426843762397766,"28":-0.09245090186595917,"29":-0.5094935297966003,"30":-0.2816241979598999,"31":-0.673740029335022,"32":-0.704318642616272,"33":-0.2598124146461487,"34":-0.2664560079574585,"35":0.03481496497988701,"36":0.493672251701355,"37":0.08988667279481888,"38":0.21802185475826263,"39":-0.30341577529907227,"40":-0.02765430137515068,"41":-0.5381330847740173,"42":-0.30669885873794556,"43":-0.4070395827293396,"44":-0.2343674898147583,"45":-0.2955814599990845,"46":-0.14061512053012848,"47":-0.10760356485843658,"48":-0.32600802183151245,"49":-0.3265007436275482,"50":-0.262103796005249,"51":-0.009956915862858295,"52":-0.2687278687953949,"53":0.07547065615653992,"54":-0.07604287564754486,"55":-0.16697350144386292,"56":-0.303322434425354,"57":-0.4318523705005646,"58":-0.3414258360862732,"59":-0.1731186807155609,"60":-0.0750514417886734,"61":0.0531201995909214,"62":0.0929279699921608,"63":-0.1362794041633606,"64":-0.10727577656507492,"65":-0.14468882977962494,"66":-0.033203162252902985,"67":0.12417479604482651,"68":-0.06381278485059738,"69":-0.1653575599193573,"70":-0.03424723818898201,"71":-0.37332940101623535,"72":-0.33967024087905884,"73":-0.025318019092082977,"74":0.06998743116855621,"75":-0.03475932404398918,"76":-0.0026258472353219986,"77":-0.12212862819433212,"78":0.09701726585626602,"79":0.09177465736865997,"80":-0.055132247507572174,"81":-0.08290630578994751,"82":-0.15770705044269562,"83":-0.24516376852989197,"84":0.03620152920484543,"85":-0.2675325572490692,"86":-0.25115227699279785,"87":-0.05549156665802002,"88":0.1412578821182251,"89":0.04983992129564285,"90":-0.045486461371183395,"91":-0.046856775879859924,"92":0.06265010684728622,"93":0.057130418717861176,"94":-0.15589381754398346,"95":-0.23374390602111816,"96":-0.23346182703971863,"97":-0.2795323431491852,"98":-0.2681991159915924,"99":-0.229624941945076,"100":-0.13834281265735626,"101":-0.2506943941116333,"102":-0.028870344161987305,"103":-0.12268829345703125,"104":0.12626846134662628,"105":-0.2536466717720032,"106":-0.007067230064421892,"107":-0.01323271356523037,"108":0.024089735001325607,"109":0.015448491089046001,"110":0.08310426771640778,"111":0.08402850478887558,"112":-0.1936476081609726,"113":0.06155313178896904,"114":-0.08485293388366699,"115":-0.23690904676914215,"116":-0.18133403360843658,"117":-0.22073428332805634,"118":0.050502676516771317,"119":-0.07886397838592529,"120":-0.04828190430998802,"121":-0.002234877785667777,"122":-0.12197601795196533,"123":0.03347998112440109,"124":0.07764677703380585,"125":-0.1956103891134262,"126":-0.045574065297842026,"127":0.08387439697980881,"128":-0.17611247301101685,"129":-0.00676427036523819,"130":-0.15653938055038452,"131":0.07778409868478775,"132":-0.0875978022813797,"133":-0.25635826587677,"134":-0.13500148057937622,"135":-0.08252929896116257,"136":0.143986314535141,"137":-0.09045792371034622,"138":-0.15162953734397888,"139":0.1318812072277069,"140":0.0681460052728653,"141":-0.012366834096610546,"142":-0.07713007926940918,"143":-0.18712273240089417}},"8":{"bias":0.21888047456741333,"weights":{"0":0.32506757974624634,"1":-0.647487998008728,"2":-0.0814828872680664,"3":-0.22070464491844177,"4":-0.12928752601146698,"5":-0.012006178498268127,"6":0.16619253158569336,"7":-0.2721604108810425,"8":-0.20329666137695312,"9":-0.11664577573537827,"10":-0.16406498849391937,"11":-0.34796983003616333,"12":0.4119465947151184,"13":0.24709874391555786,"14":0.020546915009617805,"15":-0.18402782082557678,"16":0.2008916139602661,"17":-0.7363713383674622,"18":-0.33583366870880127,"19":0.36305347084999084,"20":-0.05708383396267891,"21":-0.11430268734693527,"22":-0.37877294421195984,"23":0.023695360869169235,"24":-0.32792189717292786,"25":-0.391715407371521,"26":0.1653442531824112,"27":0.0975724533200264,"28":-0.35798051953315735,"29":-0.14010293781757355,"30":0.2455039620399475,"31":-0.36591875553131104,"32":-0.4380590617656708,"33":-0.10755285620689392,"34":0.3796229958534241,"35":-0.2669505476951599,"36":0.25737306475639343,"37":-0.18818654119968414,"38":-0.24889636039733887,"39":-0.3028815984725952,"40":-0.002890234347432852,"41":-0.09217879176139832,"42":-0.2629082500934601,"43":0.05651639401912689,"44":0.15981023013591766,"45":0.2525973916053772,"46":-0.12434768676757812,"47":0.4379997253417969,"48":-0.39917993545532227,"49":0.4109756052494049,"50":-0.5412503480911255,"51":0.2418651282787323,"52":0.14191623032093048,"53":0.41930779814720154,"54":0.29800358414649963,"55":-0.20755089819431305,"56":-0.2634693682193756,"57":-0.08818616718053818,"58":0.4862891435623169,"59":0.50284743309021,"60":-0.13869991898536682,"61":0.16339702904224396,"62":0.3666642904281616,"63":0.4134403467178345,"64":0.2617852985858917,"65":0.1856229305267334,"66":-0.01210055872797966,"67":0.510810375213623,"68":-0.24968695640563965,"69":0.10744480788707733,"70":0.4294010102748871,"71":0.3194716274738312,"72":0.5131263136863708,"73":0.21452058851718903,"74":0.40714409947395325,"75":0.6801027655601501,"76":0.2909329831600189,"77":0.4828279912471771,"78":0.1836300939321518,"79":-0.6514592170715332,"80":-0.17362794280052185,"81":0.08048668503761292,"82":-0.08704732358455658,"83":-0.5151202082633972,"84":-0.24939562380313873,"85":-0.20213742554187775,"86":0.42101773619651794,"87":-0.29214566946029663,"88":-0.4034573435783386,"89":0.15609416365623474,"90":0.04439409077167511,"91":0.3221646845340729,"92":0.3869583010673523,"93":-0.10868977755308151,"94":-0.06433060765266418,"95":0.02698078379034996,"96":0.10851288586854935,"97":0.45011746883392334,"98":0.36919620633125305,"99":-0.6919348835945129,"100":-0.14908210933208466,"101":0.5493862628936768,"102":0.07740838825702667,"103":-0.5176276564598083,"104":-0.3865300714969635,"105":0.28509584069252014,"106":-0.04278583452105522,"107":-0.12158326804637909,"108":0.1420278400182724,"109":0.1394016295671463,"110":0.21338146924972534,"111":0.11019746959209442,"112":0.24754121899604797,"113":-0.18335944414138794,"114":0.27879589796066284,"115":0.156002938747406,"116":-0.06127878651022911,"117":-0.17237478494644165,"118":0.18862588703632355,"119":-0.18047235906124115,"120":-0.0869113951921463,"121":0.005784459412097931,"122":-0.0005833615432493389,"123":-0.16213737428188324,"124":-0.47620072960853577,"125":-0.5100947618484497,"126":-0.4693206250667572,"127":-0.5612672567367554,"128":-0.4788226783275604,"129":-0.22999028861522675,"130":-0.27882495522499084,"131":0.06848961859941483,"132":0.0781150534749031,"133":0.1515093892812729,"134":-0.10813171416521072,"135":0.2998570501804352,"136":-0.1556282937526703,"137":-0.20730432868003845,"138":0.056636080145835876,"139":0.08831152319908142,"140":-0.018473275005817413,"141":0.16922542452812195,"142":-0.21349787712097168,"143":0.08868145197629929}},"9":{"bias":0.42633312940597534,"weights":{"0":0.27041709423065186,"1":-0.4578024446964264,"2":0.06775400042533875,"3":-0.0743410736322403,"4":0.24852393567562103,"5":0.754241943359375,"6":0.17792564630508423,"7":1.2663822174072266,"8":-1.0717477798461914,"9":-0.8131524324417114,"10":-1.0285542011260986,"11":0.31655722856521606,"12":0.8607385754585266,"13":-0.9627195596694946,"14":0.6614276766777039,"15":1.186859369277954,"16":1.1729906797409058,"17":-1.023500680923462,"18":0.049366194754838943,"19":0.4258580207824707,"20":-0.7761095762252808,"21":-1.3192318677902222,"22":0.5306888222694397,"23":-1.0226436853408813,"24":-0.26656386256217957,"25":1.1121275424957275,"26":-1.539597988128662,"27":0.011459900066256523,"28":-0.9266501069068909,"29":-0.05188055336475372,"30":0.8878288865089417,"31":0.553885281085968,"32":-0.8318615555763245,"33":-0.12353181093931198,"34":0.22712786495685577,"35":-0.7360660433769226,"36":-0.6899643540382385,"37":-0.18496128916740417,"38":-0.5752905011177063,"39":-0.5258208513259888,"40":0.691908061504364,"41":0.2303198128938675,"42":-1.0030583143234253,"43":-0.22682926058769226,"44":-0.2702994644641876,"45":0.44036561250686646,"46":-0.015485194511711597,"47":-0.8138869404792786,"48":-1.04141104221344,"49":-0.5122685432434082,"50":-1.2630976438522339,"51":-0.8969128131866455,"52":-1.3556333780288696,"53":-0.9085130095481873,"54":-1.0801544189453125,"55":-0.7788379788398743,"56":-0.6834768056869507,"57":-0.6056980490684509,"58":-0.28940287232398987,"59":-0.2035629153251648,"60":-0.49545156955718994,"61":-0.8660190105438232,"62":-0.49096545577049255,"63":-0.376113623380661,"64":-0.02692178636789322,"65":-0.06815054267644882,"66":-0.01820569857954979,"67":0.09085589647293091,"68":-0.4022517800331116,"69":-0.4435020089149475,"70":-0.06807578355073929,"71":-0.07201142609119415,"72":0.03565016761422157,"73":0.06912612169981003,"74":0.16937440633773804,"75":0.29842135310173035,"76":-0.03863419592380524,"77":0.2797376811504364,"78":0.07156805694103241,"79":-0.5355640053749084,"80":0.06187566742300987,"81":0.27529478073120117,"82":-0.4468851089477539,"83":-0.2485489696264267,"84":0.07715705037117004,"85":-0.22380352020263672,"86":-0.049993373453617096,"87":-0.3264869749546051,"88":-0.29390206933021545,"89":-0.03695264831185341,"90":0.24565888941287994,"91":0.15698473155498505,"92":0.33145445585250854,"93":0.08225340396165848,"94":-0.10316882282495499,"95":0.21950368583202362,"96":0.14760732650756836,"97":0.13707609474658966,"98":0.29365265369415283,"99":-0.32661810517311096,"100":0.015341040678322315,"101":0.1938336044549942,"102":0.1093563660979271,"103":-0.1399877667427063,"104":-0.12586720287799835,"105":-0.14029107987880707,"106":-0.18884558975696564,"107":0.1360500007867813,"108":0.1896066665649414,"109":-0.060879845172166824,"110":-0.07316496968269348,"111":-0.1515481323003769,"112":0.17904378473758698,"113":0.04833180829882622,"114":0.15646572411060333,"115":0.023514317348599434,"116":-0.11293913424015045,"117":0.09269524365663528,"118":0.15024608373641968,"119":0.048666857182979584,"120":-0.18015947937965393,"121":-0.22850483655929565,"122":-0.01002385001629591,"123":0.007642081473022699,"124":-0.36911362409591675,"125":-0.20588791370391846,"126":-0.23374222218990326,"127":-0.40027403831481934,"128":-0.13702593743801117,"129":0.025935214012861252,"130":-0.12712238729000092,"131":-0.05519825220108032,"132":-0.22945059835910797,"133":0.11237382888793945,"134":0.07613396644592285,"135":0.032226864248514175,"136":-0.05946417152881622,"137":-0.11967303603887558,"138":-0.07886737585067749,"139":0.17102912068367004,"140":0.03233380243182182,"141":-0.11043071001768112,"142":-0.06081391125917435,"143":-0.030635224655270576}},"10":{"bias":-0.24478963017463684,"weights":{"0":-0.40576040744781494,"1":0.0710918977856636,"2":-0.22394777834415436,"3":0.034815479069948196,"4":-0.39749419689178467,"5":-0.25011855363845825,"6":0.3863270878791809,"7":-0.04161914438009262,"8":0.24242813885211945,"9":0.19536720216274261,"10":-0.22466498613357544,"11":-0.2655496299266815,"12":0.12705367803573608,"13":-0.5331010222434998,"14":-0.20549535751342773,"15":0.10697246342897415,"16":-0.27480632066726685,"17":-0.2178746461868286,"18":0.009510145522654057,"19":-0.05595148727297783,"20":-0.5289599299430847,"21":0.10144882649183273,"22":0.09736901521682739,"23":0.04610797017812729,"24":-0.1338755488395691,"25":0.26146432757377625,"26":-0.41412341594696045,"27":0.15849439799785614,"28":-0.16907404363155365,"29":-0.061982981860637665,"30":0.1605784296989441,"31":-0.3223758935928345,"32":-0.14581884443759918,"33":-0.22504283487796783,"34":-0.33191052079200745,"35":-0.18948447704315186,"36":0.10139869898557663,"37":-0.3201257884502411,"38":-0.03504175320267677,"39":-0.4256574809551239,"40":-0.22903750836849213,"41":-0.20897509157657623,"42":-0.40412065386772156,"43":-0.20338784158229828,"44":-0.40851664543151855,"45":-0.40367934107780457,"46":-0.03929424285888672,"47":-0.3690316379070282,"48":-0.10775798559188843,"49":-0.1862182319164276,"50":-0.40030166506767273,"51":-0.1700528860092163,"52":-0.17241773009300232,"53":-0.337712824344635,"54":0.01675890013575554,"55":-0.25440579652786255,"56":-0.1903361976146698,"57":-0.11724002659320831,"58":-0.39789751172065735,"59":-0.06532952189445496,"60":0.10457631945610046,"61":0.06373323500156403,"62":0.10331641137599945,"63":-0.09527029097080231,"64":-0.04790409654378891,"65":0.006492448039352894,"66":0.016051264479756355,"67":-0.025729045271873474,"68":-0.16578087210655212,"69":-0.022120676934719086,"70":-0.0928955227136612,"71":-0.10441423952579498,"72":-0.088302381336689,"73":-0.11935633420944214,"74":-0.0724739357829094,"75":0.1593773365020752,"76":-0.11725977063179016,"77":-0.01639370061457157,"78":-0.04335278272628784,"79":0.1890876293182373,"80":-0.23099347949028015,"81":-0.01716717518866062,"82":-0.07787742465734482,"83":-0.005632559768855572,"84":-0.05718149244785309,"85":-0.21601639688014984,"86":-0.15733380615711212,"87":-0.12254109978675842,"88":-0.2660280466079712,"89":0.0274182315915823,"90":0.1079554334282875,"91":0.006338816601783037,"92":-0.1984829604625702,"93":-0.04348832741379738,"94":-0.08458095788955688,"95":-0.038779426366090775,"96":0.009191291406750679,"97":-0.21243377029895782,"98":-0.03607206046581268,"99":-0.12267981469631195,"100":-0.23000764846801758,"101":-0.1115969568490982,"102":-0.22068949043750763,"103":-0.15572433173656464,"104":0.00025349800125695765,"105":-0.003980445209890604,"106":-0.010497299022972584,"107":0.1566317230463028,"108":0.05606082081794739,"109":-0.12752366065979004,"110":0.04855234548449516,"111":-0.05516697093844414,"112":0.15139581263065338,"113":0.07393688708543777,"114":0.19624900817871094,"115":-0.009723901748657227,"116":0.21751490235328674,"117":-0.038798511028289795,"118":0.12081098556518555,"119":-0.09968890249729156,"120":0.015645740553736687,"121":-0.03345474600791931,"122":-0.19059494137763977,"123":-0.11940519511699677,"124":-0.1885146200656891,"125":-0.0456773117184639,"126":0.04501054808497429,"127":0.18193447589874268,"128":-0.1745559424161911,"129":-0.17821992933750153,"130":-0.015292697586119175,"131":-0.14357952773571014,"132":-0.09165101498365402,"133":-0.15154099464416504,"134":0.018023738637566566,"135":-0.12088453769683838,"136":0.11645979434251785,"137":-0.08444257080554962,"138":-0.06260814517736435,"139":-0.03483619540929794,"140":-0.09797707200050354,"141":0.03441788628697395,"142":0.12991124391555786,"143":-0.20037837326526642}},"11":{"bias":-0.8279947638511658,"weights":{"0":0.006676855497062206,"1":-0.1656569093465805,"2":1.0459117889404297,"3":-0.7497685551643372,"4":0.1537133902311325,"5":1.8989938497543335,"6":1.4278602600097656,"7":-0.7463671565055847,"8":0.04541786015033722,"9":-0.9751802682876587,"10":-1.089722752571106,"11":-1.211166501045227,"12":-0.30850356817245483,"13":-0.40969863533973694,"14":-1.5498154163360596,"15":2.0929365158081055,"16":-0.9436589479446411,"17":-0.25911596417427063,"18":0.47296443581581116,"19":0.6078714728355408,"20":-0.27999547123908997,"21":0.8932015895843506,"22":-1.1049238443374634,"23":-1.1583114862442017,"24":-0.8006404638290405,"25":-1.3022557497024536,"26":0.2504132091999054,"27":-0.3514888882637024,"28":1.5896644592285156,"29":-1.145027995109558,"30":-0.7478306293487549,"31":-0.15901003777980804,"32":0.4512955844402313,"33":-0.38987410068511963,"34":0.17261888086795807,"35":0.6133508682250977,"36":1.1716474294662476,"37":-0.4109930694103241,"38":0.7798338532447815,"39":1.3011809587478638,"40":1.3405275344848633,"41":0.3221949338912964,"42":0.8416919112205505,"43":-0.3420245349407196,"44":0.17554600536823273,"45":-1.2003579139709473,"46":0.7223044037818909,"47":1.4687092304229736,"48":-0.3514893352985382,"49":-0.12273713201284409,"50":0.9915046691894531,"51":0.09693793952465057,"52":-1.2840126752853394,"53":-1.1034295558929443,"54":-0.7108976244926453,"55":1.1659876108169556,"56":-1.1199746131896973,"57":-0.5756786465644836,"58":-1.094496488571167,"59":-0.6007528901100159,"60":0.06321891397237778,"61":0.14194868505001068,"62":0.39711427688598633,"63":-0.06675015389919281,"64":0.3613588511943817,"65":1.453110694885254,"66":0.4382026493549347,"67":1.0418485403060913,"68":0.9456955194473267,"69":0.1594870686531067,"70":-0.7669717669487,"71":-0.180898979306221,"72":-0.8142216801643372,"73":-0.3671214282512665,"74":-0.4595786929130554,"75":-0.5362453460693359,"76":-0.3084257245063782,"77":0.2716729938983917,"78":-0.16361986100673676,"79":0.43629881739616394,"80":-0.028783245012164116,"81":-0.7620359659194946,"82":-0.49280601739883423,"83":-0.032248932868242264,"84":-0.7370739579200745,"85":-0.8019420504570007,"86":-0.43469876050949097,"87":-0.6918360590934753,"88":-0.19946809113025665,"89":-0.5104529857635498,"90":-0.7316310405731201,"91":-0.17350266873836517,"92":-0.4412837028503418,"93":-0.15426325798034668,"94":-0.4000757932662964,"95":-0.7784759402275085,"96":-0.9785934090614319,"97":-0.5544192790985107,"98":-0.5313428640365601,"99":-0.020880063995718956,"100":-0.4184654653072357,"101":-0.5533446669578552,"102":-0.5236441493034363,"103":-0.3235964775085449,"104":0.09310129284858704,"105":-0.3448878526687622,"106":-0.056176286190748215,"107":-0.27507299184799194,"108":-0.4635796546936035,"109":-0.034329790621995926,"110":-0.12054916471242905,"111":-0.08972032368183136,"112":-0.026011355221271515,"113":0.02924823760986328,"114":0.050872642546892166,"115":-0.15732954442501068,"116":-0.1842338889837265,"117":0.052087750285863876,"118":-0.2795889675617218,"119":-0.039002079516649246,"120":-0.19915947318077087,"121":-0.016972238197922707,"122":-0.034040942788124084,"123":-0.1653110831975937,"124":-0.26677557826042175,"125":-0.10207239538431168,"126":-0.09478218853473663,"127":-0.10860514640808105,"128":-0.15416721999645233,"129":-0.3203291594982147,"130":-0.23978029191493988,"131":-0.3368760943412781,"132":-0.24713970720767975,"133":-0.05766955390572548,"134":-0.13634683191776276,"135":-0.2728964388370514,"136":-0.04569442197680473,"137":-0.0778021365404129,"138":0.14762301743030548,"139":-0.09765024483203888,"140":0.04977909103035927,"141":-0.24345506727695465,"142":0.06391920894384384,"143":0.0763104185461998}},"12":{"bias":0.6000343561172485,"weights":{"0":0.4422209858894348,"1":0.7705080509185791,"2":-1.5412335395812988,"3":0.5719934701919556,"4":-1.9409493207931519,"5":-1.9063338041305542,"6":-1.0139278173446655,"7":-2.0648558139801025,"8":1.2668333053588867,"9":2.3054919242858887,"10":-2.0514919757843018,"11":-0.2232503443956375,"12":-1.1089050769805908,"13":0.30421534180641174,"14":2.3892552852630615,"15":-2.27871036529541,"16":4.038040637969971,"17":-0.282123863697052,"18":1.06174635887146,"19":-1.1111862659454346,"20":-1.7686656713485718,"21":-0.9783315062522888,"22":0.34404703974723816,"23":-2.1366233825683594,"24":0.4000554382801056,"25":-0.0029452533926814795,"26":-2.696855068206787,"27":-1.2282451391220093,"28":-0.06571391224861145,"29":0.2879161238670349,"30":2.742358684539795,"31":1.358238697052002,"32":-0.28694283962249756,"33":0.9354478716850281,"34":-0.6498070359230042,"35":-1.0018879175186157,"36":-3.0225610733032227,"37":-0.9298955202102661,"38":0.6103726029396057,"39":2.1095986366271973,"40":1.362255334854126,"41":3.2123565673828125,"42":0.21410465240478516,"43":2.370760917663574,"44":0.8188023567199707,"45":1.1625949144363403,"46":-1.3383783102035522,"47":-1.3134703636169434,"48":1.4258177280426025,"49":-1.7720369100570679,"50":-0.4689774811267853,"51":0.14231045544147491,"52":-3.4935379028320312,"53":-0.19699792563915253,"54":-0.04589605703949928,"55":0.08103170245885849,"56":1.1211023330688477,"57":0.3571404218673706,"58":0.05646813288331032,"59":0.21674782037734985,"60":0.284184992313385,"61":-1.0420664548873901,"62":-1.0920979976654053,"63":-0.8150885105133057,"64":0.8011112809181213,"65":-1.11814284324646,"66":0.19711720943450928,"67":0.027836380526423454,"68":0.7492789626121521,"69":0.3893943428993225,"70":0.145541250705719,"71":-0.962861180305481,"72":0.4134550392627716,"73":-0.8273507356643677,"74":-1.53371262550354,"75":-1.6253927946090698,"76":-0.6005926728248596,"77":-1.4273674488067627,"78":-0.5889467000961304,"79":-0.46609795093536377,"80":0.6019220352172852,"81":0.09760111570358276,"82":0.11961042135953903,"83":-0.3414533734321594,"84":0.2170427441596985,"85":0.4015643000602722,"86":0.6324141025543213,"87":1.3222169876098633,"88":0.3156614899635315,"89":0.12529677152633667,"90":0.2843046188354492,"91":-0.10979531705379486,"92":0.5363892316818237,"93":-0.3091089427471161,"94":-0.4621926248073578,"95":-0.49028828740119934,"96":0.47763851284980774,"97":0.004448749125003815,"98":-0.19569237530231476,"99":-0.7197333574295044,"100":-0.0896773710846901,"101":0.00002753273474809248,"102":-0.19441962242126465,"103":-0.40551847219467163,"104":-0.318240761756897,"105":-0.23566672205924988,"106":-0.25416862964630127,"107":-0.12157906591892242,"108":-0.3264094889163971,"109":-0.5541117787361145,"110":-0.6721775531768799,"111":0.044374607503414154,"112":-0.3016590476036072,"113":-0.32088422775268555,"114":-0.01418800838291645,"115":-0.20175322890281677,"116":-0.3084854185581207,"117":-0.3631053566932678,"118":-0.33816468715667725,"119":-0.2591293156147003,"120":-0.10402929037809372,"121":-0.20178622007369995,"122":-0.3955916166305542,"123":-0.13458672165870667,"124":-0.16161969304084778,"125":-0.2666066288948059,"126":-0.2707480788230896,"127":-0.27179932594299316,"128":-0.22144179046154022,"129":0.06547997891902924,"130":-0.15361127257347107,"131":0.011814842000603676,"132":0.06744790822267532,"133":-0.17215324938297272,"134":-0.09892546385526657,"135":-0.3205578625202179,"136":-0.07601673156023026,"137":-0.24085909128189087,"138":-0.14574016630649567,"139":0.05515752732753754,"140":0.07865958660840988,"141":-0.058186694979667664,"142":0.21897989511489868,"143":-0.004151646513491869}},"13":{"bias":-1.134952187538147,"weights":{"0":-0.6903418302536011,"1":-0.6941726803779602,"2":1.2130640745162964,"3":-0.6413536071777344,"4":-0.9107666611671448,"5":-1.012729287147522,"6":0.05000222846865654,"7":0.24990780651569366,"8":0.10491403937339783,"9":0.6112117171287537,"10":0.08403162658214569,"11":0.30232444405555725,"12":-1.5156937837600708,"13":-0.6845586895942688,"14":-1.0875829458236694,"15":-0.7206428050994873,"16":-0.09861595928668976,"17":-0.9948187470436096,"18":-1.1061012744903564,"19":-2.2852108478546143,"20":-1.5830092430114746,"21":0.7317686676979065,"22":3.517313241958618,"23":0.0940309390425682,"24":2.0479543209075928,"25":0.6671227812767029,"26":1.3851240873336792,"27":-0.2943713963031769,"28":1.0174846649169922,"29":0.5878841876983643,"30":1.4610404968261719,"31":0.20472708344459534,"32":0.6999579668045044,"33":1.4975574016571045,"34":-2.3828608989715576,"35":-0.4235535264015198,"36":3.352809429168701,"37":1.845460057258606,"38":0.7797176241874695,"39":-1.938410758972168,"40":-2.238640785217285,"41":-2.5464866161346436,"42":0.2402099370956421,"43":-2.292834758758545,"44":-1.0427348613739014,"45":0.6219919323921204,"46":0.9914191961288452,"47":1.786457896232605,"48":-0.34257376194000244,"49":-0.38060593605041504,"50":-1.6225154399871826,"51":0.04969216510653496,"52":2.7212278842926025,"53":1.9932270050048828,"54":0.9219218492507935,"55":-1.0270723104476929,"56":-1.4450887441635132,"57":-0.8834788799285889,"58":-1.5978156328201294,"59":-0.3653348386287689,"60":-0.5200571417808533,"61":0.2988397181034088,"62":0.402555376291275,"63":-0.6486040949821472,"64":-1.1245462894439697,"65":0.4003477990627289,"66":-0.357418954372406,"67":0.5273628234863281,"68":0.010243868455290794,"69":-0.5826929807662964,"70":-1.0850543975830078,"71":-1.1422053575515747,"72":-0.7122979164123535,"73":-0.6248242855072021,"74":-0.0632333755493164,"75":-0.2062615156173706,"76":-0.6524463295936584,"77":-0.2087547928094864,"78":-0.11947616934776306,"79":0.5889875888824463,"80":0.27084770798683167,"81":0.2132015824317932,"82":0.10688527673482895,"83":0.3599205017089844,"84":-0.1699150800704956,"85":-0.14278295636177063,"86":-0.07709851115942001,"87":-0.1185590848326683,"88":0.11110719293355942,"89":0.0460389070212841,"90":-0.5221966505050659,"91":-0.3873034417629242,"92":-0.2201133668422699,"93":0.16763705015182495,"94":-0.22681167721748352,"95":-0.4094243347644806,"96":-0.6915992498397827,"97":-0.4813423454761505,"98":-0.4677172303199768,"99":-0.23137323558330536,"100":-0.2090837061405182,"101":-0.5386874675750732,"102":-0.19332930445671082,"103":-0.017687013372778893,"104":-0.01661347784101963,"105":-0.45554137229919434,"106":-0.28501540422439575,"107":-0.056758299469947815,"108":-0.17510990798473358,"109":-0.23082302510738373,"110":-0.12664811313152313,"111":-0.12267635762691498,"112":0.013113952241837978,"113":-0.19775474071502686,"114":-0.013634308241307735,"115":-0.2614901661872864,"116":-0.12858350574970245,"117":-0.1693907231092453,"118":-0.24392428994178772,"119":0.036229655146598816,"120":-0.10033147782087326,"121":-0.06900984048843384,"122":0.15226195752620697,"123":0.05346011370420456,"124":-0.1104598343372345,"125":0.15139184892177582,"126":-0.14443644881248474,"127":0.05276932567358017,"128":0.06671667098999023,"129":-0.21402472257614136,"130":-0.20108148455619812,"131":0.027117587625980377,"132":-0.00602939585223794,"133":-0.11985621601343155,"134":-0.28370049595832825,"135":-0.17450092732906342,"136":-0.18089145421981812,"137":0.22173278033733368,"138":-0.012188267894089222,"139":-0.22943930327892303,"140":-0.15015816688537598,"141":0.05809609219431877,"142":-0.09197578579187393,"143":0.17824792861938477}},"14":{"bias":0.5171982049942017,"weights":{"0":-0.015493949875235558,"1":-0.38448628783226013,"2":-0.3284018337726593,"3":-0.22884395718574524,"4":-0.18498104810714722,"5":0.5044503808021545,"6":1.2347066402435303,"7":1.0927786827087402,"8":-0.22971811890602112,"9":-0.2764917314052582,"10":-0.9434993267059326,"11":-0.2400026023387909,"12":0.6144293546676636,"13":-1.0718985795974731,"14":0.7761871218681335,"15":0.9036164283752441,"16":0.9067124128341675,"17":-0.6770120859146118,"18":0.02059784159064293,"19":0.31670042872428894,"20":-1.1270405054092407,"21":-0.8648690581321716,"22":0.49437564611434937,"23":-0.9417770504951477,"24":-0.6811659336090088,"25":1.0088661909103394,"26":-1.1470768451690674,"27":0.07680195569992065,"28":-0.44460609555244446,"29":-0.2481498420238495,"30":0.8746529221534729,"31":0.22907795011997223,"32":-0.4237990975379944,"33":0.11173076182603836,"34":-0.13624906539916992,"35":-0.8101782202720642,"36":0.01604684814810753,"37":-0.21296556293964386,"38":-0.603895366191864,"39":-0.05981290712952614,"40":-0.054209593683481216,"41":0.15947207808494568,"42":-0.9352084398269653,"43":-0.569999635219574,"44":-0.4087706208229065,"45":0.35447797179222107,"46":0.6187084913253784,"47":-0.7498639225959778,"48":-1.2862513065338135,"49":-0.2898108661174774,"50":-1.1369034051895142,"51":-0.8216958045959473,"52":-1.209467887878418,"53":-0.9508457183837891,"54":-1.0315512418746948,"55":-0.41522324085235596,"56":-0.5982537269592285,"57":-0.5471416115760803,"58":-0.6216678023338318,"59":-0.2575341761112213,"60":-0.49686846137046814,"61":-0.9063654541969299,"62":-0.17460142076015472,"63":-0.287861704826355,"64":-0.1910369098186493,"65":-0.0034157116897404194,"66":-0.1942359060049057,"67":-0.147588849067688,"68":-0.31303444504737854,"69":-0.27899086475372314,"70":-0.022090865299105644,"71":-0.19266974925994873,"72":-0.029926929622888565,"73":0.02118322253227234,"74":0.03953862935304642,"75":0.042030882090330124,"76":-0.3048242926597595,"77":0.11858914792537689,"78":0.21981331706047058,"79":-0.3445613384246826,"80":0.02922026254236698,"81":-0.06573446840047836,"82":-0.43140217661857605,"83":-0.36773693561553955,"84":0.01262980792671442,"85":-0.06445271521806717,"86":0.0021384861320257187,"87":-0.11385754495859146,"88":-0.009484058246016502,"89":-0.16515451669692993,"90":0.16039836406707764,"91":0.3299512565135956,"92":0.251124769449234,"93":-0.15347327291965485,"94":-0.2227230966091156,"95":0.17983455955982208,"96":-0.00700661726295948,"97":0.41076555848121643,"98":0.05294732749462128,"99":-0.2269061654806137,"100":-0.007632422726601362,"101":0.32925358414649963,"102":0.0683116465806961,"103":-0.12323414534330368,"104":-0.16474397480487823,"105":-0.02220211923122406,"106":-0.22901953756809235,"107":-0.05318014696240425,"108":0.2704520523548126,"109":0.045618847012519836,"110":0.04160809516906738,"111":-0.19896623492240906,"112":0.21912454068660736,"113":-0.10392756760120392,"114":-0.19751684367656708,"115":-0.16215510666370392,"116":-0.12354834377765656,"117":-0.042621735483407974,"118":-0.1687397062778473,"119":0.020813962444663048,"120":-0.15356437861919403,"121":-0.24218958616256714,"122":0.00012820353731513023,"123":-0.23358750343322754,"124":-0.2586303949356079,"125":-0.19051367044448853,"126":-0.22957773506641388,"127":-0.1397785246372223,"128":-0.10838833451271057,"129":-0.1208798959851265,"130":-0.1980399340391159,"131":0.0018421448767185211,"132":-0.13159842789173126,"133":0.128105029463768,"134":0.1569216400384903,"135":0.03991510346531868,"136":-0.16184993088245392,"137":-0.11752332001924515,"138":0.14790695905685425,"139":0.004844143986701965,"140":0.004646414425224066,"141":0.11955294013023376,"142":0.05361858010292053,"143":0.14344139397144318}},"15":{"bias":0.43438348174095154,"weights":{"0":-0.07405711710453033,"1":-0.32635119557380676,"2":0.0013573652831837535,"3":-2.3674588203430176,"4":-2.069831609725952,"5":1.844905138015747,"6":2.787473201751709,"7":0.15332305431365967,"8":0.002036419929936528,"9":0.4876994788646698,"10":-0.7247589826583862,"11":0.032675571739673615,"12":0.8902618885040283,"13":-2.259624481201172,"14":0.4658038318157196,"15":2.6442501544952393,"16":2.1918632984161377,"17":-0.8262214660644531,"18":-1.1733965873718262,"19":0.8413194417953491,"20":-1.3659038543701172,"21":-0.5021327137947083,"22":1.2763725519180298,"23":-2.257486343383789,"24":-0.026096737012267113,"25":3.2013096809387207,"26":-1.1673444509506226,"27":0.3328869044780731,"28":-0.30034610629081726,"29":-1.1450555324554443,"30":0.6880170702934265,"31":0.9803079962730408,"32":-2.401963472366333,"33":-0.8008666038513184,"34":-2.002739429473877,"35":-1.6450453996658325,"36":-0.29071176052093506,"37":0.817274808883667,"38":-0.05791297182440758,"39":-0.47995463013648987,"40":1.6758533716201782,"41":0.20342962443828583,"42":-2.3614091873168945,"43":-1.3614654541015625,"44":-1.3754091262817383,"45":-0.4879022538661957,"46":0.2815525233745575,"47":-0.7023112177848816,"48":-1.730330228805542,"49":-0.6571410894393921,"50":-0.8792206048965454,"51":-0.9681688547134399,"52":-1.2458406686782837,"53":-1.1732532978057861,"54":-0.818778932094574,"55":-1.0502028465270996,"56":-1.1760156154632568,"57":-0.4378264546394348,"58":-0.37422874569892883,"59":-0.045566391199827194,"60":-0.42571109533309937,"61":-0.6334075927734375,"62":-0.4905047118663788,"63":-0.534321665763855,"64":-0.3289777338504791,"65":-0.5000209212303162,"66":-0.3161483407020569,"67":-0.1859842836856842,"68":-0.21092069149017334,"69":-0.289206862449646,"70":-0.20622602105140686,"71":-0.37416908144950867,"72":-0.13480821251869202,"73":-0.0952870175242424,"74":-0.120377317070961,"75":0.08855656534433365,"76":-0.261344313621521,"77":0.0059581962414085865,"78":0.04081175848841667,"79":-0.04316600039601326,"80":-0.28876495361328125,"81":0.004638626705855131,"82":-0.2891291379928589,"83":-0.2664962410926819,"84":-0.33199506998062134,"85":-0.32707688212394714,"86":-0.2742610573768616,"87":-0.11640021950006485,"88":0.04465477913618088,"89":-0.15662238001823425,"90":-0.08627466857433319,"91":0.029817720875144005,"92":0.024374661967158318,"93":-0.1605137437582016,"94":-0.07222316414117813,"95":-0.09800487011671066,"96":0.11485467106103897,"97":0.16497239470481873,"98":-0.13546288013458252,"99":-0.17856022715568542,"100":-0.05615370720624924,"101":-0.12120392173528671,"102":-0.03706366568803787,"103":-0.19797199964523315,"104":-0.07852612435817719,"105":-0.053725045174360275,"106":-0.020867347717285156,"107":0.018041526898741722,"108":0.1642799973487854,"109":0.025605741888284683,"110":0.05159555375576019,"111":-0.008365660905838013,"112":0.11201939731836319,"113":0.24430538713932037,"114":0.07610484212636948,"115":0.14487086236476898,"116":0.16227580606937408,"117":-0.10525021702051163,"118":-0.07565748691558838,"119":-0.12164121121168137,"120":0.08727487176656723,"121":0.04305434599518776,"122":-0.11654509603977203,"123":-0.13333576917648315,"124":-0.2403983771800995,"125":-0.17171435058116913,"126":-0.19358675181865692,"127":-0.15857402980327606,"128":-0.16451986134052277,"129":0.07205849140882492,"130":-0.24769558012485504,"131":0.051647186279296875,"132":-0.2763514220714569,"133":0.16099272668361664,"134":0.14969250559806824,"135":-0.008508850820362568,"136":0.026903750374913216,"137":-0.15968091785907745,"138":0.20176737010478973,"139":-0.027901392430067062,"140":-0.10392693430185318,"141":-0.19410884380340576,"142":0.08242996037006378,"143":0.0591016560792923}},"16":{"bias":-1.0560117959976196,"weights":{"0":-0.1395293027162552,"1":-0.4951223134994507,"2":-0.17976142466068268,"3":-0.8603847026824951,"4":-0.12168557196855545,"5":0.256095290184021,"6":0.4164349138736725,"7":-0.7178478240966797,"8":1.643757939338684,"9":0.24382330477237701,"10":-0.40246471762657166,"11":-0.5707247257232666,"12":-0.9380272626876831,"13":-0.32282555103302,"14":-0.8951206803321838,"15":0.6782293319702148,"16":-0.8688862919807434,"17":-0.37959709763526917,"18":0.16287106275558472,"19":-0.39023077487945557,"20":-0.1820332258939743,"21":0.712848424911499,"22":1.5561965703964233,"23":-0.8685601353645325,"24":-0.19660711288452148,"25":0.6612513065338135,"26":1.2552413940429688,"27":0.3289291262626648,"28":1.995713472366333,"29":-0.43109726905822754,"30":0.3270229697227478,"31":-0.6156702637672424,"32":-0.6418105363845825,"33":0.8129700422286987,"34":0.34398409724235535,"35":0.29553428292274475,"36":1.6571073532104492,"37":0.3642568290233612,"38":0.5194569230079651,"39":0.041882507503032684,"40":0.4783690273761749,"41":-1.3301985263824463,"42":0.7515645027160645,"43":-1.4114950895309448,"44":0.29291045665740967,"45":-0.5601563453674316,"46":0.9038574695587158,"47":1.0692138671875,"48":-1.0313183069229126,"49":-0.15429067611694336,"50":-0.08259712904691696,"51":0.01321120373904705,"52":0.7751762866973877,"53":0.16183003783226013,"54":-0.013552442193031311,"55":-0.3921971619129181,"56":-0.8446887731552124,"57":0.15383979678153992,"58":-0.3552321791648865,"59":0.20272332429885864,"60":-0.7387470006942749,"61":0.19863134622573853,"62":0.12255359441041946,"63":-1.2013025283813477,"64":-1.158166766166687,"65":-0.09226751327514648,"66":-0.8392540216445923,"67":-0.25149136781692505,"68":-0.43194904923439026,"69":-0.5517599582672119,"70":-0.564895749092102,"71":-0.6445369720458984,"72":-1.0318520069122314,"73":-0.4839034378528595,"74":-0.2694123387336731,"75":-0.6948853731155396,"76":-0.5601559281349182,"77":-0.3507450222969055,"78":-0.42867031693458557,"79":-0.18630237877368927,"80":-0.30413979291915894,"81":-0.4007692337036133,"82":-0.4254074990749359,"83":-0.015640640631318092,"84":-0.49120697379112244,"85":-0.2844286561012268,"86":-0.3365998864173889,"87":-0.15334905683994293,"88":0.024219872429966927,"89":-0.22062841057777405,"90":-0.3078784644603729,"91":-0.3002415895462036,"92":-0.27553433179855347,"93":-0.057574111968278885,"94":-0.0032920048106461763,"95":-0.19736893475055695,"96":-0.5459998846054077,"97":-0.5267441868782043,"98":-0.10707047581672668,"99":0.01851462386548519,"100":-0.3469536602497101,"101":-0.3885093331336975,"102":-0.17702963948249817,"103":-0.07604018598794937,"104":-0.24662375450134277,"105":-0.3651500940322876,"106":-0.08916725963354111,"107":-0.33598676323890686,"108":-0.06035667285323143,"109":0.02292497083544731,"110":0.07324641197919846,"111":0.05989124998450279,"112":-0.19977188110351562,"113":0.028023917227983475,"114":-0.04142118617892265,"115":-0.09812706708908081,"116":0.1715143322944641,"117":-0.09122995287179947,"118":-0.22979553043842316,"119":-0.07810357958078384,"120":-0.000983330188319087,"121":-0.15464656054973602,"122":-0.18932417035102844,"123":0.04945073276758194,"124":0.05653862655162811,"125":0.02078898996114731,"126":0.04900380223989487,"127":-0.02112591452896595,"128":-0.008490758016705513,"129":-0.29121991991996765,"130":-0.21295076608657837,"131":-0.07741167396306992,"132":-0.05375328287482262,"133":-0.08735299110412598,"134":-0.256366491317749,"135":-0.30999964475631714,"136":-0.05476479232311249,"137":0.1010856106877327,"138":0.16966299712657928,"139":0.07244758307933807,"140":0.06541679799556732,"141":-0.09246727079153061,"142":-0.08940979093313217,"143":0.17819222807884216}},"17":{"bias":-1.5947109460830688,"weights":{"0":0.8643595576286316,"1":-0.32363513112068176,"2":3.5106136798858643,"3":4.236807823181152,"4":-4.007325649261475,"5":-0.3998923897743225,"6":0.27618053555488586,"7":0.9438555836677551,"8":0.35841819643974304,"9":1.951430320739746,"10":-0.9639707207679749,"11":-3.8753483295440674,"12":-1.0032662153244019,"13":3.478066921234131,"14":0.8722663521766663,"15":-0.660298764705658,"16":2.6140034198760986,"17":-1.2384729385375977,"18":-0.2061602622270584,"19":-3.681380271911621,"20":-1.6793365478515625,"21":1.2352325916290283,"22":0.432778537273407,"23":2.2366855144500732,"24":0.37360531091690063,"25":-2.873028516769409,"26":-2.1319425106048584,"27":2.7175099849700928,"28":-7.72149658203125,"29":-2.1412925720214844,"30":0.7068893313407898,"31":-0.5558590888977051,"32":0.5371690988540649,"33":-2.218475818634033,"34":-1.8008358478546143,"35":-0.9415233731269836,"36":-0.1809224635362625,"37":0.28905028104782104,"38":2.8775241374969482,"39":-2.373598098754883,"40":-1.748852014541626,"41":0.9327310919761658,"42":2.1001393795013428,"43":3.5520970821380615,"44":-0.02435230277478695,"45":-1.7919813394546509,"46":-1.9537335634231567,"47":-5.870797157287598,"48":-2.033580780029297,"49":1.8146365880966187,"50":3.268972396850586,"51":-1.3016796112060547,"52":0.6864950060844421,"53":-3.0379250049591064,"54":0.1161724328994751,"55":0.9940856099128723,"56":1.7615886926651,"57":0.7709804773330688,"58":1.7114598751068115,"59":0.3320537507534027,"60":2.359713077545166,"61":1.0863208770751953,"62":0.8065470457077026,"63":-3.117868185043335,"64":4.2027716636657715,"65":-1.4840010404586792,"66":-0.40315109491348267,"67":0.7616772651672363,"68":1.7236239910125732,"69":0.5093439817428589,"70":1.0720324516296387,"71":-0.0852617546916008,"72":-0.8323764204978943,"73":0.37886494398117065,"74":1.159067153930664,"75":3.3102550506591797,"76":0.12331541627645493,"77":0.8340098857879639,"78":0.5619208812713623,"79":2.217681646347046,"80":0.22374410927295685,"81":-1.7659807205200195,"82":-1.155214548110962,"83":2.044790744781494,"84":-0.7994060516357422,"85":-0.3709934651851654,"86":-0.7074518799781799,"87":-2.1198408603668213,"88":2.1456058025360107,"89":-0.6552685499191284,"90":-0.16237984597682953,"91":-0.09994981437921524,"92":-1.1192920207977295,"93":3.616356134414673,"94":2.394587993621826,"95":1.3540228605270386,"96":-2.497798442840576,"97":-0.8284993767738342,"98":-0.12885263562202454,"99":2.084772825241089,"100":0.9274821877479553,"101":0.06269583106040955,"102":-0.7605368494987488,"103":0.1977095901966095,"104":2.3139889240264893,"105":-1.052242636680603,"106":0.8846184015274048,"107":-0.20132772624492645,"108":-1.792357325553894,"109":-0.06373880803585052,"110":0.3706309497356415,"111":0.6657891273498535,"112":1.461715579032898,"113":0.9305673241615295,"114":1.0397093296051025,"115":-2.0287277698516846,"116":-0.09981928765773773,"117":-0.8768113851547241,"118":-1.260589599609375,"119":-0.39492225646972656,"120":-0.714931845664978,"121":-0.25168469548225403,"122":-0.6483489274978638,"123":-2.192415237426758,"124":-1.56562340259552,"125":-0.287521094083786,"126":-0.846842348575592,"127":0.0847959890961647,"128":0.23033487796783447,"129":-0.4383470416069031,"130":-1.0630077123641968,"131":-1.9572721719741821,"132":-1.6485109329223633,"133":-1.4197118282318115,"134":-1.009950041770935,"135":-1.2647643089294434,"136":-0.2022305727005005,"137":-0.06546057760715485,"138":0.7241776585578918,"139":-0.3608458638191223,"140":-0.2453428953886032,"141":-0.3979770839214325,"142":-0.5686746835708618,"143":0.13571059703826904}},"18":{"bias":-1.3742610216140747,"weights":{"0":-1.3072099685668945,"1":-0.3324228525161743,"2":-0.36268460750579834,"3":-0.9236932396888733,"4":-1.5705058574676514,"5":0.9966987371444702,"6":1.2092074155807495,"7":-0.16803939640522003,"8":-1.8207484483718872,"9":0.870468020439148,"10":0.026091741397976875,"11":2.0235755443573,"12":1.7994030714035034,"13":-0.7286891937255859,"14":-1.0996521711349487,"15":-1.8520101308822632,"16":-3.286527395248413,"17":0.5507721304893494,"18":0.9156239628791809,"19":-0.9034076929092407,"20":-0.5666313171386719,"21":-0.9570860266685486,"22":-0.482645183801651,"23":0.36093249917030334,"24":-1.9354568719863892,"25":0.36842358112335205,"26":-0.786174476146698,"27":1.1464534997940063,"28":-0.7523453235626221,"29":-2.451525926589966,"30":-2.036231517791748,"31":1.376905083656311,"32":2.6607377529144287,"33":2.679111957550049,"34":1.8027549982070923,"35":-0.5013127326965332,"36":-0.5238626003265381,"37":0.7919110059738159,"38":0.14165812730789185,"39":-0.08112946897745132,"40":2.14681077003479,"41":3.5423011779785156,"42":0.525570273399353,"43":-0.9138068556785583,"44":1.3000272512435913,"45":-0.890380322933197,"46":0.22673873603343964,"47":-1.1881085634231567,"48":2.5236120223999023,"49":0.14361637830734253,"50":-0.3527519404888153,"51":-0.7457783222198486,"52":0.7450377345085144,"53":0.12337947636842728,"54":0.795710563659668,"55":-0.7753409147262573,"56":-0.773344874382019,"57":1.577258825302124,"58":-0.3179070055484772,"59":-1.8209428787231445,"60":-0.8606671094894409,"61":-0.3633175790309906,"62":0.771632194519043,"63":2.5134072303771973,"64":-1.8949463367462158,"65":-2.6827831268310547,"66":1.2780400514602661,"67":0.7396568655967712,"68":-1.8121594190597534,"69":-2.116222858428955,"70":-0.26673293113708496,"71":-0.7303691506385803,"72":-1.7313429117202759,"73":-0.19242750108242035,"74":0.1628272831439972,"75":0.48697972297668457,"76":-1.5324440002441406,"77":-0.09960288554430008,"78":-0.4915657341480255,"79":-0.06696565449237823,"80":-0.11534442752599716,"81":-0.7562153935432434,"82":1.9129457473754883,"83":-0.24752943217754364,"84":0.048543721437454224,"85":1.9876372814178467,"86":0.3564227223396301,"87":0.7821448445320129,"88":-0.20958490669727325,"89":0.6892485618591309,"90":0.09800133109092712,"91":0.7459216117858887,"92":1.109898567199707,"93":0.5258929133415222,"94":-0.40796318650245667,"95":-0.4204075038433075,"96":0.2811712324619293,"97":-0.4480511248111725,"98":-0.6173433065414429,"99":0.4217049479484558,"100":0.08044490218162537,"101":0.11364693939685822,"102":-1.0920110940933228,"103":0.3025432527065277,"104":0.8493276834487915,"105":-0.6709067225456238,"106":0.7315318584442139,"107":0.5043723583221436,"108":-0.7222917079925537,"109":0.7681337594985962,"110":0.5697057843208313,"111":-0.16128653287887573,"112":-0.09596173465251923,"113":0.4729457497596741,"114":0.8937720060348511,"115":-0.21743912994861603,"116":0.36641815304756165,"117":0.6973113417625427,"118":-0.08514109253883362,"119":0.21800537407398224,"120":0.2843940854072571,"121":0.3220551013946533,"122":0.21438977122306824,"123":-0.4319453537464142,"124":0.3661454916000366,"125":0.6791142225265503,"126":0.2763104736804962,"127":1.4691046476364136,"128":1.944393515586853,"129":0.38604816794395447,"130":0.6932983994483948,"131":0.13972802460193634,"132":0.5760223865509033,"133":0.7440755367279053,"134":0.4902358055114746,"135":0.238718643784523,"136":0.35367438197135925,"137":0.3912506401538849,"138":0.792591392993927,"139":-0.07457071542739868,"140":-0.032555293291807175,"141":-0.4232073128223419,"142":-0.46202778816223145,"143":-0.21933116018772125}},"19":{"bias":0.1298665702342987,"weights":{"0":0.25325632095336914,"1":0.3693351745605469,"2":-0.2650870084762573,"3":-0.22688205540180206,"4":0.45213428139686584,"5":-0.9678189754486084,"6":-1.1399520635604858,"7":-0.34443849325180054,"8":-0.09859256446361542,"9":-0.5993725061416626,"10":0.3024676442146301,"11":0.53001868724823,"12":-0.9928101301193237,"13":0.22143428027629852,"14":0.04986940324306488,"15":-0.4596485197544098,"16":0.03628489747643471,"17":-0.3717254400253296,"18":-0.24233609437942505,"19":-0.03410010784864426,"20":0.46426188945770264,"21":-0.7215810418128967,"22":0.29231196641921997,"23":-0.19282770156860352,"24":0.09220711141824722,"25":-0.18085868656635284,"26":0.42705783247947693,"27":0.6013346910476685,"28":-0.8950791358947754,"29":-0.5123679637908936,"30":-0.35220861434936523,"31":0.04538826644420624,"32":-0.17015624046325684,"33":0.09533905237913132,"34":-0.6217668652534485,"35":-0.2195107638835907,"36":-1.1582831144332886,"37":0.2430625855922699,"38":0.43634217977523804,"39":0.13596570491790771,"40":-0.3755873143672943,"41":0.5557866096496582,"42":-0.05238534137606621,"43":0.2606414556503296,"44":0.29130372405052185,"45":0.24113593995571136,"46":-0.49638158082962036,"47":-0.30835625529289246,"48":0.8487917184829712,"49":-0.4818432629108429,"50":0.35251492261886597,"51":-0.09632707387208939,"52":0.08976983278989792,"53":0.6039107441902161,"54":-0.2585926949977875,"55":-0.15138640999794006,"56":0.33045998215675354,"57":0.6734923720359802,"58":0.5482730269432068,"59":0.42290884256362915,"60":-0.023527581244707108,"61":-0.06489173322916031,"62":-0.11976705491542816,"63":0.16008679568767548,"64":0.23390191793441772,"65":-0.2008860856294632,"66":0.391000896692276,"67":-0.32544803619384766,"68":-0.1437213122844696,"69":-0.539993166923523,"70":0.13384562730789185,"71":-0.258121520280838,"72":0.3072108030319214,"73":-0.40486064553260803,"74":-0.4213048219680786,"75":-0.74977707862854,"76":-0.28969717025756836,"77":-0.8136172890663147,"78":-0.3724249303340912,"79":-0.3212498724460602,"80":-0.23772794008255005,"81":-0.12009581923484802,"82":-0.46288326382637024,"83":-0.23143327236175537,"84":-0.025189146399497986,"85":0.04686836898326874,"86":0.08023016899824142,"87":0.23944781720638275,"88":0.14179754257202148,"89":-0.07348218560218811,"90":-0.045851029455661774,"91":-0.5345546007156372,"92":-0.23120485246181488,"93":-0.07680745422840118,"94":-0.20102714002132416,"95":-0.13692821562290192,"96":-0.05640409141778946,"97":-0.08706130087375641,"98":-0.3134634792804718,"99":-0.22246301174163818,"100":0.20639801025390625,"101":-0.3330304026603699,"102":-0.10256761312484741,"103":-0.18572860956192017,"104":-0.19831465184688568,"105":-0.043056122958660126,"106":-0.19658294320106506,"107":-0.23139861226081848,"108":-0.13998855650424957,"109":-0.04638559743762016,"110":-0.14289894700050354,"111":0.1187453642487526,"112":-0.16179251670837402,"113":-0.30898043513298035,"114":-0.3008989691734314,"115":-0.07581983506679535,"116":-0.17473115026950836,"117":-0.22537899017333984,"118":0.12267862260341644,"119":-0.15984928607940674,"120":0.03179869055747986,"121":-0.23139509558677673,"122":-0.03471200913190842,"123":0.007292421068996191,"124":0.16780957579612732,"125":-0.07897567749023438,"126":0.04320995882153511,"127":0.06314382702112198,"128":-0.23337270319461823,"129":0.060739561915397644,"130":-0.14678986370563507,"131":-0.14556851983070374,"132":0.027173014357686043,"133":-0.20394589006900787,"134":-0.1734851747751236,"135":-0.22445356845855713,"136":0.07854317873716354,"137":0.062363263219594955,"138":-0.12356717884540558,"139":0.012982307001948357,"140":-0.09948676079511642,"141":-0.16684691607952118,"142":-0.09346830099821091,"143":-0.18651340901851654}},"20":{"bias":-0.32976794242858887,"weights":{"0":-0.14872924983501434,"1":-0.01890799030661583,"2":0.022867120802402496,"3":0.3553391695022583,"4":-0.13364343345165253,"5":-0.04752787947654724,"6":0.058088552206754684,"7":-0.6962901949882507,"8":0.2474304586648941,"9":0.1958736777305603,"10":-0.028174331411719322,"11":0.040970709174871445,"12":-0.3475715219974518,"13":0.15344497561454773,"14":-0.03627721592783928,"15":-0.6965876221656799,"16":-0.12451227009296417,"17":0.04625874012708664,"18":-0.3103336691856384,"19":-0.46250811219215393,"20":-0.6166543960571289,"21":0.07527690380811691,"22":-0.12986205518245697,"23":-0.01840956136584282,"24":-0.17900726199150085,"25":-0.3955506980419159,"26":-0.1866464465856552,"27":-0.29471319913864136,"28":-0.14636042714118958,"29":0.5248264074325562,"30":-0.01306536141782999,"31":-0.7364628314971924,"32":0.06537328660488129,"33":-0.2887819707393646,"34":-0.4991946816444397,"35":-0.040867988020181656,"36":0.32472023367881775,"37":0.12376811355352402,"38":-0.08556418120861053,"39":-0.4088415503501892,"40":-0.37324395775794983,"41":-0.2747200131416321,"42":-0.08972214162349701,"43":-0.3287971317768097,"44":-0.0792042464017868,"45":-0.34976476430892944,"46":-0.31989675760269165,"47":0.0010236381785944104,"48":-0.2352866381406784,"49":-0.06439261138439178,"50":0.06709257513284683,"51":-0.1866404116153717,"52":-0.11500521004199982,"53":-0.2097216546535492,"54":-0.12911920249462128,"55":-0.13530847430229187,"56":-0.3324827551841736,"57":-0.2475774586200714,"58":-0.34158408641815186,"59":-0.10009804368019104,"60":-0.17115189135074615,"61":0.013360071927309036,"62":0.028734859079122543,"63":-0.2583058476448059,"64":-0.3200134336948395,"65":0.041330043226480484,"66":0.11828727275133133,"67":0.053364455699920654,"68":0.023724589496850967,"69":0.09260304272174835,"70":-0.06087794899940491,"71":-0.27213746309280396,"72":-0.12934397161006927,"73":-0.2781544029712677,"74":-0.23166166245937347,"75":-0.27353280782699585,"76":0.05119885504245758,"77":-0.18758851289749146,"78":-0.4033798575401306,"79":0.14036647975444794,"80":-0.2513558864593506,"81":-0.1481998711824417,"82":-0.19331395626068115,"83":0.252475768327713,"84":-0.11195187270641327,"85":-0.09418117254972458,"86":-0.20623290538787842,"87":-0.1773785948753357,"88":0.17045548558235168,"89":-0.18984220921993256,"90":-0.0948321670293808,"91":-0.12415479868650436,"92":-0.23745667934417725,"93":0.07064799964427948,"94":-0.041290901601314545,"95":-0.12937422096729279,"96":0.008672211319208145,"97":-0.3152506649494171,"98":-0.3039040267467499,"99":0.17216363549232483,"100":-0.06290413439273834,"101":-0.2048010230064392,"102":0.06612654775381088,"103":-0.18331243097782135,"104":0.053846076130867004,"105":-0.04445084556937218,"106":-0.11859332025051117,"107":-0.19655302166938782,"108":-0.10695618391036987,"109":0.09960778802633286,"110":0.0661308541893959,"111":-0.07559891790151596,"112":0.09198206663131714,"113":-0.2293129414319992,"114":-0.10713045299053192,"115":-0.2690669596195221,"116":-0.07414175570011139,"117":-0.04531288519501686,"118":0.1189052164554596,"119":0.10795139521360397,"120":-0.1557599902153015,"121":0.07829928398132324,"122":-0.09512065351009369,"123":-0.2175728976726532,"124":0.15180258452892303,"125":0.05189948156476021,"126":-0.10009009391069412,"127":0.21723853051662445,"128":0.013864196836948395,"129":0.16820716857910156,"130":-0.07720858603715897,"131":-0.06379032135009766,"132":-0.12800870835781097,"133":-0.07641234248876572,"134":-0.1931985765695572,"135":0.0011136740213260055,"136":-0.0358438678085804,"137":0.1902719885110855,"138":0.08143896609544754,"139":-0.21455878019332886,"140":-0.12761656939983368,"141":-0.0019068580586463213,"142":-0.11943061649799347,"143":0.06270021200180054}},"21":{"bias":-0.45823556184768677,"weights":{"0":0.07743354886770248,"1":-0.01619189977645874,"2":0.10589296370744705,"3":0.3624180257320404,"4":0.19266802072525024,"5":-0.0664961040019989,"6":-0.1186305582523346,"7":-0.7605529427528381,"8":0.8111792206764221,"9":0.39836493134498596,"10":-0.14970344305038452,"11":-0.4301983416080475,"12":-0.4694431722164154,"13":0.4854482114315033,"14":-0.32957950234413147,"15":-0.5180049538612366,"16":-0.11642692238092422,"17":0.0500824972987175,"18":-0.38414648175239563,"19":-0.5241283774375916,"20":-0.0025768843479454517,"21":0.16044840216636658,"22":0.1328543871641159,"23":0.03401539847254753,"24":-0.23326613008975983,"25":-0.30649062991142273,"26":0.10381841659545898,"27":-0.0877564325928688,"28":0.21199187636375427,"29":0.2075532078742981,"30":-0.1864527016878128,"31":-0.9999409317970276,"32":-0.4503815174102783,"33":-0.08734702318906784,"34":-0.4091365933418274,"35":0.23260243237018585,"36":0.2593871057033539,"37":-0.0032771271653473377,"38":0.01867442950606346,"39":-0.6142559051513672,"40":-0.3714713156223297,"41":-0.5568329691886902,"42":-0.2067738026380539,"43":-0.4950582981109619,"44":-0.26466625928878784,"45":-0.2249467521905899,"46":-0.005165522918105125,"47":-0.030363386496901512,"48":-0.4501897692680359,"49":-0.3248295187950134,"50":-0.10080505907535553,"51":-0.15054887533187866,"52":0.3277413845062256,"53":0.2353917509317398,"54":0.09002410620450974,"55":-0.27974972128868103,"56":-0.5571009516716003,"57":-0.4917726218700409,"58":-0.30255910754203796,"59":-0.12721578776836395,"60":-0.2117558717727661,"61":-0.10953904688358307,"62":-0.04082772880792618,"63":-0.26567399501800537,"64":-0.28593793511390686,"65":0.01344822347164154,"66":-0.19272606074810028,"67":-0.27264204621315,"68":-0.03244459629058838,"69":-0.1149381473660469,"70":-0.2832801640033722,"71":-0.39249393343925476,"72":-0.43248093128204346,"73":-0.0677494928240776,"74":-0.20512869954109192,"75":-0.10761556774377823,"76":-0.1773224025964737,"77":-0.3025458753108978,"78":-0.1864188313484192,"79":0.2002943456172943,"80":-0.08766063302755356,"81":-0.21501924097537994,"82":0.11443676054477692,"83":-0.032907888293266296,"84":-0.05737750977277756,"85":0.016819844022393227,"86":-0.09400878846645355,"87":0.08289574831724167,"88":-0.14267413318157196,"89":-0.11258083581924438,"90":-0.22585713863372803,"91":-0.26870954036712646,"92":-0.22842183709144592,"93":0.05125489830970764,"94":-0.08738390356302261,"95":-0.009289809502661228,"96":-0.345704048871994,"97":-0.051760632544755936,"98":-0.32299119234085083,"99":-0.16905491054058075,"100":-0.10073832422494888,"101":-0.3238127529621124,"102":0.036373354494571686,"103":-0.1091747060418129,"104":-0.13691729307174683,"105":0.038405824452638626,"106":0.0369202196598053,"107":-0.17882880568504333,"108":-0.1118597611784935,"109":-0.14458127319812775,"110":-0.24119587242603302,"111":-0.15045922994613647,"112":-0.0879393219947815,"113":0.03303854167461395,"114":-0.18499580025672913,"115":0.04355902597308159,"116":0.16183240711688995,"117":0.14627663791179657,"118":0.11845986545085907,"119":-0.16149382293224335,"120":-0.06162508204579353,"121":-0.14761124551296234,"122":0.08981730788946152,"123":-0.19659088551998138,"124":0.19774846732616425,"125":0.1691705733537674,"126":0.22303485870361328,"127":0.25989705324172974,"128":0.02406223677098751,"129":0.07304103672504425,"130":0.12486878782510757,"131":0.04955950751900673,"132":-0.12284591048955917,"133":-0.1882091760635376,"134":-0.10294894129037857,"135":-0.22408166527748108,"136":-0.17347556352615356,"137":-0.09118707478046417,"138":-0.011895892210304737,"139":0.17613832652568817,"140":-0.1340625286102295,"141":0.04268578067421913,"142":0.06426488608121872,"143":0.07823030650615692}},"22":{"bias":0.26015788316726685,"weights":{"0":-0.01735321432352066,"1":-0.4156250059604645,"2":-0.06964714825153351,"3":0.028899498283863068,"4":0.2001841515302658,"5":-0.3359471559524536,"6":-0.6773638129234314,"7":-0.10884682089090347,"8":-1.0370306968688965,"9":-0.6551713943481445,"10":0.11582893133163452,"11":0.17276586592197418,"12":0.12352745980024338,"13":0.2107395976781845,"14":-0.6882131695747375,"15":-0.18960212171077728,"16":0.049622152000665665,"17":-0.2617396414279938,"18":0.2827047109603882,"19":0.2592543065547943,"20":-0.13594913482666016,"21":-0.39426785707473755,"22":-0.4825178384780884,"23":0.11431507021188736,"24":0.12153010070323944,"25":-0.19658473134040833,"26":0.2976275086402893,"27":-0.06764554232358932,"28":-0.3411417305469513,"29":-0.21391896903514862,"30":0.11250165104866028,"31":0.34420767426490784,"32":-0.02066028118133545,"33":0.19420848786830902,"34":0.1430710107088089,"35":-0.4277389645576477,"36":-0.6747140884399414,"37":-0.23741333186626434,"38":-0.4510844051837921,"39":-0.061488792300224304,"40":-0.1527385264635086,"41":-0.3225020170211792,"42":-0.047071345150470734,"43":0.4141715466976166,"44":0.15262693166732788,"45":-0.19941005110740662,"46":-0.5872468948364258,"47":-0.6053945422172546,"48":-0.13063140213489532,"49":-0.21032314002513885,"50":-0.46213623881340027,"51":-0.2927234172821045,"52":-0.5784724950790405,"53":-0.07334069162607193,"54":-0.1850614994764328,"55":-0.05571495741605759,"56":-0.19874997437000275,"57":0.25173699855804443,"58":0.08737210929393768,"59":-0.16830725967884064,"60":-0.18490542471408844,"61":-0.2706070840358734,"62":-0.10065436363220215,"63":-0.2728087604045868,"64":0.1640302985906601,"65":-0.18108218908309937,"66":-0.3431195318698883,"67":-0.20451563596725464,"68":-0.5306796431541443,"69":-0.16395342350006104,"70":-0.13476616144180298,"71":-0.3460164964199066,"72":0.1758984625339508,"73":-0.020198438316583633,"74":-0.03167625889182091,"75":-0.11985466629266739,"76":-0.2185007780790329,"77":-0.049017954617738724,"78":0.07179853320121765,"79":-0.06882616132497787,"80":-0.035894766449928284,"81":0.23272272944450378,"82":-0.28079313039779663,"83":-0.21637454628944397,"84":-0.13916821777820587,"85":-0.02835978753864765,"86":-0.11366039514541626,"87":-0.13623666763305664,"88":-0.04940840229392052,"89":0.03594538941979408,"90":-0.18446412682533264,"91":-0.027738157659769058,"92":-0.13796928524971008,"93":0.07148481160402298,"94":0.1863938271999359,"95":-0.009108551777899265,"96":0.16234779357910156,"97":0.1350955367088318,"98":0.00013302660954650491,"99":-0.0394461564719677,"100":0.0665101557970047,"101":0.2627934515476227,"102":-0.03525688871741295,"103":-0.07476793974637985,"104":-0.2179661989212036,"105":-0.15134356915950775,"106":-0.006079548038542271,"107":-0.16167287528514862,"108":0.07953299582004547,"109":-0.2122848927974701,"110":-0.16227616369724274,"111":0.07032743096351624,"112":-0.09554250538349152,"113":-0.22025664150714874,"114":-0.02201884612441063,"115":-0.03824125975370407,"116":-0.24459360539913177,"117":-0.16713730990886688,"118":-0.0018305066041648388,"119":-0.17058654129505157,"120":-0.26705610752105713,"121":-0.061133407056331635,"122":0.06086428463459015,"123":0.04861240088939667,"124":-0.023301728069782257,"125":-0.20749525725841522,"126":0.11997127532958984,"127":-0.255204439163208,"128":-0.08858215063810349,"129":0.2047320455312729,"130":0.15580807626247406,"131":-0.0008017460349947214,"132":-0.2084396630525589,"133":-0.02019449882209301,"134":-0.11909276992082596,"135":0.0017551182536408305,"136":0.1500808149576187,"137":0.19998666644096375,"138":0.07556893676519394,"139":-0.04141075536608696,"140":-0.08044787496328354,"141":0.19141650199890137,"142":0.1426614224910736,"143":-0.05811615288257599}},"23":{"bias":-0.3664420247077942,"weights":{"0":0.23439013957977295,"1":-0.3029870390892029,"2":0.2190849781036377,"3":-0.38067319989204407,"4":-0.1872319132089615,"5":0.47034305334091187,"6":0.5241976380348206,"7":-0.01673044264316559,"8":1.1022874116897583,"9":0.9742815494537354,"10":-0.5435805320739746,"11":-0.29844433069229126,"12":-0.27404382824897766,"13":0.3120743930339813,"14":-0.13510075211524963,"15":0.7185882329940796,"16":0.46234390139579773,"17":-0.14219503104686737,"18":-0.4008205533027649,"19":-0.09096385538578033,"20":-0.16827882826328278,"21":0.6102989315986633,"22":0.28579288721084595,"23":-0.3392843008041382,"24":-0.18582956492900848,"25":0.28155025839805603,"26":0.508638322353363,"27":0.11808215081691742,"28":0.7915011644363403,"29":-0.5358903408050537,"30":-0.07681203633546829,"31":-0.4057217538356781,"32":-0.3541252017021179,"33":-0.30018725991249084,"34":-0.9894785284996033,"35":0.21767565608024597,"36":1.2988263368606567,"37":0.6163356304168701,"38":0.636035680770874,"39":-0.2761004567146301,"40":0.3956258296966553,"41":-0.4700095057487488,"42":-0.4444562494754791,"43":-0.8597781658172607,"44":-0.40217652916908264,"45":-0.5421034097671509,"46":0.5258765816688538,"47":0.26514869928359985,"48":-0.6772164702415466,"49":-0.45415177941322327,"50":-0.30023565888404846,"51":-0.6689978837966919,"52":-0.41895559430122375,"53":-0.3502238690853119,"54":-0.0907423347234726,"55":-0.18667460978031158,"56":-0.5184365510940552,"57":-0.2789241373538971,"58":-0.5779537558555603,"59":-0.3209626376628876,"60":-0.10737553238868713,"61":0.03935084864497185,"62":-0.07430753856897354,"63":-0.1375296264886856,"64":-0.14333659410476685,"65":0.04848382622003555,"66":-0.15722869336605072,"67":-0.022978650406003,"68":0.23008139431476593,"69":-0.10134657472372055,"70":-0.28739044070243835,"71":-0.10095521807670593,"72":-0.5790296792984009,"73":-0.24136361479759216,"74":-0.010464604943990707,"75":-0.007614500354975462,"76":-0.02753901667892933,"77":0.23534590005874634,"78":-0.09066841751337051,"79":0.2927713692188263,"80":0.12426257878541946,"81":-0.24553261697292328,"82":-0.036527059972286224,"83":-0.3034268915653229,"84":-0.37113264203071594,"85":-0.3099888861179352,"86":-0.40223509073257446,"87":-0.4389534294605255,"88":0.06653766334056854,"89":-0.32553133368492126,"90":-0.009394743479788303,"91":-0.3156537711620331,"92":-0.3105359971523285,"93":-0.05009487271308899,"94":-0.1729017198085785,"95":-0.1124449223279953,"96":-0.45986732840538025,"97":-0.3183203339576721,"98":-0.24919520318508148,"99":0.10838931053876877,"100":-0.2156314104795456,"101":-0.22692805528640747,"102":-0.1785525679588318,"103":-0.044601161032915115,"104":-0.21466079354286194,"105":-0.22993141412734985,"106":-0.0953783169388771,"107":0.04851652681827545,"108":-0.023134583607316017,"109":0.030413459986448288,"110":0.14605198800563812,"111":0.06102481111884117,"112":-0.24630287289619446,"113":-0.0626119077205658,"114":-0.0911855697631836,"115":-0.20450426638126373,"116":-0.03275694698095322,"117":-0.13517045974731445,"118":0.007123842369765043,"119":-0.1426464170217514,"120":0.09015451371669769,"121":-0.20191967487335205,"122":-0.19864895939826965,"123":0.054905105382204056,"124":0.020270051434636116,"125":-0.03772365301847458,"126":0.07953236252069473,"127":-0.04262201488018036,"128":0.06879879534244537,"129":-0.12294004112482071,"130":0.11340013146400452,"131":-0.3149290978908539,"132":-0.12441633641719818,"133":-0.1677897572517395,"134":-0.02198592573404312,"135":0.015837369486689568,"136":0.046669650822877884,"137":-0.028304429724812508,"138":0.17830616235733032,"139":-0.03919902816414833,"140":-0.046314552426338196,"141":-0.1287471354007721,"142":-0.14702197909355164,"143":0.02710011415183544}},"24":{"bias":-0.6600914597511292,"weights":{"0":0.0634855255484581,"1":-0.1640932857990265,"2":-0.5685381293296814,"3":-1.1378790140151978,"4":0.24651604890823364,"5":0.2353098839521408,"6":-0.7640170454978943,"7":0.511508047580719,"8":0.28664276003837585,"9":-1.1810874938964844,"10":-0.6370073556900024,"11":-1.1625077724456787,"12":-1.7983553409576416,"13":-0.24600864946842194,"14":-2.077343463897705,"15":0.9210162162780762,"16":-0.2112957239151001,"17":-1.914514183998108,"18":-0.1442262977361679,"19":-0.08611089736223221,"20":0.7888392806053162,"21":-0.09222744405269623,"22":-0.8723129034042358,"23":-0.9704433679580688,"24":-0.3634504973888397,"25":-0.38594532012939453,"26":-1.4513088464736938,"27":-1.5096009969711304,"28":0.5275455713272095,"29":-0.7102143168449402,"30":1.3647140264511108,"31":1.4354859590530396,"32":-0.5516771674156189,"33":-2.106560230255127,"34":-0.9709842801094055,"35":-0.5841584205627441,"36":1.2116155624389648,"37":0.09941690415143967,"38":-2.7073352336883545,"39":0.6066370010375977,"40":1.267307996749878,"41":-1.8989163637161255,"42":-1.5421618223190308,"43":-0.7137904167175293,"44":0.701686680316925,"45":-2.12963604927063,"46":0.1364859640598297,"47":1.5146944522857666,"48":-1.3171738386154175,"49":-1.3322739601135254,"50":0.9705489277839661,"51":0.3632621765136719,"52":-0.15253612399101257,"53":1.0220521688461304,"54":0.5604891777038574,"55":-0.46583127975463867,"56":-0.2361990064382553,"57":-1.2339882850646973,"58":-0.1208835318684578,"59":-0.43298712372779846,"60":1.7388222217559814,"61":-0.2419862151145935,"62":1.7846137285232544,"63":0.8787441253662109,"64":0.6791253089904785,"65":1.0912280082702637,"66":0.23910848796367645,"67":1.0820804834365845,"68":1.6334962844848633,"69":1.0951091051101685,"70":-1.3984298706054688,"71":-0.484019011259079,"72":0.15874367952346802,"73":-0.4424886405467987,"74":-0.2588682770729065,"75":-1.1156671047210693,"76":0.05510186776518822,"77":-0.4635700583457947,"78":1.0104299783706665,"79":0.9997738003730774,"80":-0.32812660932540894,"81":1.099435806274414,"82":0.20035578310489655,"83":0.30957692861557007,"84":0.6897194385528564,"85":-0.45651358366012573,"86":-0.21994447708129883,"87":-0.5701090097427368,"88":0.4679257869720459,"89":0.45908674597740173,"90":0.7317583560943604,"91":1.1356430053710938,"92":1.9572858810424805,"93":-0.08309166878461838,"94":1.305389165878296,"95":0.8678574562072754,"96":0.9176233410835266,"97":1.5193202495574951,"98":1.2342896461486816,"99":-0.08692414313554764,"100":0.3397606313228607,"101":0.1448286920785904,"102":2.1771459579467773,"103":0.518074095249176,"104":0.5720618963241577,"105":1.0983796119689941,"106":0.3681935667991638,"107":-0.17518526315689087,"108":1.0440701246261597,"109":-0.6552814841270447,"110":-1.1724882125854492,"111":0.15999093651771545,"112":0.3085966408252716,"113":-0.07075410336256027,"114":-0.28847965598106384,"115":1.124565839767456,"116":-1.1291687488555908,"117":0.16273540258407593,"118":0.3479446470737457,"119":0.8512723445892334,"120":-0.18990308046340942,"121":0.38500165939331055,"122":-0.5717195868492126,"123":0.07408672571182251,"124":-0.07588440179824829,"125":-0.6085441708564758,"126":0.7068203091621399,"127":-0.20162507891654968,"128":0.1732725352048874,"129":-0.19305185973644257,"130":-0.34105855226516724,"131":0.9139858484268188,"132":-0.8881431818008423,"133":-0.6971811056137085,"134":-0.44624727964401245,"135":-0.6384556293487549,"136":-0.3762897849082947,"137":-0.0750349685549736,"138":-0.2787269353866577,"139":0.7391451597213745,"140":0.4822922646999359,"141":0.448620080947876,"142":0.5365608930587769,"143":0.22083836793899536}},"25":{"bias":0.37228772044181824,"weights":{"0":1.4277311563491821,"1":-5.317976951599121,"2":1.1959564685821533,"3":3.0562167167663574,"4":-0.9645898342132568,"5":0.2108880579471588,"6":-0.35162782669067383,"7":-0.4256706237792969,"8":-4.3518171310424805,"9":-1.6885288953781128,"10":0.24269478023052216,"11":-0.8151752948760986,"12":3.1180477142333984,"13":-3.1397998332977295,"14":-0.9420230984687805,"15":4.288614273071289,"16":-3.037066698074341,"17":1.2976384162902832,"18":-1.4261361360549927,"19":3.844508647918701,"20":1.3554720878601074,"21":0.20832815766334534,"22":-1.4279344081878662,"23":-1.4635074138641357,"24":-0.09027643501758575,"25":-0.9066888093948364,"26":3.1939492225646973,"27":0.625495970249176,"28":-3.090632200241089,"29":0.2103840708732605,"30":-1.9018737077713013,"31":-2.1068649291992188,"32":1.1339367628097534,"33":3.130648374557495,"34":-1.5641648769378662,"35":4.209149360656738,"36":-1.7502928972244263,"37":3.307828903198242,"38":1.4000340700149536,"39":-1.6145923137664795,"40":-0.7973231673240662,"41":0.27705368399620056,"42":0.8666456937789917,"43":-0.8372851014137268,"44":-1.8069324493408203,"45":-3.0385634899139404,"46":-3.6141834259033203,"47":-2.4918212890625,"48":-2.221578359603882,"49":-0.7876302003860474,"50":0.7850951552391052,"51":0.5903694033622742,"52":0.22669772803783417,"53":0.6988911032676697,"54":-3.2769968509674072,"55":1.3634239435195923,"56":0.8541790246963501,"57":2.0381290912628174,"58":5.452821731567383,"59":0.8262128233909607,"60":0.33076199889183044,"61":-2.580760955810547,"62":0.8908430337905884,"63":-0.48298826813697815,"64":2.2886650562286377,"65":-0.7043134570121765,"66":-0.4394475519657135,"67":-1.7075586318969727,"68":-0.48724085092544556,"69":0.11306998878717422,"70":-0.7192239761352539,"71":-1.9783424139022827,"72":-0.8228444457054138,"73":-0.41777166724205017,"74":-1.476689100265503,"75":-0.9265368580818176,"76":-2.029771089553833,"77":-2.291637897491455,"78":-1.4612959623336792,"79":0.1891372948884964,"80":0.7426415681838989,"81":1.735214114189148,"82":-1.283615231513977,"83":-0.5898903608322144,"84":0.3809666633605957,"85":-0.5990715026855469,"86":0.9926010370254517,"87":0.51402348279953,"88":-0.5404532551765442,"89":0.05191994830965996,"90":0.9240761399269104,"91":1.4720555543899536,"92":1.3317286968231201,"93":1.5166288614273071,"94":2.835462808609009,"95":0.6957300901412964,"96":1.7890037298202515,"97":0.966733455657959,"98":0.8335157036781311,"99":-2.157975673675537,"100":0.6747942566871643,"101":0.8341935276985168,"102":1.387190818786621,"103":-1.131179928779602,"104":0.8927987217903137,"105":1.189078450202942,"106":-0.11665157973766327,"107":0.1799163967370987,"108":0.9564118385314941,"109":-0.4735144376754761,"110":-1.0207929611206055,"111":0.8731361031532288,"112":0.7284769415855408,"113":0.007638220675289631,"114":1.0272042751312256,"115":0.872984766960144,"116":-0.5096904039382935,"117":0.2796153128147125,"118":1.3659404516220093,"119":0.4160432815551758,"120":0.34911879897117615,"121":0.029680024832487106,"122":-0.33208945393562317,"123":-0.6377078890800476,"124":-1.1761302947998047,"125":-0.41813212633132935,"126":-0.3908311724662781,"127":-1.8867465257644653,"128":-0.2765234410762787,"129":0.7884373664855957,"130":0.46216651797294617,"131":1.7826189994812012,"132":0.14256703853607178,"133":0.6409758925437927,"134":1.138008952140808,"135":0.4003429412841797,"136":-0.1880778819322586,"137":-0.5434366464614868,"138":-0.7032433152198792,"139":0.2500500977039337,"140":0.6635773777961731,"141":0.8501449227333069,"142":0.5750030875205994,"143":0.12512622773647308}},"26":{"bias":-0.4237847924232483,"weights":{"0":-0.19147488474845886,"1":-0.021624913439154625,"2":-0.019677435979247093,"3":-0.3266655206680298,"4":-0.06951139122247696,"5":-0.1316470354795456,"6":-0.11284904181957245,"7":-0.2491590678691864,"8":-0.24028785526752472,"9":-0.3347151577472687,"10":-0.003165805246680975,"11":0.04584485664963722,"12":-0.22806869447231293,"13":-0.3470822870731354,"14":-0.3308459222316742,"15":-0.3578245937824249,"16":-0.16740699112415314,"17":-0.03696487098932266,"18":-0.3049580454826355,"19":-0.2315266877412796,"20":-0.024290522560477257,"21":-0.3584486246109009,"22":-0.30147477984428406,"23":-0.28787875175476074,"24":-0.008395184762775898,"25":0.03849603980779648,"26":-0.2882749140262604,"27":-0.011053350754082203,"28":-0.15000483393669128,"29":-0.1826927214860916,"30":-0.28774628043174744,"31":-0.1911023110151291,"32":0.09280425310134888,"33":-0.11788854748010635,"34":0.02152654528617859,"35":-0.19141824543476105,"36":-0.14623071253299713,"37":-0.030840488150715828,"38":-0.2986956536769867,"39":-0.08819039165973663,"40":-0.05185340717434883,"41":-0.19641652703285217,"42":-0.13459517061710358,"43":-0.17196987569332123,"44":-0.04340212792158127,"45":-0.1209903433918953,"46":-0.15255668759346008,"47":-0.170694962143898,"48":-0.22756625711917877,"49":-0.13012278079986572,"50":0.02041442133486271,"51":-0.08882182091474533,"52":-0.17934870719909668,"53":-0.06269825249910355,"54":-0.08758940547704697,"55":-0.10545986145734787,"56":0.06388254463672638,"57":-0.16485631465911865,"58":0.007947037927806377,"59":-0.17664434015750885,"60":0.15178559720516205,"61":-0.1178780272603035,"62":0.041924264281988144,"63":0.11878804862499237,"64":-0.005004988983273506,"65":-0.06700226664543152,"66":-0.3046616315841675,"67":-0.02227126806974411,"68":-0.14302361011505127,"69":0.07350347936153412,"70":-0.012231627479195595,"71":-0.06693809479475021,"72":0.08296074718236923,"73":-0.09017029404640198,"74":0.05259953811764717,"75":-0.29013770818710327,"76":-0.22694455087184906,"77":-0.1367689073085785,"78":-0.1386958807706833,"79":0.1470564901828766,"80":0.12233295291662216,"81":-0.0878763273358345,"82":0.07325328886508942,"83":-0.07946965098381042,"84":0.11597155779600143,"85":-0.03631681203842163,"86":0.08772601187229156,"87":-0.06047330051660538,"88":-0.23148022592067719,"89":0.10304718464612961,"90":0.07258567959070206,"91":0.1296076476573944,"92":0.019196875393390656,"93":-0.08198665827512741,"94":0.1782117486000061,"95":-0.20984840393066406,"96":0.1764192283153534,"97":-0.2257569283246994,"98":0.031591806560754776,"99":0.0962979793548584,